#include "tinytensor_lstm_layer.h"
#include "tinytensor_conv_layer.h"
#include "tinytensor_fullyconnected_layer.h"
#include "tinytensor_math.h"
#include "tinytensor_net.h"
const static uint32_t LSTM_01_input_dims[4] = {1,1,1,40};
const static uint32_t LSTM_01_output_dims[4] = {1,1,1,48};
const static Weight_t LSTM_01_weights_input_gate_x[4224] = {5486,-9133,-4145,-4550,9307,9778,-2063,-1667,9074,-824,4463,-2404,6475,3321,9576,-3513,-1266,7263,-5734,9089,11,-6083,7421,945,-3257,776,-1419,7191,-5109,1645,11643,10933,7081,8129,10468,-1490,10617,12426,8921,15827,-1862,394,-1395,1469,-3139,119,-2051,4446,9803,-2117,-4519,-3472,-3668,-1669,-4159,-317,-580,3671,-5950,-886,8331,-9917,-8637,-2148,3460,4186,-7076,14086,-4294,10104,-1381,4382,8977,3566,-713,-11108,-12899,-4481,-526,-8018,3400,3249,-8783,-5021,-16698,-7381,-1244,3673,702,3698,2856,224,277,3273,7339,6074,1306,1336,1694,-4054,6290,-193,4831,-7946,-5567,1680,-3922,-9186,5429,4039,2537,-341,-6813,-287,7309,790,7025,1037,5959,-5511,3838,-4042,-3062,2605,-2724,872,-1698,147,4084,-3510,-7609,-4897,2568,5422,7371,-10160,3193,-4879,6924,-3487,-659,-4957,-4300,-16,-5368,5873,2292,-11071,-5641,2991,8964,-1378,522,1131,-4932,5490,-3955,5453,-1962,2497,626,-120,5152,-2602,8726,-12770,8377,7196,3240,-2771,87,-1812,9029,3188,-4700,-8274,911,-4582,-9070,-369,787,3982,-3464,-1471,2040,-1090,-997,5315,1521,1459,2127,-5608,-3650,9059,-1082,-4981,4603,7161,933,3798,553,7561,6764,5817,-2684,8559,4787,4272,5171,-9659,-5730,931,6014,6282,-7620,-3884,-5018,-7212,5863,7927,9688,5696,-3183,8187,6262,9874,421,-8223,-10443,5003,-1281,-2618,6680,-8947,6310,-5785,4869,5715,7858,7294,-762,-1266,-4434,-3032,1144,2987,-2714,-4481,-535,-2396,-4732,-3554,7651,3405,979,-1391,11749,6487,2600,858,-2877,-3222,-1531,7228,-2196,-10394,-1557,2251,12307,12578,13481,-2712,4294,7220,2632,-2035,-6331,7229,7956,6464,6135,4047,-7997,5919,-4434,10245,-4936,7322,8193,6225,-2564,-835,5877,2299,8374,8541,5533,9983,4504,-5662,-1169,3528,8685,5257,-739,8344,-6179,-7358,-5392,3833,-2367,742,6345,1965,-3726,5466,5197,702,-4390,-2458,17079,1834,-1828,-2084,4564,-3008,1930,8085,-6356,6742,5739,-2618,-4709,4028,-2554,-5441,856,-6924,1198,-12066,-8492,6249,599,5931,3185,-2658,1153,-4589,1134,-529,-11424,3716,1766,-11365,-8639,-12015,1815,-9123,-11853,-14932,-5990,-10647,-3963,-14240,510,-2113,3567,6922,-4694,-2711,4756,-8923,-3127,-5920,1170,-9211,-16428,-2986,-5019,8137,4381,-2310,-5008,-184,2469,4334,-1012,-6371,-5227,-5828,-8600,-8364,-7403,669,5506,-427,1303,-544,-2050,-6789,-5260,-1950,9473,-3017,6116,-5131,9658,-663,423,5527,-5412,-4062,-5055,-4945,-4750,-11603,7539,5463,720,-7993,3156,-2085,-10045,2371,-2842,2227,1064,10307,-5960,-7943,2233,-9122,-3249,-1817,7491,2696,-2361,-3197,-3624,-429,876,802,-4128,-4454,-952,-1993,-8605,1990,4289,2536,-967,-8132,2285,-5882,-1435,2921,-6429,-4894,-12427,-895,-3776,-9959,-2176,-10758,-8375,-1325,-2843,6018,-2689,-6403,-3397,-6339,3724,4731,-7230,-3531,-3772,7125,-8277,-6040,651,5326,-3109,2586,17415,-712,-9101,-5013,6210,-4939,-667,2022,-6037,4689,-1819,-3620,5675,2194,9145,972,15269,-3374,-2501,7334,3,-14043,10308,-484,-523,-5042,-3068,11399,-8329,-8282,980,-3669,-7107,3861,13486,660,3889,-5039,762,-1387,7767,-6805,969,-4402,-3359,-5947,7573,-1459,-14678,4222,1940,15480,12741,-7331,-11796,4778,291,1489,-4627,-7431,-2270,2981,6772,1851,6125,-6541,-1842,3708,6188,1060,936,3744,-6599,-6579,-5341,-7627,-7376,5059,1411,-9504,-2529,-5633,-4750,7190,1705,8933,28027,4709,5441,-3942,448,-12355,-486,9251,7535,11117,-10205,6230,-377,12308,-6595,-4691,-5983,-367,-14053,-7515,134,11457,-570,-2197,-8286,-7922,-3762,-5776,2115,-20177,-4268,-2914,-303,10641,6494,4736,11814,5644,9510,-6946,7351,4845,5916,-795,-4788,5803,11963,9119,1309,2998,-1767,-14283,-4213,-1216,-13727,-5053,-5784,-679,-6661,-10128,-13772,-9937,-8071,-7259,-6523,-9131,-7174,-8177,-1152,-6248,-608,-3904,-1398,-13110,-1718,-2649,-280,-4060,-6103,3715,2390,-3761,6827,-2090,-10369,-7782,-13017,13842,7072,14989,-4188,2524,-1116,16002,-5354,170,1802,-2033,14810,-5509,-6408,-6375,-5883,-3420,11082,14270,6241,-1851,-3029,-1670,-7335,5227,8344,7337,6138,9517,-10631,-12441,9369,-2805,4405,3631,-431,-985,404,-13794,15838,166,-2553,-292,17977,474,-11097,-103,4738,-10800,-5981,-9177,-4181,4437,-6532,-9125,-6679,-2122,3018,-6195,-5231,724,-131,-1592,-4918,-2912,1830,-5800,-14399,-6595,-2248,981,-392,-3697,-1513,-5739,-5947,839,-3588,-9292,3346,-7347,-3610,3782,-1625,-1530,-7153,-1438,9775,-2180,-616,1278,2078,-2906,-9593,6740,1815,2645,10594,-2193,-113,-7408,12648,6975,-3778,3317,8160,-8070,6113,-7336,-7940,-4766,10346,1305,720,5467,9510,-4548,-13377,-9675,6744,4947,-8525,-4977,721,6709,11853,5490,5310,2023,2118,-240,2758,-7607,4852,10639,-7312,-345,-3022,5112,-8872,1190,-8929,-1634,-145,-2745,2668,-5468,-8478,3398,1716,8338,-8439,-4142,-5161,6389,-4734,1407,-3412,-1640,-891,6291,1472,3714,-1689,5600,-6444,1949,3247,-4514,-4937,-1310,-5500,5594,-4260,-3704,-8497,-10416,3138,12924,-10640,12250,-12031,-4310,-5658,-820,691,-9978,277,1891,8667,-12130,-2902,8731,1061,3998,11006,6174,1688,-699,-1167,-1174,-4936,1413,-11148,-9714,-7727,-1586,2101,-494,6627,-5150,-9760,10447,5910,-1260,1004,4220,778,5119,-2374,-2407,7293,-2473,-3225,-580,-1582,-1871,-4991,3183,-2904,-4668,6965,5923,3310,7828,-4828,550,-9023,-6498,-8663,6747,395,-49,3885,2513,-6865,3442,-5124,491,-3636,2259,-8562,2968,-3577,-7347,-1905,3728,-4824,4191,-60,-1770,5583,-1676,-540,84,-6687,6628,-178,4328,-21638,10368,-5612,-2805,1749,1358,5148,10121,-2666,11074,9161,-3410,96,10664,-13468,-1107,-1090,2576,-11757,-9607,3081,6190,-483,-1652,-537,-2291,-700,-5428,-8151,1005,1612,-2847,3693,-85,5347,-4314,14893,-8664,-368,-9670,6519,1333,-5922,1817,-5682,5687,-10473,4334,9041,-5648,4238,-6024,9517,-9140,6952,-2787,-562,-536,-6777,2789,6091,6896,-1432,-5374,7869,-5292,1108,2154,4550,3728,7983,-4608,5583,4309,-3905,3397,-162,570,-8259,-10262,-6509,2797,-2090,-1403,3280,-6916,7532,12573,-7210,-4269,-4661,8895,-4066,8446,-484,-5366,-4011,-2251,-1296,5549,988,-12403,-2589,1346,14482,-7397,1386,-3497,4128,1773,-950,15085,-2363,-3609,8757,-14424,-5615,1838,-8765,12356,-584,-241,5188,-8532,-4039,5764,-2220,-7732,8310,-7777,4906,-4888,-5732,4280,-7215,1396,-9845,1462,-2010,-9665,2701,-4404,-6413,-7082,-3668,-3992,6942,-5700,-8516,-161,5161,-5537,-8861,-2846,2844,-8288,-3891,7514,6975,1644,-2663,4937,5581,6739,-6207,-5142,8767,2768,2269,-4424,-4415,-2528,-2435,-8024,-2737,9601,8067,6331,-524,-5283,2464,6406,-5861,5614,-600,-1114,-5499,-2250,-4080,4843,2985,-11276,7511,7284,4011,1321,1084,-3276,-2177,2584,4800,1409,4422,-10309,3581,1324,-3122,2279,2597,-2560,4510,-1007,3821,-5783,-610,1456,4123,1634,7076,2815,-1477,4019,6839,9137,6369,2861,71,7846,3074,9636,263,7501,-1482,7436,7057,-3948,6761,761,1142,4377,-2587,6292,3627,2843,7404,1341,-2386,7720,9077,3772,-801,2959,2085,-4936,510,125,1840,-2639,8751,-8838,-4311,7245,-2975,-3421,-9218,-5234,4718,5020,10473,-6668,-1122,6874,-10176,3270,-9136,1830,384,4593,-2259,5389,-5415,5358,5347,4803,15380,3850,-2547,3557,-3637,-4135,5969,-6498,-5337,-1902,2443,-1060,2221,4301,-1246,-2750,4312,-75,-3442,-3067,6384,5793,-7129,-371,-4920,625,2243,-4438,5973,-8415,4090,-328,-3639,3583,9032,950,10058,280,4503,-5309,-2259,-7954,694,-6270,6183,1867,4856,1328,4910,137,8990,-5109,-3072,8483,8571,-1550,672,6104,-3313,3969,2758,10183,14365,1304,-268,3883,-43,3941,-1125,6469,-3485,-10043,1524,-2967,-1172,1885,-3080,8340,4583,2189,-6820,-7234,6395,-1725,763,-8667,17903,3326,414,-2896,-3255,-7671,-3895,341,2261,2262,-3106,2758,-1747,-10366,-3465,2976,-8827,8012,-6570,-2001,2428,-2070,2093,-2775,-6832,5969,-2480,-10313,-2187,2690,4428,-1940,5890,3600,-1067,5464,-1411,-3229,1090,-3969,9290,-5225,-2004,-7817,6209,5061,-5615,-2677,-6708,6152,-2687,5512,-708,1342,7523,6692,-3641,5504,2830,4518,-6511,-54,4259,-5121,-1019,-4138,1751,-10052,8556,1324,2200,4569,2804,5389,8698,-2262,3842,-3009,-507,-16732,-7025,7902,-8548,7144,3421,17222,-7861,-734,7464,-4617,-11825,-2845,384,-5763,1909,-4099,-8346,-2097,-6662,2295,-3682,2752,-7156,1980,-6242,-1657,-2590,2755,-2284,15017,-5724,-2367,-3453,-804,-5064,-5084,2017,3431,-1240,10791,8568,9088,8043,-3088,-4574,2195,1042,7636,4533,4081,-3095,3470,378,7194,-1782,1976,7645,10444,9870,8238,-1328,985,9545,-2525,3096,4269,6557,17,5516,477,5938,-5142,5675,-3717,6323,-1140,9303,2182,651,6406,1809,-3973,8795,2886,7526,1458,5722,-3324,-11332,-817,-13042,-7146,-2218,-3034,-907,4138,-5795,4815,12764,2081,7529,4240,-8336,-2277,3842,7765,-1732,-8109,2991,5768,228,916,-1495,4697,-6192,7418,-3218,-2010,1268,-7529,3623,9199,-3777,2648,4988,5216,-1292,4739,2210,5322,-5819,-3876,7071,9834,-1194,9160,1908,10607,-1514,-6571,-99,-5380,-1879,4796,1077,1286,4979,-6527,2105,-3234,315,6038,-5137,-4432,-1964,-3392,-2541,-2367,7424,-6726,7125,8940,2196,-119,-922,-10459,-3260,7464,-168,3067,-3135,-9925,1038,-4533,-5168,-6730,-2838,-715,-10572,-13161,-11233,362,-210,3543,-12909,-6595,2517,1008,-12943,129,9292,3031,-789,-6836,-7337,-1361,8375,-1175,8264,1355,-7121,1934,10222,535,-7553,-5039,-2174,-3038,-3104,922,2117,7536,-4434,1353,-6475,-1091,454,-6435,-6132,-565,536,11556,-4099,-324,13675,-2831,12445,-722,3666,-5945,2424,4482,-5033,2217,12005,-2937,-3287,-4124,-2857,7448,8694,13028,11952,-1639,4338,10338,7178,16131,-8760,4375,-3707,-7463,-2713,-523,-9948,6307,2472,-6156,-2965,2495,47,5588,-3795,-392,-176,1900,2057,-4942,9210,11043,-9581,-10008,183,322,8938,-4860,-2251,-732,4699,-973,6410,-990,10724,-12583,-2629,-1755,2877,-3298,-1170,-301,-7513,-1050,1941,-8457,3034,8125,6645,8972,-2714,5908,-2040,-1095,3884,3118,-6707,-6867,-37,-10291,4693,1171,1697,-10357,-338,2233,114,-11312,-250,6733,-7761,-5040,4006,4133,1467,8001,-4908,3151,440,2653,-1339,-11759,-6564,-3964,2689,-10573,-7947,-9176,2515,-1817,2079,-5496,-4801,4189,2549,-8568,-7166,8943,-5334,-1162,7528,-5172,-8001,4125,-3488,-9742,-10661,-14189,-1136,-6504,6628,-1860,796,-6886,-2530,8611,1338,-8434,4576,12371,-4370,11150,1902,-7329,16619,1746,9370,1495,-7206,-6886,-175,2681,2034,8566,-9507,14290,3346,-3074,801,-2796,7232,-476,9642,-851,774,5694,-4362,9848,3059,5203,-3491,7584,-5936,-3952,4780,-1891,3629,10106,7934,-35,11355,299,6801,1403,1925,-3871,-2325,10510,7196,11318,132,6397,4855,-2797,11325,1428,-853,4774,-5231,-1987,-1991,-6016,-9052,1325,-3796,12478,8101,-8144,-5869,-3075,-8804,1388,488,304,6490,1810,-11356,3552,2130,-1305,-619,-3383,-5701,-1828,-4022,8658,-2427,1881,-4333,-1457,-3473,-16717,-6052,1985,-3382,-3013,-6470,-2228,-11475,-2329,8195,-6869,11196,-873,491,4373,-2253,7429,5777,9253,3677,-4417,10983,3870,7688,-1844,-5987,-6071,-7748,7836,8388,-5019,3143,-567,4150,2135,5053,-415,9698,10580,2373,-4241,9137,-528,6304,5864,7442,-5263,-7448,1138,2818,-8662,3740,1676,18653,-1458,6253,9163,-287,-839,2138,3903,-4839,-3446,4849,-3234,-2268,-5513,-6116,9315,-3977,4411,-6814,-6401,-6376,-878,-5905,-1051,4775,295,1261,-4354,1355,1866,-5800,12177,-2514,5379,-3048,2421,13889,-1243,-18057,2040,300,-6831,9191,-2732,-1283,3622,-551,11530,5397,9636,2113,2222,-6778,-2248,-6462,-4118,-3415,8256,-132,4624,-4397,-1852,-1774,5948,6533,7649,-5520,-3374,-2818,6865,-5989,-551,-6722,9664,1879,-3940,1349,662,4902,9297,-1007,-1861,2264,-6804,7284,4620,-7237,4097,-2510,-2748,1314,-4718,3018,1814,6215,11824,5289,8635,-1753,-3300,4580,-1999,-9427,6309,22,13268,-2254,839,-10777,-1847,-5579,-4782,3168,1937,1151,5142,-483,-12473,-4283,2722,2673,-2945,6929,2306,1982,-1223,-3092,2123,4910,15085,2435,-762,3140,-847,775,-2723,6690,4788,1002,-2043,8770,-1194,-2229,3043,-4918,4696,7095,-6370,3142,5922,4986,371,2013,7549,-4229,1795,552,-4723,8554,-4169,-3444,-1221,-873,659,2995,-4102,4912,610,4339,-7802,-2652,-4628,-2608,-5869,4305,7688,-1015,3729,-2727,-5535,-6754,-3068,-10595,-4547,7154,1549,711,2642,-11341,3404,-3773,-7183,-7452,4857,-1030,-6073,1482,-3751,-1731,-4175,-8081,1057,389,599,9903,-3055,1818,9029,-11127,-23,-5203,4929,1255,7664,-3910,-265,6501,6054,-5003,3586,253,-2316,458,-3718,7376,7858,-6699,9191,7021,-5025,5782,4230,9532,-2948,2830,11551,2008,-11239,2396,9001,-7368,-1782,1008,-5793,10164,-5183,8260,4003,-4276,47,3620,7188,7155,4022,-2380,-1258,-1725,-5543,-5440,2504,10306,3086,3053,-4166,-6793,4618,-2059,-6935,-2785,12185,3498,-1228,8098,-626,-3377,4340,4137,10685,-9460,-14950,4300,-146,8619,-5386,-1883,-1327,680,6802,269,2185,-2193,2970,-9902,2410,-5164,-586,6557,13076,713,-6402,8372,3769,-74,-10204,4685,-12909,15843,-5223,-4079,-299,-2599,-2197,-2749,5306,-6650,4149,6057,10402,5418,-347,11088,9122,140,-6165,-4498,2131,4412,4808,8398,7807,5823,9947,4975,-911,10058,-2658,591,8602,8300,-5921,3847,-5576,4519,-3644,2398,-693,-5328,-7445,6434,-964,-5131,888,-1499,240,-3191,-1155,-7940,-1305,-550,1937,-4823,947,3909,-15762,9413,10327,5937,10462,-2605,8645,-2743,-3411,10862,-6367,1855,2203,3715,-1943,-2782,1892,4323,3415,2563,-1473,-3692,-1032,2621,-480,2526,3180,-8284,-4743,-4879,2002,3975,-400,3794,-4556,-3987,-2422,2428,2665,7027,-798,8226,-6177,-5722,1503,-1337,-4788,-9584,-915,-9257,2313,-2887,-537,1310,4654,5201,-445,-9481,5232,4581,-8270,-4073,-2533,-6634,-7151,-841,1365,-11524,-9442,-1632,7583,7519,-5117,363,8118,-4254,2134,-4763,2904,-8519,3265,-11980,-1763,2075,1290,6118,4771,-3508,-4707,-4075,-3884,8652,6131,-5162,30,-4827,601,-2316,5668,3022,-6318,1816,-129,2222,-5639,727,2278,-7320,642,-8144,1976,-7011,652,-6488,10265,5955,7422,4834,-158,-11377,-7594,-8075,-1582,3198,-2225,-7042,4932,782,-4417,7307,4389,-1294,-4115,8963,-5103,-3720,-6419,4321,2053,-2913,-6423,-5474,-6392,-2184,145,-3496,-1091,-3127,4351,8262,-4448,-6769,-8959,-2155,-321,-7051,-15012,77,58,-6105,-14337,-6159,-7765,-7330,-17752,23794,3758,14631,-6760,-2627,-1212,-921,-9,2987,-1018,12285,-2164,3567,8256,16225,2980,12335,-5479,1080,794,-1009,-194,8355,5271,-2525,-11820,4480,6845,4108,-2980,-14491,-2584,3627,-2676,4788,7423,8124,-6020,3695,209,-11973,-9819,12682,-6057,9274,2944,-5565,11200,-2987,3132,587,9501,7707,3610,-2674,3919,-888,-4435,6955,7454,9008,3020,-4631,-1004,-11011,-5821,-5333,-3366,-9352,1042,2129,2458,-10573,-9519,-4229,-2648,1850,-11006,-8145,-10299,-8332,1853,-6468,-9720,-689,-6797,-631,2020,6032,5854,18335,35,1265,-8035,10203,4246,2255,-2533,2322,-6153,3203,-2941,-7582,1895,9002,-8548,9795,-1279,-7152,-11083,5395,-3484,4242,-9111,7020,949,614,-5900,-14665,-9247,-3069,-1518,-7499,3648,3299,-7211,-862,41,6664,-1004,-5499,10641,-6154,9100,-7527,6138,4748,584,6146,-1613,-798,1923,-2781,-9022,-2871,-6109,3524,2172,-5533,5444,4225,3658,-6497,-6980,-9163,4902,6792,-6768,-5803,6328,-1332,-6841,1884,4178,9477,6337,-5979,5707,11366,2903,4708,7077,-4597,-1703,2588,-2068,-10598,11262,-7502,-6024,9893,-2436,-10588,-2331,5562,2864,1878,947,-19,5965,9947,-2841,8300,8460,-5166,14983,6332,-5765,8123,-10389,-875,762,4158,-1844,-12493,7304,-3363,2952,4661,-3133,-1037,-1946,10406,-1056,-675,8541,2397,-1037,-2781,-5240,8890,6330,6508,3228,-1775,5374,55,9680,11688,5034,-11569,7814,456,-164,3808,-7787,-2080,2738,-4549,-48,-5320,-11392,-7343,1713,1011,-10235,-9736,-2460,-7348,-237,4108,-6334,-11839,-10603,-3514,-12086,-6800,7570,4310,-161,-3310,-10224,-2862,629,-3069,-10994,-11177,-4039,3021,543,-6641,-1450,-4214,4847,-10235,7350,-7917,4575,5937,-5203,4869,5472,13713,-1264,4607,12631,-1961,12156,8871,-997,356,7838,-1939,1813,11618,-2611,13536,770,4465,-752,4372,1920,6173,-3825,-3760,-9992,-2555,-3626,2715,4362,-6700,-4608,-15156,-10692,-3810,-11941,-4119,-11936,9326,-3279,-2874,-11333,2942,1774,-12205,-6118,-4973,-2471,-7609,-7546,-7110,424,8789,1320,5509,3452,-7919,-1840,7619,-3832,4908,-6106,2862,-1598,-2115,-10954,1784,2116,647,-2243,3166,-6846,14814,2174,4111,-3428,3865,-3967,7519,-285,-579,-255,-10554,-9044,-638,1481,4605,-4048,2440,-2344,-2946,-87,1512,-19931,-9270,371,-8979,13689,-5806,-909,3699,2449,-20076,-43,6748,-2432,-9111,2678,-9814,2421,10677,7520,1717,3759,-1792,4963,4669,-3930,-4929,-1179,883,-2073,-7352,-5883,-5477,-9105,-2548,797,1328,-4757,9668,-1989,4875,-4753,-3395,5070,-3114,-3041,4288,-5071,4486,-6272,-8853,5068,5631,765,-6722,-2018,-389,3213,-10836,4716,1453,-2564,-8038,-6374,-50,4923,1736,6384,-4192,-2032,8219,-3232,2199,-7376,5078,738,-9559,8,3409,7304,7945,7502,4208,-10233,8963,-7803,4948,-5476,241,-8873,-1510,51,8363,6237,-6927,4472,-5985,3417,-9752,-784,-3002,-7034,849,4427,860,-6000,-4207,4845,-1708,2294,-3720,-17860,841,-5470,9368,158,-2734,-373,-2071,6517,3933,5581,-1260,9414,-4740,2811,22,-6069,-2098,-913,-98,5117,4789,-6564,5816,895,-3360,2551,-682,6547,-4305,-3992,6164,110,-4696,-1639,5656,3452,4929,-4729,396,5566,4172,2076,6566,-7529,161,-4342,4907,-758,1409,2905,672,6431,5964,-3677,-8940,-1324,-243,4497,7750,-2633,1355,8349,1834,643,-52,-6544,-869,81,9293,-2574,7083,5176,5782,-1898,-2323,-3338,-7942,-8801,-14618,-3984,-2746,-10393,1886,4677,-7510,-7860,6829,-906,4070,2949,15830,3704,7094,3121,7279,11797,7682,1284,-20,-2582,1581,-2980,-2344,-616,9933,7792,11034,9666,939,-4256,3474,-2033,5004,-1035,1624,-3271,8819,-1711,969,9432,4295,9431,8444,-1368,5310,4461,7341,-5142,2170,10568,9723,4087,13048,801,-2811,-4988,-1589,-5064,5601,446,-5044,-6507,5147,-6419,-6553,-1016,-540,10211,-1378,4038,-5854,2810,468,2809,-1546,-2330,-5334,18907,-4831,9636,-2507,-12920,-4461,6191,-8583,-3474,-9284,-2884,6037,-3267,84,-8611,-2010,-6641,-4250,-1018,-902,319,-144,10356,-4943,7434,7607,1857,1936,1001,7968,-1644,4558,317,-979,2663,-6880,6134,-6928,-7557,5911,1957,5097,5137,-1027,1589,2758,-8642,-2765,-6612,6602,-6665,750,-8616,-2861,3389,-10660,1915,1353,-12011,-13318,-14364,-8266,-3082,7715,-7409,5973,-3070,3997,321,10443,6012,-5726,9250,5749,427,1713,-1934,6032,12777,-5940,-3030,-874,-5755,1087,-7409,-4513,-12799,-5213,1549,-464,-9248,-1592,-1411,7380,3212,-5876,-1166,-5441,-8872,1314,-2832,2578,-195,104,-6753,1709,1753,-5424,3876,-3771,2820,2279,7010,5564,-6251,8806,-4786,-2286,7861,-2031,6540,2316,-632,-135,-2234,8502,9876,-4910,-1135,-4312,-2958,4052,8763,-1427,8089,8075,9880,3578,12220,4890,-1362,-4697,8500,2394,12732,9916,14449,5342,2627,2146,15867,-9462,1153,-17414,8403,1681,-7464,273,5493,-7007,5136,-3719,10020,-3201,3623,4424,-2356,-8513,3790,877,-3085,-2094,9964,4771,-7863,11112,-3355,-3020,2813,-1086,-4404,-2312,6587,5467,-4726,-3610,-7264,7467,5133,-5895,1308,-14489,3398,-1021,11764,-4232,-12502,-170,1105,-6840,-1781,-2180,6837,6577,-1658,3479,10732,-4395,-6420,-2809,7862,-6599,3040,1143,-853,9323,3995,-3288,9348,3005,8224,9581,-3932,5103,9731,4595,5797,-1056,9369,10182,-6525,-5321,-4724,279,-5766,4216,-6326,7311,-4266,-2479,2432,8745,-1520,3322,-8221,-8374,3660,5226,-13062,11212,-3030,-4084,2075,-8049,11930,5162,5290,9846,-6789,-2566,4187,-100,6887,1017,-2439,9273,6591,-6778,4737,-15877,-6670,3256,-7057,753,14071,-1816,9383,17898,-4668,-8895,-2966,8087,-6539,30,-12350,1853,7723,3883,-3408,-8779,4914,-3268,3409,-1495,3822,-4835,-1347,-8605,3201,-6537,1041,9931,-626,-637,10165,-2481,-3111,2211,-3586,9155,-4188,-3400,9532,11033,4043,5997,-2824,9880,3680,-2747,6005,-1749,10385,-3804,9757,8966,-3672,211,7584,5938,1059,1827,-6740,-3001,249,-6391,515,-2701,1419,3934,13665,-952,3745,-1778,9663,4016,-925,3289,4520,3031,3941,1394,6031,-1307,-2291,5461,5592,-6633,5378,3601,-1255,999,-3685,-15418,-4108,9149,-6093,8425,4000,6044,-3987,-10609,11218,3171,2633,8000,-10414,8488,3612,-9626,2337,5698,2194,-3154,-8870,-4724,-12093,-490,-8559,-10487,-287,-11033,-9273,273,-2016,-1861,-2009,-3243,-7156,-1335,-12009,-13329,-6499,-7176,-1313,8321,4410,-11336,-12653,-7522,3360,-4751,-8824,-4825,237,-2710,1887,13174,-2465,-2030,2000,-8232,13595,2660,1317,8653,-3206,-22170,-268,-4607,11356,3100,-9843,5278,7476,7309,-13091,-1889,-12076,-2238,1245,5636,2146,6129,-1915,-7741,7061,1527,-8636,-3084,-11845,209,-5840,1725,11917,-7246,-1368,-5824,-4562,2906,10146,-12572,-2486,-2222,2861,3084,-1152,3465,2167,-4134,7386,-2814,1498,-153,-5073,-7392,-3339,-1008,224,-8356,2404,-3417,-8078,3585,-3255,-2165,2553,-2330,6416,-4680,5421,4080,-2106,4303,1943,-9839,-8930,-298,-8709,-6766,-1894,-12730,-11246,17416,4767,6398,-8790,5629,2334,4617,-4598,440,-8266,-6099,-2115,-2306,6225,-277,-1116,3249,2991,13438,10484,-3354,-6121,6580,1420,-12883,13581,13615,-2756,-8243,3464,-5730,-9072,-383,8396,-12228,-885,3653,-1150,7886,-1694,-4020,5996,12723,-13606,651,-6074,-11506,2961,2330,4796,-4191,641,-14066,-12554,6,-1466,-578,2734,4838,-2024,-201,-8675,-2357,-4024,-8807,-7039,-10198,6123,-4066,1101,3143,313,-2627,-4731,-7773,-4967,-2772,8486,1396,-9800,274,1000,-12277,320,2592,-2886,-4486,-5619,-16062,13910,818,-3139,4105,-109,9023,-1672,5809,9122,9230,6247,-4540,-2951,-5666,-13475,1780,1800,8606,-160,-4629,-2310,-1469,-496,-6134,3479,3894,-6904,5684,7910,12964,-674,4007,-4737,4423,-2645,-5664,404,-6684,14088,5358,-2670,-12184,-2898,-20201,160,-4812,1415,-518,8952,5133,13515,6082,-3808,1788,-2990,3786,8687,4449,-1008,374,6680,-5048,-2090,-1220,4508,3649,12300,3637,-4620,10482,-7525,450,-7154,10296,-2829,1417,6241,5621,2927,-1025,4228,1726,-1765,-65,4173,-1802,7302,2106,-8284,3962,2430,549,-792,3992,8032,5473,4915,-1761,4514,-3980,-2328,-257,-9742,-828,-3544,-1650,-1200,6093,-13007,1176,-10472,7263,1127,-1627,3480,5199,5552,950,-6631,-11774,4997,11198,366,-6079,24,12286,-3521,3452,-4197,726,1255,-1391,6449,-3194,3824,-4202,5282,9540,4036,-4600,-2181,6440,6068,886,-4878,-2735,-264,-2694,-4833,2106,-3623,3715,-4942,4769,-6236,-1602,-5381,-2931,-1901,-2544,-6672,-9385,2245,-11162,-6178,-5514,-7818,557,-2173,3853,4175,16123,2838,-450,5932,-7676,-1137,9315,11278,-4202,-4538,-1537,6576,15700,-2590,4198,4026,4759,-2403,-3990,-11287,-5688,-707,1982,-973,20704,-416,-3989,-8667,-744,4651,924,-2663,3230,-15560,-6671,2800,8672,989,6537,-6041,-25467,4346,-1850,92,9400,-1190,-3194,-8655,3631,-1602,3570,-7718,-5254,-263,6896,-4068,-4933,-2479,-1037,4039,1694,-1689,5823,-3046,642,1291,-3261,3040,-3517,1236,-8750,5671,6093,-222,-492,388,3535,4885,596,-11176,2244,-5883,-1343,-6201,-4303,-10954,-999,-1371,-3192,-2984,-11645,-6653,-7475,6253,154,-11934,8321,-4881,3612,-1691,-9444,80,-4779,-7345,-6459,-235,796,-8861,-10609,10533,-7148,-11072,-5290,571,1544,382,-4543,-4288,-1598,-3437,7580,-2195,-8410,-14827,909,8501,-389,7652,-6980,-4044,-6725,7240,-5170,152,-2369,-4128,-3360,1294,2393,3004,-750,-1574,-9184,5651,9870,5216,-4747,-6281,101,-7340,-2654,2529,2047,-6284,-674,-1038,5918,3737,-9110,-2889,-8343,-4961,-6269,3663,-2577,-2304,-4110,7310,-9599,474,4398,2746,-9612,-4532,5896,5828,7569,-1653,-594,-7083,2020,11397,-8579,-1437,4616,-5368,3993,-12721,7730,5370,-8055,14227,-1813,-7187,-4037,3219,-3522,-6705,1065,-13940,4709,-15048,-35,8186,645,-7324,-383,-263,-10265,-1557,-17764,-17625,-1925,1457,4339,3936,77,3069,8906,-7607,-9478,-3421,9605,-5948,4159,-3470,11844,-3897,-12909,-13084,-12405,-4813,-8614,-1811,-1443,3871,9618,-8623,-1155,-3098,-7204,-3188,-7724,7046,-7517,-4864,-5305,6799,6290,6492,990,-7050,2702,-12672,-8193,5078,-2630,-529,4530,-944,-8130,-2185,-46,44,3788,-10371,-1005,-9520,2266,603,-4520,2818,819,-2246,-16456,7402,6913,2054,2540,-9871,10777,-2372,-1392,11570,-9707,-11219,6779,3713,632,-2195,2344,2266,-11879,3097,-2747,3408,-11610,-12161,-10032,4685,-7688,-908,1452,9725,-3362,-3511,-7259,3769,-1847,-9808,5686,1860,5735,3775,-13320,7244,1449,-441,-2698,-7421,5510,-3094,-2088,2442,1929,4528,-2009,7185,8296,7227,-3806,-8290,-7625,-1825,7874,-476,-6533,-6438,8259,-99,3184,-4982,6445,-5333,-5999,640,-7324,2167,-7235,-2855,-6381,6649,1304,-2945,5523,-3509,7741,14355,3661,-8061,6622,-841,-2845,6365,3684,8455,-3226,1747,1441,-7450,-4012,964,-1141,2256,-185,-7760,2467,3820,5041,3312,9534,1550,-1112,12695,1793,-10236,-1017,3397,-4927,8242,1695,-1475,1122,1261,-128,5035,-4608,-9435,-2912,1724,-10916,-234,15517,-19957};
const static uint32_t LSTM_01_weights_input_gate_dims[4] = {1,1,48,88};
const static ConstTensor_t LSTM_01_weights_input_gate = {&LSTM_01_weights_input_gate_x[0],&LSTM_01_weights_input_gate_dims[0],0};

const static Weight_t LSTM_01_biases_input_gate_x[48] = {7902,-1939,-744,1081,-13382,-10264,-6283,-9524,-6593,5075,-7728,-3080,-4931,739,3,-5865,3046,-5679,4521,-3765,6424,1543,212,3437,985,-943,3986,-10606,-16353,-6913,-2701,2487,-4499,289,461,-4558,-4042,-7783,6132,-17804,-6349,-6375,1619,-7507,-6463,-5514,-8374,-1584};
const static uint32_t LSTM_01_biases_input_gate_dims[4] = {1,1,1,48};
const static ConstTensor_t LSTM_01_biases_input_gate = {&LSTM_01_biases_input_gate_x[0],&LSTM_01_biases_input_gate_dims[0],0};

const static Weight_t LSTM_01_weights_cell_x[4224] = {-1146,-668,-977,4263,7240,12253,8535,4206,-649,1036,-947,4707,-1672,-1863,7630,1350,-2076,4110,0,-4446,11,-2194,3439,4368,3710,-1166,4605,-1534,3943,2314,42,785,2510,-7532,-6562,-6007,-7486,-5869,-9657,-19824,-67,1270,5002,-384,-7119,-412,1480,890,6785,1825,-2967,-4238,4181,8376,-712,-3288,3670,-3420,93,-2948,-3220,-3683,-2189,-8395,-8312,3131,2877,1516,-4119,6849,1178,-6483,1366,1373,27,-2322,1824,345,8337,-7025,-4353,-4311,3744,-46,73,-16,7635,3120,-1014,1641,1393,-2863,-3244,927,957,778,-839,-1606,-5377,-4637,1276,-6293,-1458,-3987,-5470,-5081,1149,5009,6110,3926,4172,-853,-522,-3383,-6055,-5481,1235,-2756,-4430,3837,2658,2162,5568,3245,1501,-2662,3076,9498,-4845,-2569,-2155,-5586,-5073,-3135,7704,821,-2866,3240,-719,869,1742,-855,1854,2220,-225,-4635,-5430,-2145,-2357,-1311,4513,-100,-7710,-430,3043,4276,-4111,-2716,3804,-2113,-2044,-179,-2924,2421,-612,-3276,1151,2308,3524,-1066,-5313,-6682,1529,6311,2407,-2828,2146,7151,4477,395,90,-1263,2025,4844,6809,8988,1531,6816,4523,3682,3483,-1089,2068,1297,3483,-2063,-2219,3861,-1120,-41,1796,1276,3904,803,-578,-772,-4363,-5931,-2003,-4301,-3021,-426,3825,945,-3813,-1359,-7693,4802,-834,-6860,6832,-2155,2232,2823,3583,-3809,5640,1105,4554,-3507,-6615,67,-1249,-3459,1090,2382,-6631,3031,-331,10517,6089,-2838,6415,-2571,-598,-4352,-1796,-3496,1634,-2454,727,2748,3865,2768,-660,-3162,-5226,1489,7,869,8246,2431,4361,-3227,-3373,115,-2565,-6696,-7263,-10790,-8134,-2089,-2456,-3463,-2901,5662,1545,5601,-1867,-550,3092,-265,9848,3261,-2511,-3691,-2019,-4406,-7785,-4747,-257,1353,-3738,-1752,-444,-1543,-1717,2851,1061,2854,3977,705,-1500,4870,-2348,14,8424,-11770,-7958,-1623,546,1491,2309,-6719,-2018,-7779,521,2078,-1728,5499,-1230,3126,696,-1827,-5369,-3690,-1617,-5447,4,5752,-1032,-391,1170,-2391,2649,-4401,2576,-2903,2495,-3203,7272,-687,-7574,-3805,2658,8965,-2633,-4704,-7712,-2036,-2587,-548,2313,-4759,-3410,-1641,3224,-2955,1016,-2117,-2460,-4013,2694,-206,-4600,-610,-4109,-4519,-2003,-510,-2839,-3084,-3359,-1412,-4314,-3626,-5427,-1962,-4046,-4913,-4965,-2580,-2682,-5317,-5541,-7805,-1957,-5439,-4644,-2038,57,-1183,4454,-181,-1794,522,3608,-1010,-5507,-2762,-1477,551,6185,1100,-338,5938,-2128,5039,-4406,-584,-4973,1792,-8986,624,1866,2154,-3652,-1026,-1276,737,-1851,-510,-1091,-675,-4784,5025,-929,3796,2538,2596,1840,-4723,650,1064,-1169,1420,4494,2347,-6357,-614,2055,1744,5567,2057,-260,-3214,-1785,-3158,1623,-3491,-4226,-706,2263,5327,-3194,-2060,1145,-29,4400,19,5928,1612,-3765,498,-513,2623,-5106,-1750,-3723,682,-1734,-642,-3325,-1765,-1516,-2497,2949,2029,272,1880,-3891,4441,-2604,4693,-957,-189,4648,3072,-3171,5350,-200,1197,2999,2590,-1007,-338,-3357,-422,-1371,6250,1439,-2855,-2851,4,-159,-4460,-2193,-2097,-8155,1336,4138,-1530,6304,2638,7555,274,-3322,-2511,-5716,-1997,-458,4459,-2214,-2748,4621,2125,-5951,758,667,-2019,-4122,-5868,4904,74,-2280,-6718,1277,4034,-1217,-374,5468,1021,1183,1058,781,3783,-4412,-6218,-2531,781,860,-2156,4514,2678,4132,3089,1128,1532,-3177,3372,-3479,-3255,4927,-1296,-813,-1155,-1232,-3920,173,1250,-2993,3822,3457,-3361,-53,-4966,-4902,-204,-1768,-4070,2086,1536,-3198,635,-4831,-2415,-2165,2589,1888,-6733,-5978,-1758,-4820,1520,-5146,-6481,2734,-77,-1302,1265,-3627,-292,-3897,3871,2885,-1018,-1156,4537,602,1552,-12419,6454,-7915,-3147,-3890,-29,-2239,2518,1516,1372,3771,1193,2889,6920,3747,6825,2693,2469,7776,5217,4706,7920,-2148,3646,4340,-783,1805,6119,-392,3620,1922,-823,5262,2778,4573,3419,-1613,2302,-3458,2226,-2623,76,-3547,-4399,-4002,-5016,8275,4873,3716,-2792,-2227,1003,2936,918,18,2641,4719,-3111,-1713,-1089,1248,-1534,5476,-4080,-1597,-748,-2296,862,-1940,-1510,4781,-1818,-1398,1976,-13383,-7515,-4169,2605,-8554,-1093,4539,-2120,12661,-4640,-2086,-1728,-1316,-774,9332,573,823,7683,-243,3300,5089,4134,9425,2837,5858,4902,3023,-3334,3964,643,-917,812,5518,-3608,1185,2188,-2665,37,6169,957,1787,3310,-853,-1874,-4761,-166,4260,-2062,2265,4106,-898,-2492,-565,3131,4019,-1910,-830,-1380,-751,-5128,-1044,1694,1878,-4625,1371,-1592,9790,-4424,8146,-3864,-4624,2671,2703,4414,-8181,-847,824,-1695,2910,1288,-791,-627,1776,-2666,-2474,-1975,2853,-2035,-5381,6771,4459,-4463,233,4057,-4281,-6072,2467,4337,7575,-8567,3866,-2948,3643,-2404,3595,1829,-4363,-7154,-10652,-4360,-4403,-2302,-5130,-3946,3532,455,-6018,-3913,1725,-4056,924,-6284,-3314,-1799,867,-783,-4524,-706,5239,213,-1979,-1313,2650,-1300,-907,-328,-2258,83,-4548,2331,-616,-3068,-2863,2039,2905,5138,6094,6046,-6002,-3905,-798,4565,-5483,-3606,-3382,-3075,-4639,-856,4129,178,-341,-1508,14472,4845,2260,54,1303,-1084,6946,-1164,-2901,-6175,4977,1969,-2761,4898,4176,-4488,190,3922,-2731,-2357,5002,-2717,-188,1517,-6058,-769,-2031,-4857,-832,2184,2061,2623,4537,4363,-1726,3119,4169,1724,-4672,381,708,-5078,-2897,-2515,-1977,-582,3746,-3024,-4238,1458,-229,-3438,-6708,-3117,-1976,-965,3917,4455,-1053,2724,3796,-1677,-229,2115,1087,3562,-2982,-2845,-1645,4638,4433,2710,2502,6128,910,-5284,-787,-551,3610,-2064,-5970,1006,-2548,-5682,-1844,-1294,-1021,-4730,-331,2883,-2167,-5126,-1875,2195,-7611,371,4764,1511,5038,-2841,-6515,226,-2176,4016,4600,3919,-4962,-840,-1929,2154,4173,-964,-1120,5706,-55,-2950,4073,-657,3164,-1593,-666,-250,5880,6445,1373,4529,9093,2124,-3691,-3049,-7818,-2322,-1311,479,247,-1564,3485,2205,4801,511,122,-182,-3293,-3907,-2352,-4670,2061,-5820,1363,-1271,-2991,-2498,-780,-6340,1665,2275,3666,3044,2269,3073,563,3544,-2630,2923,-3808,1437,-1051,691,1471,5032,2892,-235,-1982,-3786,-883,-2762,-2029,-4766,3745,6453,-2571,-2509,-4235,4919,-4423,2691,6901,-145,-2617,511,2717,4569,12114,-2998,-1874,278,507,-445,-3248,3477,1180,712,7584,-3962,3178,5036,-852,-482,-118,294,-6808,-3993,3591,5081,3054,3058,3451,-398,-3725,3292,5417,720,4409,1987,3403,-2818,-3738,816,-689,4999,-1880,-690,1252,4483,660,-1673,-1337,3607,624,-2427,-2878,1288,648,4318,-1008,630,5485,-60,-818,-432,-9553,5406,4247,1416,-2295,749,-2355,-537,4217,-4599,-1460,-947,2511,4197,-3825,3525,-117,1116,6618,-2970,-282,-2702,-4963,1188,-4922,432,3297,6820,-9267,284,-1423,15,-4232,-964,-4713,-848,-3530,4488,2129,-2930,-1647,-453,3736,-6799,971,-2651,-6415,8286,-2912,93,1706,3059,-2774,-3475,-7069,1415,-1106,-7468,-4282,-652,-1647,774,1145,-1427,-3931,3382,259,6570,-809,2746,-1598,-6531,-1989,-4093,-1050,-2359,2370,1098,-1582,2856,-2349,-5283,-1942,-4016,-277,-550,-5022,-7126,-1789,-130,975,1446,1809,-3404,-5071,-601,-1654,318,2207,-1307,-748,-3615,-7370,816,4255,608,4444,2050,5363,-2922,757,-1182,-3624,5309,1889,6186,-1818,4857,5745,-98,4125,-2616,-1331,-5204,-4960,-1221,-1813,-6524,-4491,3757,-3273,-3206,828,2136,-2962,139,-201,-1470,-8501,2467,2914,7745,758,6531,3397,-497,-3727,-8379,-947,2372,5250,-420,7415,-1408,829,-1054,-7678,-7890,2521,2670,1602,-3391,4724,4749,-352,-3722,-2520,3355,5296,654,-5412,-4732,-11007,-3153,1833,-9649,2639,-7667,2091,-2109,589,-744,6301,1358,4306,-6388,-2023,5979,3784,3070,3112,4159,1299,-617,-597,-4280,128,240,-446,2830,3315,2639,3512,744,-628,-2978,-937,-3203,4411,2421,2296,-2369,-3404,-8696,-8623,-2268,-706,64,-4450,477,89,-2354,-1247,122,-3873,-5660,1626,609,-2100,-439,2934,3468,2605,3941,-2127,-6402,3160,-3476,-471,1200,3296,-1961,1550,3694,666,1112,-19,-1571,-3295,2060,-2786,-2363,-653,-2700,1532,-3530,21,1770,-1998,-4230,1722,1617,2219,2395,-1331,-254,-3683,-857,4092,-1715,-5589,-3188,-8468,-3855,-1568,-2943,-1984,4561,-4519,2458,7029,1461,-980,1533,-7338,-8930,1971,6762,7839,-6599,3059,420,-1597,-5616,-5346,1334,-409,-3745,261,-1928,5105,-539,1351,-1366,-1920,-651,5233,-4412,482,-5015,-707,2622,-28,-2552,-2278,3674,-1285,-1733,2572,1901,-2981,976,-2967,-3040,72,1152,517,-3207,-1067,1082,-2065,-3324,560,3705,-3010,-3888,-3445,-225,2400,2634,-3520,-1111,-1028,-142,2653,2899,4832,-670,3405,3004,-882,-737,-17636,6973,-8811,5420,1406,277,4985,-768,-4406,7408,635,-233,3679,2500,2564,-1056,1653,-3583,3979,2282,1685,-2512,-128,1975,-6494,2833,1961,-646,-727,1191,-458,1257,-2452,2802,-2817,2796,-4831,-2531,3186,-3671,4740,-3996,-8300,-2325,253,2597,220,-1391,-4199,1463,4105,-963,-216,-6390,-9467,2681,374,293,4041,4648,171,-368,4950,7178,4928,898,2784,5327,-656,-5938,-6941,-3484,-3998,-2819,1926,177,3669,4267,4363,2120,-1757,-2285,2127,-2996,3179,3511,-963,-462,-71,-1251,-1982,-1783,1375,-1644,-552,2814,1115,-3880,262,3981,1018,819,2030,-3914,-2188,-36,-4241,-9258,-395,3915,-1815,4993,4008,-2243,-6620,-3147,-2177,-330,-4467,-5836,-8141,-4031,-112,5847,-2037,1815,-2966,1471,4642,-50,3536,-2052,337,-714,-7543,-4725,1361,3036,3980,-3924,562,-406,-4678,-568,-4947,-4044,-1682,-705,-6466,1282,-2320,-2457,-1704,-3518,-2593,-3132,1719,4539,3862,3491,-2752,-4798,2927,17,1938,295,5918,-284,1357,3958,7757,7675,1815,8551,2422,5170,-4894,-4192,1604,1726,-3,400,-4572,3863,722,-3131,522,4501,7221,-245,-4591,-4517,-845,2320,-3735,2190,3802,1394,-4695,-1488,4883,6479,1846,-5152,-5863,703,706,6127,4447,-1525,2357,2343,-3776,2249,-1643,-3874,-758,5151,6477,2819,1805,1239,1123,9508,3646,86,634,-4521,-4375,-4902,-2318,-2501,-2831,2357,-8103,-1401,-6967,1136,-7473,-6212,-4165,279,-2329,-156,-2240,-4366,3122,55,4391,-1725,-1570,-77,4906,-1814,-695,234,5503,-263,3686,-287,3346,4586,3987,-827,-5745,4008,-1932,-4824,-649,2141,-9774,2188,-8866,1261,3767,-2577,3827,-1138,-2462,-136,4509,3922,-1485,7228,-1326,830,2110,3129,-9438,-4354,-1162,2728,3813,719,2189,3350,-15770,2388,383,4130,909,-7804,-1063,349,3516,-711,-1327,-750,-1743,5774,-6350,4510,9984,3980,2323,-1057,-6334,-7481,-7761,-4218,-825,-1313,2933,-590,-166,-4113,-575,5482,-6255,-3203,-3658,-3237,-6194,50,-4688,-2339,-7362,-7700,-1276,-8543,1182,-1027,5156,-603,5551,2151,2844,2975,8008,4900,4270,-548,5039,1926,3004,1663,196,-107,-906,-644,756,-9620,372,-2335,-705,-118,2967,3932,2294,-483,-1782,6062,-1558,795,-7863,-13395,-829,-78,2490,803,999,-7289,3344,6433,-6356,-2955,732,-2835,-3791,528,6044,3915,997,7353,-1418,3909,-5782,2515,-167,-417,4196,5182,1035,-3550,-6201,-1995,-8097,-1754,-1648,5865,9717,5528,6566,3544,4770,4564,4845,-957,8874,4035,-1403,1742,-2134,-2322,-1014,-4226,-7068,-3291,-1361,-1433,-5513,-910,733,1616,2995,-230,-641,-491,-1418,903,-3124,-3450,-699,10546,-194,6352,-2597,-278,892,185,-1795,-4720,2472,5445,-3277,4915,-2883,406,-3325,-1056,994,-618,1602,767,-179,-341,-3442,-61,2957,-1632,4073,5344,-4393,-112,-539,-4434,-1753,2762,-3927,173,-2682,5475,11037,62,-5066,1624,-1155,-2873,2512,245,186,-322,-1364,-4370,-776,-37,-965,-2726,2466,-1339,-1230,2137,-169,3432,2907,3965,-1644,-747,-2051,-1185,-2713,3185,-1732,-286,-463,762,-4902,-1871,-1427,-2129,2250,1353,1679,-2934,-3307,-1415,-2198,4093,-3650,259,-5435,214,2283,-2569,-7071,-2929,1929,-327,-2860,366,1424,6597,-2625,-4008,3757,-2021,2277,-888,1639,3949,1918,756,-2361,-3347,1723,-1461,2324,-1353,-507,585,2250,382,879,-3916,-2639,-1655,-2508,903,-3828,204,561,-4455,244,609,-4954,3919,974,-1024,2758,870,-2574,2050,2332,1898,-1695,1075,-1894,-1278,-3032,-1924,-2134,-204,-1352,641,605,620,-160,-3841,-854,1209,373,-3296,-631,-1279,1057,-1562,520,-3342,-2948,168,3349,-447,3168,-1587,-3148,336,2216,603,1707,4684,2167,381,3251,442,-1021,-1893,-19,5513,4318,-872,1174,-1494,2043,2828,1180,-3069,-3062,-3417,3030,4184,-2897,1094,-41,-794,3685,-2986,704,3303,-2420,-997,1227,2951,1602,-3174,4438,2261,-5694,1385,871,-948,4153,-482,-3276,519,-5059,525,2449,5724,5766,2869,-3636,-3153,2867,3855,2714,8429,9881,2743,8180,6437,2522,4886,-4049,-4671,-1813,-5875,1268,2172,-684,-3362,-2036,-2603,-2062,2205,-3257,-3936,2755,-6754,-3476,-347,-3430,1877,888,2477,1734,3794,-1131,-2135,-3,3474,4616,-1461,4421,-4659,2232,-289,-2506,-1736,-5311,-7348,973,1847,-8108,-1866,2827,-939,-977,11133,-6977,-3975,-4083,-3121,908,3006,2046,-2939,-1445,3509,3204,-754,1562,1522,4750,-2615,2623,-4840,5230,465,-2277,-2133,3780,-6549,1018,-3075,-932,2404,2951,1977,2155,3746,1714,2041,2276,-4674,-1951,748,731,-2185,-3464,-5027,70,4281,1432,4684,-2266,1012,-3747,2196,1471,-1381,1760,2395,5372,2723,1759,1420,1896,965,5099,5430,-572,2446,1658,6491,4971,-3921,-3567,262,3345,1240,9175,-3445,2173,-6568,1486,2442,-3741,641,1751,4370,493,-2088,-943,-4494,-3682,-2828,4748,3228,3791,-3073,253,826,-6986,3755,-334,-5526,-2330,-3401,-5704,-1201,-4378,1680,-120,4142,-2338,110,5796,3046,4393,6022,-2221,-1854,3170,3041,7780,5957,3106,2218,-868,-1335,280,-1582,466,2653,-6093,-4571,-6220,-6509,2141,-2427,3743,650,2055,-3647,-3897,442,207,-1806,4062,2279,-4070,-627,-813,419,4725,-526,5341,2851,1343,7422,-10519,2332,-409,1410,3138,1996,2346,-3031,2657,-363,2824,5795,-5070,876,-3780,1450,-913,2065,-485,275,-4861,1124,5279,4106,2480,-10297,-5589,960,1661,1349,1815,-4144,-2839,924,5665,6625,4719,-5974,-531,4890,1367,4972,5322,672,4543,-2082,1873,229,181,-2019,-3240,-521,3444,682,1006,1646,3966,-938,-2352,5249,746,-2174,5653,1182,-242,-2794,-1134,4441,1051,-484,-1036,3934,2688,-4570,3004,366,201,-2135,-2339,-2049,-2976,-1617,-4238,-3793,-1005,-3177,-1825,1110,6486,-4796,5203,-1060,-1308,-5220,1429,-4618,-1694,1030,-373,2382,1275,-1491,2506,5344,114,3403,2053,-3516,-8692,2798,1375,1698,5182,-8055,1339,-127,3502,1651,-8231,-3342,159,-5045,-2590,-1022,4626,3923,3936,-3473,-282,-1705,8976,-1459,-3880,1339,-2739,-3176,5222,-1113,-239,1363,1430,563,-3390,-1373,-1931,-3498,1726,619,2447,-1802,1427,17,771,-4581,2815,2418,-3754,-2074,2508,1072,-3219,-2057,-3060,2866,-164,2208,-421,-1488,2806,-578,-627,-3164,-2233,-2806,-2389,-3155,462,-9875,-3022,-2407,-366,1801,-4038,2536,6086,-1302,7730,-4913,-1403,-5876,1140,1209,-5760,4418,-4901,-2313,3184,5003,-635,-3253,-1909,-1529,-3758,-8711,-3658,-1453,101,-1517,-3859,-1079,2374,-231,-1510,-989,2775,5546,-10565,2128,-3380,7072,-4744,-5326,2127,-3427,2075,-1704,2162,-1222,-5020,-5895,-5487,-4499,-3240,2356,7574,661,5404,683,-3827,3362,-3373,-2326,2140,-2851,217,5776,2221,1083,2896,-4442,2934,-2694,-1399,769,4534,2866,2359,-1554,-245,2493,-2283,-1066,2156,116,-7224,-3408,1251,1673,-1338,1896,1947,-3113,-2565,8122,-3022,930,1220,-944,-2026,1787,1400,2087,4600,-713,9735,8757,1559,-799,-1831,-118,2829,-1787,1440,2340,3165,2475,-3493,-2604,6218,-919,-1093,-403,-597,-766,2646,1788,-217,8316,-270,-2438,-6167,2942,2733,9828,1660,-5322,-2515,-4680,-5490,-689,-3595,-52,-2167,987,5487,-805,1160,4249,3433,1472,2959,3859,1352,-37,-4944,-1218,-3555,-3230,1455,1182,-747,-1446,-824,-5189,-1532,316,3868,2394,608,6,-721,-886,2974,-4985,-143,7657,-13038,1722,1703,3168,-3036,2610,5243,-10062,2464,822,-3300,3188,670,-5285,-647,1525,5938,-654,-3985,-6935,-583,-3335,-3239,5548,2040,-2963,-1253,7443,-3232,2342,1682,-2499,-1700,1332,-2670,194,1150,1152,-1238,3108,-4800,1466,-3130,6751,6633,5408,613,1496,-859,-1193,3891,-2221,-6945,-7250,-2059,-6687,-1239,-2247,-5078,-2798,-2818,-4208,2223,-657,5538,4909,-2231,2956,2046,2223,1618,-720,-5724,-2846,2994,2098,3995,2542,4029,-3095,3304,1170,922,3940,9337,1082,-705,-7786,2562,544,306,5009,-3902,-1252,1518,595,-1645,-347,4696,7118,2212,2686,-2112,4765,1832,-2888,-1344,-3746,5100,-1516,-3201,6232,-527,-4146,171,-1288,-4069,2336,-3692,3210,4020,-1322,-808,-850,214,1526,6942,1036,6532,-2525,-3485,11735,2187,-2769,1433,6002,7553,3159,-2677,-2687,1126,-178,-2100,-3541,3133,-1661,1151,-3606,-2615,-5338,2385,-532,-2012,-3243,-2144,1607,690,962,3014,-1323,-1039,1136,1143,2161,-2330,-2761,-1764,171,1919,6136,1035,-615,-6645,-1489,786,-593,3031,2746,977,3110,251,1602,-2171,10249,-829,4090,-2943,-2242,9307,-134,877,2131,3429,900,-2042,145,4925,-1700,7418,104,6393,7759,-1632,1787,2405,-931,2626,1588,-7039,4423,-2786,339,-6589,-6762,-3241,-1042,-2086,-2132,1736,-6434,1012,2020,-4243,-8,4595,853,-3335,-1873,-2890,229,-3139,-6564,-4773,-1128,-111,-338,-2468,6,750,-905,2671,6474,4456,1915,-2913,-679,3648,2292,967,-1472,3644,-791,-2088,3203,-1900,114,-5795,-1347,-6676,-1216,3022,4387,-3628,6134,-5181,-594,9282,5887,-5752,-1108,-2956,-4756,578,-9,341,3313,-6403,-2654,374,-3502,-1080,641,-2725,-4845,-5334,3237,594,-744,-3557,100,-1150,990,436,-2494,2665,75,-150,-1714,-5198,-1709,4691,48,1904,4392,-1591,-5693,-955,-1550,6705,6744,1707,-3909,-3387,-565,-4915,-4011,1941,2720,-1706,3830,269,6574,16,4280,5326,6587,-927,-4455,-2053,-5509,-7968,-4197,-7419,-1039,3887,61,1800,-3308,2833,1557,2010,-3391,-6923,-5645,-3721,-796,-4158,102,-1371,-722,572,2167,-5180,-3079,6259,-644,8906,-2925,-2853,1192,802,-1021,27,-1186,566,852,1467,5215,5543,-2580,-6629,3002,-1654,566,-4126,-2659,-2548,2279,108,-941,-8010,-1057,-3069,-255,349,-747,-942,-7292,1473,-2329,1458,-6423,-3305,183,4561,1376,-4710,2403,71,-581,-2796,-2693,2683,2909,-4762,-1172,-6677,-1230,-4409,1630,-859,-4814,315,-839,2318,562,731,1733,-4378,-5806,-1155,-3848,-893,-3479,-1542,-334,2426,2651,1121,-926,1403,2279,4320,4291,1543,1123,-1861,3284,-5793,6495,747,5163,-7743,-129,-5343,2377,711,-683,547,-1736,2499,-2659,610,7558,336,-1470,-1212,-812,9624,5031,3088,-1503,-280,709,1223,-2821,6078,-1431,942,2190,-4185,6248,-7374,1907,-7153,847,2374,7452,-166,1760,-2537,2307,-1430,-2615,5021,873,-1363,633,-3880,-2764,3446,869,5919,855,-4856,-1331,3304,4427,304,876,-2204,-2907,-2337,-1317,-1223,5282,7824,10220,8850,8171,2743,6542,1579,-686,1581,-1207,-1508,-5207,645,-6104,-3390,-3317,3445,-7466,-7507,168,2166,148,-4210,212,-1636,-8656,64,2992,-2035,-162,-1220,3714,1263,-503,8388,-5867,1354,-1913,875,2727,4512,4820,1893,3798,-6336,2608,3207,3066,-1581,115,5249,1814,420,4426,-1984,4023,-61,-4823,-6862,-4317,8240,6179,2039,-2319,-1307,-3718,3868,3305,-2752,-442,-7771,-9243,-5397,-2199,-3622,-5245,348,-322,363,2317,-4056,-886,2241,-2267,6252,9110,5578,4527,629,-1773,-1345,818,-3985,-1077,4119,-2980,5627,3862,3006,1063,-2000,-3374,2236,-4783,-4560,812,-879,-2343,-6015,4547,-2928,1558,484,-1684,-1881,-2955,-5372,-6584,2518,3549,3497,1547,3284,-5104,1436,-5531,-1717,1482,-1114,-1710,-2413,7222,2455,-5899,3601,1934,-3803,-4259,-1630,6379,1711,436,-962,494,3295,972,-5340,3821,2099,-189,-900,3630,285,-179,3429,-2905,-4988,-67,-2660,-6517,-2031,-584,-4470,-1858,-4659,-1605,-3592,-4750,-2053,-6356,-6971,-594,-2696,-753,987,2357,-1818,1145,-625,-2063,4208,-1200,2020,12,-956,-1286,5530,5324,5598,-1105,1657,-1329,-424,4299,-4903,2721,-3907,8190,-2669,-1886,3540,-3503,925,104,-1018,7330,-3660,-3571,-10340,-2623,2953,-472,5869,449,3623,1426,-1545,-2750,-8690,2917,1781,-1677,2331,839,-1373,-1933,4382,2386,-3284,-2890,2848,5666,-731,1197,-2993,621,-5602,3911,-1562,-215,2259,1984,83,-4061,1383,-2337,5406,544,-3789,-2569,3341,2231,7808,4625,1065,7545,5970,-1573,916,6087,-436,2519,-3997,2438,4396,-3724,2357,2183,-446,3042,-2819,-3837,-3774,2085,-2295,-2856,-925,1721,-2827,-868,-705,-2050,10514,-10795,783,5647,-7161,-1702,-7994,4942,-3712,4784,4478,-148,-7226,-273,3108,-33,-4909,-1112,-8729,-4501,-3007,9065,-4708,-4693,3702,26,-2574,-6708,4894,-4395,7392,-1503,-2223,1159,-3033,-2685,5023,-3741,-2549,-1913,-1652,2195,6039,1539,-4730,-4904,239,2452,-5299,-3685,3733,2529,851,1918,-283,6448,752,-2548,-1160,-92,-424,740,3411,-26,-4153,-718,2038,-1997,4194,194,1650,3600,-3081,-2617,-2023,-3115,3586,-3201,-2616,-5872,-2760,-1662,-2786,-5910,-1144,-4487,935,-5815,3549,2554,3880,-1875,932,-2575,-950,4421,-1450,2527,422,-3838,-4082,-4720,8005,3016,-3844,-2803,-9309,3754,-7153,-2223,8965,6795,1475,-2707,4108,-99,-1555,-2497,-2433,2383,-6368,1180,-2142,651,7012,-5553,-4881,779,1672,-4292,4533,-2861,4085,2834,-9872,7369,2947,2631,6039,5948,1819,3808,7329,3164,3854,9526,4705,-3791,1792,2787,-3648,-1032,4329,-2835,4033,5425,4176,-19,3599,-1399,5716,4345,5035,-1975,-2613,-1466,-2430,-1153,1009,1102,2377,4570,-2728,1369,4350,9358,-3585,5735,6372,-8028,3231,1915,-4026,-2133,-1792,188,4915,-2753,3420,-7045,1748,6142,2326,-1852,-2009,-2274,-682,3158,-52,-2559,-2506,-1442,721,-1723,-6887,-2355,563,3049,-2010,183,-2574,-4022,-1414,-7388,-2465,-2116,502,-3324,3086,-240,5863,3024,1365,8701,-1423,3913,9051,-1636,-3267,61,-394,467,-1856,5816,5252,7842,4027,5849,5578,4822,6000,5877,8603,2884,3666,-5224,-1633,-1675,3701,4281,5335,5349,-1789,-2372,-1427,4441,-6149,-2484,-548,-7512,-5592,-6131,-7804,-13473,-825,3574,-420,1959,-743,4804,3053,-9285,-277,-2887,-4375,-3638,-1674,1504,-1810,2252,5460,1210,-4305,-3186,371,2700,6023,6714,-2462,-6073,-6155,-4822,-4223,-1822,-94,-4980,-1520,2602,2075,-374,-2928,6579,1983,-6880,1060,-11744,-3189,-6273,-2011,3525,-647,1059,8442,5808,-74,-6708,353,-3825,-744,1855,-5029,-2715,-2458,484,808,-1154,-3761,2335,123,4264,-2064,-371,-3760,-4530,2969,3790,675,2691,-385,-897,723,2979,5496,-2472,-970,-1313,4195,-3132,-2056,5574,-3785,-8364,6808,-4125,-2744,2432,-5094,-1902,-6225,-1023,2309,1560,-1377,-937,3113,-1878,144,3021,-3010,5023,-1470,4288,4410,4904,-5121,-11942,1643,6672,-3015,3496,4397,261,2302,2555,-457,-875,7966,-2345,3864,-554,-5340,6126,-7058,-4659,12125,-854,-7255,1620,-2721,5719,-1378,2689,858,3407,-2011,-65,1890,-1426,623,1847,-6410,-891,-6007,-5025,-3047,-2472,-1976,1512,873,799,997,-686,-4381,3420,-3633,-4706,-1122,-1305,-1110,2901,5198,2314,1207,2423,1675,3233,5349,2203,4507,4669,-1414,-980,-636,1376,7229,6369,-3468,434,3092,98,-2865,556,-188,1749,-1453,3910,5213,-2831,1209,3136,660,-4052,-3181,2695,-4037,971,2707,3646,-965,-4350,-3049,-551,-1526,-2393,1967,3799,-1076,-1796,-732,726,7597,-4965,8866,3447,1601,2070,-6293,3998,-1584,-3670,1245,4160,5287,-3566,3976,5045,-1762,-5132,-5398,2049,-4034,-1281,-4151,-4822,-3550,1320,-1650,1936,4842,792,1243,2877,3884,-3799,730,2470,3607,-1588,1001,-1662,2036,-2297,-2958,-912,5519,2545,-2367,2164,-208,784,2897,-2512,2946,1727,7238,-4336,-7626,744,5304,1118,3459,-3919,3289,2007,-1017,-3233,-4534,-2034,-7019,-152,2064,137,1988,-2741,4013,-449,1059,-1969,1608,1480,-6112,7060,-1984,-589,2052,-1421,-8778,4287,8037,3814,437,-4585,-2037,-932,650,4952,-2731,2127,-1100,2090,1889,-892,-1832,685,2444,-5521,-1376,-1917,2495,-2223,-67,-2201,1353,2408,-3432,372,-3972,-1317,-2656,2359,-3635,-863,1654,-826,-2223,-4285,-1225,1205,2658,3320,856,87,2219,2548,833,1334,-2103,-543,-7110,2728,3062,2365,1748,20,11103,-8344,-610,3633,981,2597,-4966,-6221,-2456,-867,898,-5171,2434,282,2692,-5959,2494,318,2949,-4280,-3471,4467,5736,4264,5949,-147,-4410,3799,197,588,5286,-4560,-2659,-1349,-5894,1943,3890,-2957,-1358,-5832,-7005,918,1062,8863,1058,4107,563,7400,-1598,967,-4577,-5022,-3447,-2021,-3804,-293,-3209,2466,1923,3303,-2898,1944,1636,-2905,4230,-602,-3246,-2322,-1786,171,2202,-983,-2049,-2583,3693,-358,-2169,-742,5207,823,-242,1205,9596,-1264,441,-3890,-5671,-4883,772,-146,3201,-9266,3393,21,-907,4518,4117,2968,-1490,6049,-4833,-900,2473,2305,2273,-1102,4224,-2784,-7824,-4342,-6615,425,-2856,1893,-4291,4537,903,-5641,-1614,2569,2502,1112,5901,-3937,10698,133,-4576,4174};
const static uint32_t LSTM_01_weights_cell_dims[4] = {1,1,48,88};
const static ConstTensor_t LSTM_01_weights_cell = {&LSTM_01_weights_cell_x[0],&LSTM_01_weights_cell_dims[0],-1};

const static Weight_t LSTM_01_biases_cell_x[48] = {12230,-1505,-12251,5781,-3150,17515,-2317,-26241,-7667,10050,49,-14934,-13874,21339,1708,15336,6912,2698,-9899,25521,23716,3293,-6535,-16996,-10478,-21577,-8435,6941,-8701,-1451,17707,22406,-2742,-3880,19104,7842,-11380,-712,-2393,-17607,8001,-10791,14247,-318,7879,6605,13521,13293};
const static uint32_t LSTM_01_biases_cell_dims[4] = {1,1,1,48};
const static ConstTensor_t LSTM_01_biases_cell = {&LSTM_01_biases_cell_x[0],&LSTM_01_biases_cell_dims[0],0};

const static Weight_t LSTM_01_weights_forget_gate_x[4224] = {-5662,-1018,-3341,3860,-5174,1217,-7213,5961,-5647,2363,-634,-6744,2698,-3532,-2872,-5496,-1105,-8113,3594,-3033,2799,2349,8185,-7233,-5262,8460,-3356,-9296,-7189,-7631,-4813,-6040,5114,-5190,8061,-6432,5679,-11258,-4057,13611,-11351,1602,4438,3955,-1234,-1007,4265,1432,-723,472,-1981,2219,1491,8951,-2413,2393,4301,-12568,2823,-17,-3690,-9032,-1446,11858,3162,1668,10435,-2336,-8922,-2812,6391,-4641,5187,4946,1622,315,-4078,6383,325,-2374,-1519,-3999,-6373,179,5630,4036,-7455,4030,1265,3871,-6566,-13432,-3135,-4817,6505,1691,2706,178,5700,-9812,-2845,948,4649,8925,5310,1893,7121,-9148,-4185,-9829,-1285,-4500,-5816,-9860,-10110,6501,-158,-416,3056,-3246,-11590,-3697,-9589,-1388,77,3409,-9553,-9743,1891,-3466,8608,-766,-1547,-9230,2894,-2680,-8832,-19754,-3021,-7781,3659,-1544,12694,2708,3193,6215,918,4858,-4820,330,-692,-13715,6241,1308,-7312,-5349,1932,-10226,5439,4427,-7519,-2585,6914,-6403,-807,-7162,-1955,424,-11449,8175,-3231,-2868,1538,1822,-938,3906,6867,1295,-1444,3351,-2260,4195,-3528,-3969,-3784,-5934,-6172,-9459,-128,-6679,-2060,-3461,-912,7046,-5219,-11948,6244,6814,5123,346,7798,9609,-8008,-5037,-3180,1297,2846,3021,-1369,-9194,-8176,-10694,-1612,2912,-10094,-6958,7301,3558,3724,1818,817,-3114,9252,-1822,3054,-3535,8611,-4021,-7383,10742,-1953,5000,-6083,-9066,-4001,4382,-4376,-12348,-12022,5926,1546,7244,-1243,-3534,-5605,-10813,5247,3576,-12216,13521,6834,-9666,11924,-962,-1319,1804,801,-6344,7631,6604,-3889,-5900,-5981,6452,-3143,-1324,-3595,8309,4746,5023,3979,6744,9129,5758,4534,-6211,-12861,-3421,-4110,-6293,8228,2298,3841,-2349,-3358,6859,-5084,11174,5393,5368,-7317,-6664,-2505,-3167,-3262,3178,-10609,-6587,-6442,4986,-6323,6296,5372,-1087,6324,1540,-6056,-10543,7944,4871,-2242,-4475,-2319,-5881,-4511,-1284,-664,-1621,8308,6213,-1469,-7331,9151,-7987,4771,-656,4527,9115,1816,1250,6057,-7513,-5031,-4903,-6360,-3170,10622,8870,3634,8016,5011,1877,4578,1056,-13104,5929,9007,-12098,9055,-4505,-9712,427,4231,-5194,-2095,-6027,-2037,6010,-700,-1448,-6120,9597,-7289,-2139,-4753,-2569,2272,3296,8486,2642,-1511,-9299,-9230,-611,4739,205,-6093,3963,-366,7855,-55,-1103,-6359,-8250,9453,6831,2123,175,8658,8318,-5668,-4870,6496,-5242,3115,558,9825,-7789,-1918,-3667,-6356,-5615,7648,-17423,4230,-17210,7336,2264,-17349,7288,-3950,-2561,4615,645,253,-8100,-1071,6509,-5577,-1389,172,-985,7289,196,-5704,-453,-909,5131,-10696,-2269,-3345,2985,1362,-1763,3938,-3684,-8589,-8049,-8033,9798,5306,-3385,4404,-3059,3216,5468,7182,-8528,-38,3487,-1453,6397,3939,53,-4953,-1315,8090,6639,126,6436,2578,10984,-1804,6917,-3995,10203,3,13649,5261,4657,4455,-7422,-6329,-3050,9320,-8354,-3662,-793,7236,2960,-178,-5944,393,-9633,-7583,-4080,-8581,-2754,-8607,4212,-5342,11396,6595,-7438,-4448,9320,307,-3338,3431,-385,-15694,-6584,270,-1490,-3498,-54,4253,10404,-1795,9130,1218,4250,-4027,-1488,-195,-5569,8109,5085,12837,3184,1383,-2389,10440,-4937,-2904,1917,-5156,-8440,3215,980,6034,8348,10811,7570,1389,-272,3823,4092,6878,3123,-6028,4452,-4657,-6372,4752,-8860,3890,9372,2589,-5582,9974,4886,1071,-3609,-3641,-5527,4569,3929,7066,-6792,2023,-3169,-5585,188,-8490,412,5699,5793,4250,4783,12256,8126,-6584,8026,5045,8676,2455,6668,-2763,-7912,8267,3685,2025,-2922,10984,-11675,-5419,5321,-5964,-9661,-8499,-12619,-14007,2899,10493,8725,-15774,3192,-2789,-9125,8634,6527,-1194,-8905,280,4617,8399,-3271,-11348,6970,6420,-11531,-8747,2528,4925,5623,7016,4968,6684,13833,6672,-1247,4612,2064,-1712,-421,-2752,5564,-3819,6604,-4863,7220,-2194,-2182,305,3943,14287,13775,12805,-353,3983,9035,-6129,-940,6731,-2618,-2405,-988,11771,3996,11546,4267,7719,8150,2394,8576,-2056,-6750,-14588,8305,-3624,7026,2938,9923,10407,-4515,-2135,-1586,-1982,-818,-8060,-4432,-1284,622,1976,-3492,12963,-1589,-3823,-3704,-813,9119,608,-1252,-2864,12789,587,3170,1059,4429,-4493,-10493,-6645,9216,1754,8109,-1511,6925,-23333,4984,5303,-1812,8191,5947,-1234,-5791,-9374,-6695,-14729,-7533,-13527,-3797,2399,3594,-2454,-7820,-8468,4469,-7445,4366,4500,7587,3581,-4723,-1777,-7551,-5530,4888,5286,9943,-573,5375,-1134,12757,10075,220,-599,-5977,6256,-2747,-1859,3447,3627,-3416,-21685,-2304,-10093,3353,-4935,1916,4042,-50,-2146,8973,4255,914,-4018,1053,5659,3940,-6546,-990,8148,8394,2091,3223,-10995,-4267,-11300,-2784,9217,-3668,9647,8889,2082,10768,-10684,-5213,3720,-2977,-6008,-13995,-822,5020,-8015,2320,-9239,-3936,-6025,-7657,2556,2408,788,-9468,-3262,798,-9279,5371,-8498,-4323,8462,4194,-7033,-8076,1521,5858,3371,9090,-1262,-2415,-727,5907,7754,-5466,-6442,-2302,-4732,3979,8583,8214,-5241,901,6492,3630,-6340,3223,3061,1144,-5661,6740,-1945,-2850,-10880,-10819,-16312,7729,3317,4646,3392,-3353,-2661,4462,2302,-3615,5523,-43,-3021,-7053,6618,618,-7642,8815,5620,7312,343,-2712,9384,2441,1836,-8704,4937,8288,-3935,-2780,-767,-3554,-2381,3069,9404,2433,3134,-3979,49,-3374,397,-3040,-1429,-2524,-4841,-3607,2040,4605,-2933,2351,1673,1298,6065,8385,5852,-3972,7480,8196,5652,8024,-3882,-5846,-512,2556,-1567,-676,7944,-1653,3969,-3053,466,-8279,-6317,5270,-7827,3393,-1351,4372,-1091,7729,-2164,5098,1531,1095,-6507,-185,6655,3069,2305,-2595,-2884,4352,-100,2735,-231,-5861,-4293,11828,-1270,799,3278,-3128,-3566,-3456,-12295,2108,-7350,6589,-3480,-11313,3942,4265,5068,2911,9483,-6498,2148,-23,1128,6539,3240,4206,2890,-3290,-1406,7605,13081,2273,11006,-5075,6627,-5983,-3906,4490,-9197,-3920,10409,4798,-5807,-6505,-4210,-8750,-9427,-1939,-8308,213,4381,-6620,-394,-12547,4210,3061,-7937,-7850,4374,-4993,4310,-1638,8957,-7745,-216,-1078,-2765,5949,6633,-494,-1561,4339,-5041,4928,-571,605,668,6082,-5861,2208,2707,-1735,10891,4230,1899,-4215,-3695,2460,3505,468,-6393,4044,6535,6051,2291,12097,-2602,-1742,-9323,-3967,11257,-5739,4402,5032,4667,5198,-8782,-138,-9507,-8449,-4187,-13406,2708,19,-2861,763,1802,6751,-843,-5060,1328,4026,4317,-2750,1252,-7963,506,6596,-7517,3411,-4989,4120,6501,-7860,-1863,3853,9981,912,-2110,-308,-5190,7325,-4452,-6203,9414,3075,-5288,-2486,4637,2280,1393,7371,6968,9106,6309,-5538,-1634,-2793,3513,628,-1519,-1049,-1922,6676,7371,488,11785,-1788,-1836,-7526,-3571,3024,-5234,-51,3482,7237,130,-388,-7245,6653,7445,13412,-1018,6411,-3771,565,7270,5246,-2274,-10,14995,-10669,2035,9284,5167,4397,6167,12332,8152,-8277,1404,3485,6624,-9846,2698,6026,47,2186,8684,-1034,-3355,1379,2683,-1656,-666,2895,-8454,2743,1718,-2454,10745,6624,4820,-1253,7346,1254,-1197,-5179,-3365,4129,4317,2291,7251,3962,-6922,-2783,220,4992,-1135,4809,9666,6318,-4908,8264,-3708,-10456,1654,-4058,-7623,8664,8179,79,-6175,5779,2645,4436,-2295,8114,0,-1614,4473,2553,-4141,-1811,-294,1912,1581,-7040,11384,876,2480,-168,-4044,-1082,311,-6286,-4039,4470,-583,-7375,-4266,-6067,6064,-4313,10436,-8915,514,9726,-2612,-3550,-3683,770,-5838,2242,-1111,3393,6330,-826,-904,197,1440,-11283,8921,-6695,-13029,-572,-3972,-12641,-14201,-5154,9,442,-10959,-735,-2623,-19,5215,-2549,-9214,-7198,3468,-573,-2733,-6130,-1539,-5568,2610,-3995,-1858,6908,-3960,1909,1655,4136,-4096,-7174,-5606,5050,5344,1573,-774,3984,-2114,-5391,5277,-6845,-1256,1158,2393,3088,-1981,7699,8058,-3360,-7645,125,11989,14522,-1776,-3783,-5187,525,7195,-3895,-3899,-9363,-8976,8251,-11613,1035,10560,-11114,-5296,11275,1499,2543,-948,-60,3591,-6593,2618,3305,-3142,-6412,375,4141,3249,-1040,-4685,-10262,-11027,2631,1417,2303,-8426,-10301,-4051,3478,4463,865,11918,9528,4487,4193,-2788,5188,4072,4249,-5625,-8648,-8015,-4204,6304,-1450,4331,-7142,1861,-1653,10933,-3441,629,-2470,-445,-1933,-2874,13045,-453,12079,5028,65,-11542,2164,-5798,-1475,-5297,-3255,-5458,8670,-5122,4698,-5985,-12670,-5402,-11224,484,1569,-583,4067,2301,-645,-262,11212,5050,-367,360,-3485,-3411,-3249,8285,-2573,2237,-6369,-5705,-692,14585,-3187,-4759,-13107,-1252,-3183,-4944,-4177,-4706,-2073,-6307,3407,2440,6801,-1893,1035,3970,-1127,4581,5700,6102,6840,5806,9433,-2914,-3757,11541,881,4750,3256,-7738,-3219,-130,-3330,3143,7532,-5150,7055,3022,9637,-4356,1038,-2007,-1333,2144,9658,3087,1651,-991,8098,5785,-2105,-5591,5500,4082,7142,-9040,2895,18936,7218,5770,11032,886,3642,-6185,4519,2046,10831,-17226,-159,11162,-3096,393,-1687,-8089,-2966,-15384,-5420,210,-1798,-5242,-4693,-6042,-1872,6067,-1455,13311,2428,1359,-899,221,9055,7532,-3701,1814,-3517,-543,-14118,-3646,-2263,7400,-9895,2178,-4963,3089,-13354,-8842,-7377,4412,-10332,-3911,1538,7391,4209,-1263,-441,-2307,-7055,-1688,-6735,-4473,-8528,743,2854,-2060,-3804,-3149,-2958,7166,-1656,12905,11633,618,4435,403,396,255,-4484,-2739,-6851,-1475,5349,-3449,3878,7624,-489,6520,7708,3391,5159,3594,-1850,8094,-4052,-4985,7464,-19965,-11091,11699,-465,-3015,-1477,-3903,1760,782,10001,-12598,-2209,-849,-8166,-2464,10132,7257,-9918,-318,5847,-13348,4547,-2141,-694,12739,5038,241,7653,3965,-17582,5518,5608,1076,5515,7072,-4791,1165,2115,-10417,618,-3158,-7362,-13185,-9288,-5901,-10577,-5988,-200,-1915,1798,-3786,-121,-7471,-10264,568,-2514,-9433,1706,-6153,-5937,-5524,4201,3602,-3387,4666,2480,-781,-1041,2249,-1452,3932,-4026,4684,2985,-7264,-1708,-4647,6496,-1261,-3241,3885,4147,5817,-4898,5656,-10056,9658,-6033,-916,592,5196,13393,3060,4173,-141,-5635,-330,4534,-9526,3456,5388,4137,-1218,-2459,775,-404,15734,4887,3491,-6399,-6598,-5269,-2435,-240,-811,394,-1396,2048,11434,-4194,3086,2470,-1623,-3997,6196,3247,-2686,-1094,8039,-5484,5483,3092,695,-10135,5590,3962,-7221,-1512,-3690,8314,-6842,-2218,-6380,-2577,908,-5006,1192,4252,2253,1620,8008,3613,-4101,-424,4156,368,-3151,7104,-159,509,-7197,-8364,-12416,-6623,-11296,5897,-10177,-4998,20256,7596,10205,10936,-11785,-145,-6564,-106,1229,-6166,-1478,952,6013,-2183,12929,301,-13275,-7758,-7419,10311,-986,-5451,-4946,5408,6742,-7216,8118,-4496,-2851,-12336,-6853,-3388,-1093,-179,7313,8831,-6454,5410,-2874,480,2657,7731,7339,10783,6716,-8161,-6610,-141,-5237,-10376,-2549,4235,-8875,-1366,-6620,1833,-6353,4417,454,4879,-4589,-10501,-2723,-495,-4992,-4234,1848,1016,10610,3518,6384,6533,807,-9055,3051,827,2507,-6244,-8275,6372,-4051,-10347,-2591,6242,638,3254,-6500,2208,5967,2988,565,1284,617,-2465,-1742,-4556,-8850,2923,7115,4280,-8937,3039,-4447,4605,-5591,3510,588,-3240,8119,4216,-8367,1374,2584,600,4815,-5103,333,3772,-2084,-2468,5635,-4018,-3118,1975,-4369,394,-373,-7946,-17161,-4866,-3939,-1966,4430,6570,-3052,-8836,-8249,-1954,116,-7560,667,-17556,-5239,-8436,576,-5331,1567,859,-4949,-7113,2250,2089,-7634,-5350,-188,-12279,-648,-4677,3093,-10746,1584,2574,-8739,-7748,2544,1072,-106,-7286,-2721,104,14497,647,-4680,2069,-10932,9448,8857,-4517,-741,2642,5781,-8962,-1486,5395,-6868,8799,3923,-16253,-1315,-960,187,-15227,53,-5672,-6667,-9926,-2014,-4925,-352,-10192,-289,-4586,-5151,-2657,1794,-585,-11975,-4306,225,10824,3435,-1797,-2230,-5229,-900,-1286,964,2388,-5596,6265,-3993,9752,7918,8658,7685,-342,12115,5143,-2164,1485,-1938,-1485,10395,-344,-4493,-3670,-334,1628,-3968,4211,2895,10682,3506,1188,10138,1608,5682,7008,-324,-5660,4995,3284,6610,744,6824,8130,2944,4476,4340,1539,-1054,149,961,-6318,6768,-2550,3824,1417,5179,-5645,-3612,-3951,6666,-1169,5868,-1613,10296,3773,-298,-3832,-9545,-10303,4527,-1923,-6318,8165,-7481,2849,-4964,2678,1130,6971,-331,2883,5855,-11637,-6799,5589,2559,10821,-2331,-597,-3331,11317,-6859,5976,1517,6887,-2997,9587,-1907,5674,-2198,2911,2570,5436,-1486,8648,-4828,-4766,4530,1410,1922,9230,-3056,-1631,8155,-1179,9011,9005,-1443,5175,5030,2753,-2961,4246,5653,332,6991,5685,504,4379,2007,-7187,447,8413,3892,-6716,-2571,-7044,-3249,5511,3357,-9422,-6511,-2640,1040,-8152,7774,3854,4872,7091,856,3503,-2099,8099,4818,5200,-1634,3621,420,2008,-8965,9898,-4990,-1463,2962,1138,-1095,6650,-4077,9833,-2038,1227,-4648,-2000,2152,-4330,-7467,-4847,-6353,1621,7461,2418,-188,4321,-3426,-3358,872,7871,-3026,6411,10098,4455,9965,9948,-5231,4976,-617,10598,-1811,8083,-4501,-8219,-117,269,-1878,-5963,-7957,-1759,3663,1052,3866,7200,-602,3400,5560,-3710,-8315,955,86,-7732,-8097,3762,9235,-5451,13079,-3168,8058,1404,-6335,10953,-5556,-6152,-3449,-11009,-145,-2150,2125,14599,2377,-913,-3679,4633,-7616,3567,691,1699,1262,-715,2505,-6206,2925,-15,-4743,-7111,-17673,1882,-2665,9705,11316,-5863,-11166,-8519,-6142,1941,4451,6907,-2336,-6180,-8231,8337,-4285,-7037,-2392,577,-1902,1408,-300,-1110,-5083,4418,1558,-2981,-7680,-1460,5212,-6191,8631,-7383,-7738,2827,11519,4431,4289,2680,8143,5709,-4942,7783,9590,-5795,11195,3874,4202,3506,5447,2081,116,-5606,2055,10326,-2338,-706,7164,-6276,2495,6733,7957,5033,5148,-4552,-6527,-620,15946,1700,-1774,-2140,1622,4938,6047,-1022,-2544,-126,-10802,3994,373,10520,-3728,-11030,1042,2324,-12341,-464,-1161,37,7585,2866,-3315,-1859,-8248,10336,-3593,2326,-4275,2213,-3671,5007,-913,-4321,-5778,2785,-3313,-4915,-2416,-3164,-3745,-3453,7685,3794,-2238,-5913,11055,1453,-1138,3905,3295,9483,-408,-4461,9126,8544,6712,-2295,-3177,3640,4810,4616,2873,7274,5561,-2790,-4777,6951,10588,-1046,5810,5844,5682,6535,-3663,-3672,2006,-1168,1623,6527,6045,2148,15269,-6240,-7160,4094,1712,3490,-10229,-5476,2539,-11571,9111,4954,-1267,703,9909,5471,1787,-2450,-766,4175,-6749,3548,8276,236,1871,-22,1530,-8797,306,944,-4595,-2532,5364,-3368,7680,-7504,-2924,-2422,-3265,-4873,-7332,12109,10537,-1275,11832,1061,5708,-637,11527,10391,453,-3740,3593,-408,7421,-2129,3018,-4032,3289,9347,3521,4842,7794,5082,1600,3948,1150,-2628,6166,6261,3939,3490,-6538,-4676,5704,5014,-4480,6335,3765,-3143,5433,-12112,1495,-3643,-4766,2360,-9354,9349,2138,-2026,-649,-11221,2054,-7839,7375,2717,-9234,278,-466,2157,-5858,5051,-1352,-10570,10876,-4518,2419,-4682,-11202,-10158,-5207,8505,6165,-3102,-10828,1617,5326,2627,-17646,7823,-12529,4125,9070,-11529,2603,-277,5010,-13097,-9531,4793,-4906,10089,5475,7806,2225,-88,12342,-2357,1641,9575,584,-2499,1761,4013,5013,-546,519,4324,6837,-557,4626,2439,4984,1905,-3933,7369,2615,-6040,-5881,829,8928,3372,4739,4978,-131,1265,-3159,6421,13320,-4263,-10706,-9410,-7821,-221,-2165,7165,6477,-346,3462,-5500,-490,-2960,-5270,-7889,2532,-2089,5142,-2249,23573,2014,-5791,-12876,12582,11049,1225,5903,3318,129,8493,5419,-195,8347,13795,4150,-20578,3279,-5754,-1670,-4077,3520,9310,-2697,-3046,-707,9134,5117,-4541,7900,-655,9390,-3842,7714,-5781,-6167,732,533,-3561,-3957,8383,266,774,-7164,-5312,-5965,-5550,-3150,-7350,-1962,5939,3445,-4433,-5546,1906,7277,12254,1187,-3252,11896,-489,-3581,-1215,733,7325,6014,1115,-3243,6376,-4583,-1165,-1211,4263,-4562,3786,560,-3455,2632,7931,6300,-4789,-5441,-2920,-6493,9169,-320,1863,-2202,5247,11222,-11652,4161,-12659,-5368,5796,2239,2174,-1646,4007,9532,-2181,-7752,-7196,-407,-3136,-3138,-6258,-1471,-8470,-2842,9225,-3908,5254,5630,6746,2219,-10457,-3472,-6072,18881,9022,7872,5073,4526,6501,4111,-4458,-7256,1604,2659,2641,1310,-647,8865,-8693,3167,557,4770,2165,-7855,-2817,-12903,3031,-5823,187,-1940,-2732,-7332,-4182,-7411,2362,-8422,1915,-7708,-4105,-6131,8395,7805,-15569,-11216,-3558,5771,-11451,-6733,3885,-8747,6671,2252,13376,811,6173,3923,-1575,-16043,-2743,-3522,11253,-4969,224,-5071,1459,-338,-8076,11200,-9314,-12458,-1127,7383,-7883,-10307,-3726,-4845,6126,-11379,7475,-2487,-8574,-3434,3502,-538,-2206,-1672,4328,6429,-10099,-9970,-11941,1537,-6099,4258,3662,3674,9348,-722,6215,-4473,2130,-9703,-8650,2613,-10220,4928,9011,3288,3588,-6244,-1152,269,-1401,8171,7198,103,5482,9891,-104,-3245,4408,10515,7345,13492,-3422,-4212,6884,7472,14792,8342,2250,2897,-5682,8736,-46,-10669,16809,11812,-7149,-16062,3926,-263,8310,-7327,3293,-6407,-5182,397,-3174,1428,-11678,-10218,-7161,5982,8707,5946,-1412,2397,-2226,3006,-7396,2813,-6904,-12364,-8577,667,-8963,-2406,6806,2510,4115,3221,4303,16092,587,5470,-2821,-2962,1241,5179,6410,3653,-8650,-6953,4857,-4699,8868,5609,-1900,11793,10516,3259,2737,9945,-2116,-4799,-6771,4422,-2284,-4822,-4546,-558,-1770,9494,-2477,3596,-4708,1475,-2777,-6845,-3570,4488,1149,-9155,-7881,-2881,25641,2232,-2254,-5842,-2519,1437,8492,-1039,-5069,-16415,-431,-4219,-613,6991,8213,-1269,-5057,-8127,7132,12719,488,5350,-8618,-672,7797,-913,4297,-2930,-4471,10945,826,-1281,2150,7491,6359,-2073,-4010,2071,-2754,-4510,-3695,-5251,8556,7376,2066,4297,5005,3607,-8853,-10271,-5542,-2803,2299,-7367,-4685,-8240,639,-1792,2231,-8541,5125,-131,-3483,3913,-7458,-6256,6294,-8389,1650,-6089,-7062,-4626,-1231,3433,3023,-5328,-8238,-1772,6844,-8094,-8626,-4735,1504,-3602,5188,-8189,546,-3720,1982,-698,-5789,-9829,6671,-3118,-5640,10786,4422,1836,1239,-6981,3843,6793,10083,-14061,8240,-6823,-12309,-1859,-5781,-2362,-832,-5762,-3472,-11802,-5623,1964,2712,-3381,-2,5052,-4385,6970,3735,4419,261,5020,-278,3277,-9378,-6078,8425,5571,-1498,-443,1433,7484,10780,8408,5965,4152,-2885,2567,-1135,107,-4330,-3082,-3477,5664,-2018,-2940,-6548,-9481,-770,3701,1188,3697,5854,5346,-6194,3932,-1713,-5911,8012,-1448,5506,-2262,1937,-3724,-6163,5480,-6372,-933,-9116,-1741,4422,5249,-5754,-5772,-1947,1298,-5328,-1664,-6571,8995,-6216,3160,6328,2907,5048,-610,9638,968,11292,-11902,-1779,-865,964,4631,2475,49,-7384,5783,644,-8811,-2606,11882,3752,13817,1969,14107,13799,1881,-9199,-10894,45,4192,12996,7758,1070,5468,-6001,-2646,-7247,-4099,-5709,-245,-8256,6767,1820,8835,-2521,-5926,6796,2542,4455,-368,-5174,47,1450,358,-7524,4902,-5326,-3448,4434,-3563,9205,9426,5898,-5057,394,1665,6550,-3368,8676,-3846,-4257,6915,2910,2297,3958,8126,8936,7647,-13836,4506,-7862,-5218,-3793,-5686,15795,1489,5045,2017,-2009,-6992,-6637,8534,-4687,7673,-720,-10978,-4897,-4610,258,7122,-2921,-5081,7093,7610,3633,10158,2876,7518,5147,8203,300,3520,-8748,-19503,-6158,-3776,-3318,4506,-403,1074,8564,3352,-8788,9431,1547,-5409,3621,-5821,-7748,-1661,-867,811,4285,-1667,797,5751,-7852,7269,-3534,98,-4166,-4894,-6004,2307,1084,-1663,-4060,216,-2653,457,11706,7161,1587,3858,4397,5184,-211,-7830,-1207,1240,6968,-3339,3219,-6042,889,5951,-18145,13816,19060,11706,8035,-5291,13206,-8379,2797,8769,1523,-568,5564,-203,-20987,-1058,-6820,-23179,-1446,1864,8673,-1644,-9745,6500,-10862,8145,4717,1734,-6494,1767,11343,-1668,5645,-1156,-1423,3249,-4440,-9683,4152,-4132,381,15151,-14275,-164,8235,521,-165,-1605,-14138,1783,-1813,-6825,-5832,-1444,-6754,752,-3548,-4683,-782,-7733,-3325,-7398,-5365,3139,4296,-2435,4069,-4177,-5757,-1084,5574,-8613,-6241,4727,598,2640,4187,7674,9098,4273,5419,6804,1504,-8748,-2640,-901,-8449,-5308,19883,-5073,-8712,8845,-9886,-1728,7535,-3385,820,-360,4043,-5526,6718,6669,-6270,22310,-20097,9966,-4361,-3276,3292,-5184,-5410,-17105,-5093,2697,-10949,-1613,4781,520,-11329,8199,-11434,8298,5457,-1342,-961,-13795,-7044,-3417,-10648,4043,6402,8386,-4500,1456,-11015,14751,-5058,-7638,7858,2043,8845,4875,3389,1951,-6819,3033,9481,-27,1668,253,-4882,2653,-4467,5720,-3991,4394,-7216,7791,-3733,7083,-7001,1522,-7113,-3959,6272,-4576,1253,-5838,8456,-5166,-7213,1122,6307,-4751,-3535,2242,-250,-6885,-1832,10399,-10434,-922,1796,4521,-1276,-5255,1114,-10293,1735,611,4607,3236,2413,-3050,-3394,-8615,4276,808,-13177,-14713,881,-1624,-973,8314,-1715,5510,8282,-2279,-12750,6855,3044,373,7844,6253,6148,1458,409,-1833,-4844,-3761,4698,-3065,4494,-7956,3813,5365,-6716,536,1396,-3972,11235,-7849,-1954,7161,823,358,10595,-1625,-2933,5671,6603,-4582,-4739,8412,-3755,-2802,7976,10117,291,5752,10266,11188,6141,9337,14733,1227,-1191,7846,-4970,11301,10098,11126,6162,-4106,8631,4283,-5211,5040,-3025,-5735,12828,15738,8549,1341,2668,4738,487,5561,-3943,-6648,9560,1234,12330,6800,-10108,-5494,1051,-856,13095,10100,-12212,-4959,1456,10996,371,10173,-3346,3824,-5975,3039,8469,8688,9661,-11088,1395,-964,1803,5840,4243,-10781,6350,4267,1098,1772,-5249,2291,10215,6835,957,7848,3622,-230,4326,-3558,8592,902,-2402,2683,-3,7150,5231,6856,7646,7304,4979,-2618,5441,4783,9860,-745,2303,-1732,2001,-3070,6248,-398,10781,8431,-4698,7965,5637,-3869,887,11433,9075,-3926,-84,-5949,-5173,-3642,6224,6003,-2094,994,11477,-1881,4835,6835,4119,-5394,1923,10188,1003,-3855,-3991,-2541,-5460,-289,5790,4195,2137,2797,-12207,-12409,-2568,481,1332,-10022,-9454,5906,5021,-3121,-8573,2122,8641,-15406,1349,-7269,-1231,15270,-2177,-4231,-787,1124,-3590,134,-1853,2478,3737,6861,1777,-603,10244,8740,1028,9633,10671,7309,-5380,-1194,9462,7402,-2771,4821,-1916,-2439,752,-680,3084,5895,2426,-3342,-10050,281,1490,5475,9833,2879,-6776,5521,9964,-534,-8256,-5881,-11268,-1143,-6964,-181,4189,14406,2209,2996,11345,-2275,1441,9410,6762,-67,9329,2377,-11707,2227,-2051,-16273,-9918,7196,-6522,9587,-9108,-5707,3915,-6739,-8571,2154,-4808,3241,6390,-9280,-5808,-1635,-10050,-7058,2857,5899,1387,-6355,6575,7711,610,660,5374,6254,-7093,-1433,-14075,452,-6939,8205,-5468,6983,9363,-3122,4614,1378,2458,35,2135,8051,2830,-673,-4382,-1119,6777,-1394,76,-2077,-9829,1461,-129,1196,-4282,-658,1685,3062,-10540,-6049,4429,5260,924,-6550,6001,1457,10093,-3658,297,5751,6338,569,483,7888,526,-6375,1817,1222,1592,537,-3781,-365,-7444,6718,6727,4789,14214,-14034,-6762,-3115,196,-11390,-863,-8700,-16397,467,8305,8278,96,9483,7514,-9764,9106,10277,14095,8151,-1285,1062,-2579,-4380,-2460,-831,222,7131,5046,3541,5311,1679,-5427,-2203,-100,-2296,-4529,3970,-7826,-6691,2882,-8233,4883,-466,3344,7214,1790,2288,-6274,-5061,5438,-1276,1545,7057,-4852,-1995,-5547,-1794,9736,583,2140,6831,5949,11272,-8437,-3115,-4337,8264,-2283,-6057,-5870,-7189,3345,-3419,-9385,-3892,-539,5294,-8452,-1590,-1025,12272,3466,-6940,12552,-7467,-4462,-9331,7515,-5182,2376,4624,4657,-85,-6800,-8699,-363,4634,-395,3812,-15705,6076,11082,-313,7374,-2429,11056,729,3182,-6112,-2569,-6508,5191,579,5663,-6634,-1118,-2,-8696,-1454,11120,11319,6285,5442,-2986,2995,1059,1740,9696,7220,7273,-673,-4680,8127,9567,2292,7595,2908,-451,8876,8908,-595,7898,10160,760,10010,3245,-7546,-972,355,8088,415,-8699,-4831,6800,-7504,-689,3440,3926,-2146,-9543,7918,3289,1137,-10271,-12370,472,6404,-4238,39,-683,-9872,-198,3967,-3646,-9700,15742,-5122,2578,1214,-267,1729,-3088,-5991,2166,-7729,-6276,-5303,1006,81,196,6987,-5620,-3626,-1479,11399,-5018,-2432,1587,4733,5510,2942,6349,-2974,11311,-525,5979,-6689,875,12581,13595,-974,5487,-1862,5722,5562,2415,-3939,1610,-9146,-4306,-8121,3939,8523,-5063,-7403,1215,-1738,-721,-1428,-4201,3908,7689,2867,6312,-5465,-312,3701,9086,10125,3628,-1585,1778,3526,-5227,11215,-2914,2110,-12319,2593,-756,-5089,3213,5108,5481,-12935,-5715,1973,7276,-1334,-408,10605,-234,-6759,12391,-1879,-736,9840,5768,-11195,-8817,475,-10370,2131,591,-7082,-8572,-4474,2004,-1478,1410,6613,9504,2936,-5858,3265,-10914,4044,-4723,1304,-1881,-1253,3201,10185,-1562,-10468,-7473,-4839,-3233,2521,-7126,6641,-2334,-1364,-2936,1675,6734,2350,-2524,10576,-3436,9683,11891,11677,12534,12664,3913,6542,13614,9827,6644,-4150,1259,7389,9935,5311,992,-8627,-2439,3575,-5729,2187,-4911,-11145,10832,-10270,5163,14662,-1397,9550,1548,3414,-5678,-4771,-5579,9821,-1675,-284,4181,-3457,8011,-10784,-1739,-8073,11680,408,-4186,334,9742,1966,7175,7449,-7924,-584,7434,5555,14594,9810,2814,-11462,-11214,6419,-9988,2166,4209,-10078,2197,-1617,2990,-1745,-7588,-4789,-4861,-5443,-4655,6325,1578,6840,-7546,-3623,5194,-3397,1723,5043,-307,6532,-2794,-315,-2742,5607,674,-5624,-1948,-5072,3154,12,-5435,6731,-8893,5094,1125,-8506,-6016,-855,1654,2559,3069,4961,10713,7916,5192,-1196,-7226,-5057,1889,-2960,-10266,1935,-51,-12966,-7058,6468,-5482,7634,-774,2954,8981,8822,-3336,-2873,-6829,6565,-10093,9452,-1469,-1598,1827,15191,-9151,3035,2950,4310,5952,-4568,-1368,5731,-4864,1169,10591,9590,-3095,-3804,841,4715};
const static uint32_t LSTM_01_weights_forget_gate_dims[4] = {1,1,48,88};
const static ConstTensor_t LSTM_01_weights_forget_gate = {&LSTM_01_weights_forget_gate_x[0],&LSTM_01_weights_forget_gate_dims[0],0};

const static Weight_t LSTM_01_biases_forget_gate_x[48] = {10190,13978,17076,10138,12460,14462,19209,16218,19536,17601,14827,15318,20963,14236,14934,12606,16661,13408,15628,17020,13265,16100,17095,19904,12900,15292,15335,15143,14249,14837,14551,18406,18947,13469,13061,13555,10434,17734,17310,13611,11956,12312,15902,15969,16240,14043,21951,20145};
const static uint32_t LSTM_01_biases_forget_gate_dims[4] = {1,1,1,48};
const static ConstTensor_t LSTM_01_biases_forget_gate = {&LSTM_01_biases_forget_gate_x[0],&LSTM_01_biases_forget_gate_dims[0],-1};

const static Weight_t LSTM_01_weights_output_gate_x[4224] = {-4860,3901,770,5376,5596,1316,5229,9520,5713,4929,8649,4989,4422,1664,9761,6167,1515,12919,5046,9144,3790,2434,4427,5532,13951,-985,10633,13667,8653,4058,3617,5417,6756,8744,11180,5016,14841,3226,13830,3217,5085,670,1168,-299,-4611,1177,13598,12859,12947,242,336,-8602,-911,-5493,8088,-4291,1400,7303,2541,-3594,4395,7476,-4816,-16211,4446,384,-3741,6115,-1536,3777,1049,16193,-7695,-974,-3715,-7340,-3351,-11322,-3266,5744,-2997,-1349,-3869,1247,-4997,-2226,9809,4764,-5325,8569,-2398,-5219,1737,-3386,7280,-3457,-2074,2962,-7442,2280,-3979,-954,7802,6995,3140,-4565,957,-1991,-10071,804,2326,-3326,-7653,5210,-3905,2539,-4986,6333,4878,4352,420,-844,-8773,-3044,5094,-2275,4934,1777,2792,-11339,16188,309,-2352,-11608,-5334,-4436,118,1901,11077,-6237,6964,-2911,2976,10644,-5849,-1118,-844,2060,-3399,-5116,-6697,-2996,10017,1643,-3983,-1211,-3451,2711,-5579,8501,-14462,931,8241,-2874,-985,689,-7269,10424,-2498,-4294,-4333,9904,6582,-5827,4727,4463,5856,-1805,784,4866,-3810,1117,2653,-3265,11687,11128,3995,4567,4616,4571,6076,-2560,6627,9552,-650,-3076,-3391,7560,4295,-2845,8290,4041,-1281,5893,7035,-791,-4449,-6239,8286,-182,8561,6582,-4941,-300,8181,-2041,7705,422,10932,-7364,4722,-1942,755,-7849,7184,-2193,8745,-14669,-2339,-7556,1589,1400,-4564,-7609,6391,-4508,-5386,-201,-11436,-282,-438,848,-3107,9427,-318,9834,2996,-4605,-455,-3074,-7667,3152,-3871,-122,370,-13465,7258,-3282,-10530,607,1097,1960,-5760,3891,-1210,-7706,-5177,12368,7478,126,1844,5357,9608,4954,10684,2895,4734,-1955,2004,2182,-3533,451,5237,1327,7667,-3528,9724,1720,3025,10043,9095,3189,6427,6667,3523,10483,-6361,7534,3896,10124,-743,8206,-3982,8806,-1742,-977,-4394,-11957,-4154,-2370,5079,-2240,8411,3540,3681,-5860,7534,3486,-6322,72,10709,-3924,3456,6997,6240,-7267,208,5243,845,3313,-5836,6376,-1529,8559,-863,6484,-41,-6875,5694,-929,5258,534,12730,-5572,-13076,5180,5169,-13352,-7590,-1666,4320,-9353,5211,-2778,12244,1826,-3777,10044,1873,-5212,13066,5653,11531,1512,4120,3247,9918,6727,13695,15717,4873,14402,2571,5931,12318,6379,607,9351,-416,604,-985,1611,364,9667,653,-452,5243,1972,9873,5224,8308,-2760,16236,-3653,-5605,-11510,-7363,-552,-5201,-2576,1635,-3167,-1456,-358,5141,-7917,11503,8597,-435,20088,1422,7013,4059,-1664,-12280,405,-3606,567,-681,-3285,-2616,32,-7575,5126,-3726,9313,-2057,2632,-3066,-2328,-6544,-142,-4773,-1903,1431,2752,-8117,2630,-7621,-7698,4808,-5953,6502,-1335,7251,4781,2637,5067,5410,12885,-3567,-1928,10406,8770,5824,-3622,7165,2706,1755,488,4673,12509,7783,1903,2808,472,13296,9557,9814,11816,6346,5993,8693,2198,13901,3283,6296,3349,12939,7677,-5800,-2039,-923,-142,903,-1438,-997,-34,570,-6313,3372,-8289,-555,9246,-2336,-1717,-4068,5890,4207,-1156,8146,770,-6362,-574,3680,-7343,1353,-9973,8186,10764,-2862,-12147,-4632,-6634,5004,-11302,-2037,6464,5592,-4509,1035,6257,6216,-2853,-4426,-2130,-3596,3527,9607,683,3621,13127,5714,10274,7340,10605,15977,7804,4094,4450,3454,-3211,5997,10964,-6118,73,10926,3512,9041,7875,12965,-2615,5411,3018,-4,7851,4221,-2695,-3578,6656,-5706,5685,-2320,11097,9714,3444,6140,6238,10814,5675,9238,-2955,4183,10577,894,2298,1394,-763,802,264,3496,13577,6948,-3759,8536,-13879,-6980,-5674,10501,-11058,-6554,-4545,1628,11777,3257,8126,445,3657,-2236,13340,-1396,-6243,-9936,-8800,1671,-1973,-185,-799,5254,-2356,5094,-651,-2306,368,4702,-10454,2076,8728,380,720,-8501,-4891,-8833,-8303,3835,-12044,-4338,4559,-2441,-1929,-1905,-7244,-6192,-4409,8155,-5109,-1914,-2178,-6160,-7257,-11560,-289,4547,5183,-1384,5885,2880,-6535,-1743,-2416,13854,3637,12557,-1233,-78,-111,-745,-4773,1543,7080,-6951,5827,5284,14492,3453,-1841,-3132,-2033,9374,4250,-2917,1017,-2984,8728,2699,1590,26860,12242,-1681,-10245,-672,413,-8732,-2155,-6149,7563,2579,6520,-7894,1196,-1843,-4771,-8065,1745,-11463,-2039,-2276,2820,-3063,-3194,-5288,8944,5588,5117,1272,-6246,-145,-2399,-12505,-3068,-5178,-8922,-3560,5238,3276,5935,304,-8139,-2283,373,2913,624,-4254,-3559,6015,9675,183,5031,9037,2463,9133,3296,7697,160,4399,4282,-2396,5863,9863,7766,9094,7956,7050,7763,-11878,3550,-9932,3491,-12703,-2098,-2626,-9902,2283,12279,672,-6007,-1577,4748,2654,9790,5293,-561,931,7995,6445,-2549,-5782,-15029,15892,7289,2369,8781,-1245,7034,-10293,15438,174,-2036,1969,-6873,6408,-2847,-3016,1440,-1945,11995,-1078,-796,3656,-9554,-4788,-8224,2322,5671,1145,-3661,5733,6608,4170,5815,7373,-944,6935,5602,4196,1211,-3967,-5900,190,-4933,5703,4743,-5593,-2330,-5922,-4884,1693,636,4229,2296,8144,-6368,-4578,-832,9423,9911,4179,7618,-4462,-5629,9459,-4278,-4671,-6346,-12797,4998,-6197,-2586,1752,-1241,4500,2570,-11924,1448,-7460,16415,-9860,-862,2362,1919,7227,9013,13960,3907,-10776,-1509,1891,-5714,-3034,-3733,-785,10607,17,-3637,8060,-1131,-3744,3970,786,-4870,4652,410,16751,950,-648,-4650,-4874,4025,2759,-6208,3904,1689,8081,8074,9531,9418,-218,7725,3632,5818,-3577,3172,-6055,-1655,7355,4898,-399,-826,8435,5739,-1265,1839,-6000,-8429,-1703,-2005,-2758,-23,-693,812,6133,10108,-589,-183,4483,7928,-4219,-2067,31,2066,14032,-6397,-2461,4190,2004,3340,-7708,-11995,9985,-5100,-1068,-1648,-3511,676,-948,2476,2311,-5510,5106,-6540,8514,3305,-12766,-4679,4859,6661,6311,-7592,305,-8607,-4517,4563,1869,1265,6000,-4796,-8012,1043,462,3924,-2184,12749,3578,-17622,16,-7592,7934,-4161,-6688,4201,-660,10406,895,2750,-1758,11680,2951,-4464,1416,4236,6890,-1555,-4645,-1600,3609,4645,-864,2400,10630,8114,11772,-171,12499,-2153,-3550,10016,4563,5140,5615,6180,-3921,993,1034,869,-6849,1865,5561,5322,2329,-1807,4600,-3149,1960,-4666,-1642,-1222,-8411,950,5585,5558,3367,-8102,-331,6351,6442,2057,6309,-8851,-9918,1823,-8842,6929,950,-4911,-2673,-496,2235,-3876,-3307,8174,2281,-8808,-8279,-4038,-7167,-7880,2506,4125,-199,5136,-4701,8935,-11371,-5209,-6769,4759,-1105,1823,-2045,-161,-8224,3031,-3104,-5371,-530,-4231,-7498,4412,-3381,-7435,-2198,5351,-4781,-5405,3700,-4639,105,-9246,4250,5536,-5710,-3319,7383,-1957,-3540,-7897,-2493,-5998,-5135,-10014,-3824,-276,-10183,-9091,-2637,-6269,6614,3125,-9262,-3843,-5151,4681,9237,-5166,4241,-144,2425,2991,-7470,4377,-3305,-1212,2857,-1171,5756,1029,1321,-7193,-2893,-4400,7977,8125,2485,-3356,-6794,11929,8858,-5089,-6793,7868,6317,-168,9251,28,-4458,1828,303,-14118,2450,2006,-6388,-5988,-3477,401,2705,10142,3126,6576,-364,4697,-2166,-6803,-4254,7259,6002,-2945,-675,2161,6387,-1747,-7069,-2031,-3338,4350,7229,9511,-3735,4949,641,-1635,-3373,-390,-1207,-9480,-9060,3022,-9309,4814,3115,-1802,2839,10345,-339,-1601,4927,-834,4757,6079,-4374,10572,8037,-233,745,634,5846,-6419,4059,-4449,-7882,8600,-2275,-4757,8288,4511,-4232,-8270,-6765,1439,-11873,-761,7333,7208,4248,2501,6028,94,8335,3085,-6655,4664,2623,-1543,-652,59,-15245,3091,6712,-3839,13221,2925,4623,8343,536,4929,-4553,5304,-2209,11902,-3697,-2610,10807,9269,5973,-1464,-4255,435,10930,9060,9832,2719,-3417,5396,5063,1264,-6241,5063,5660,-4913,7877,1259,-1289,11300,6393,199,10688,-428,6931,13785,10865,8025,13172,3301,-202,-3239,1467,-2826,-707,2856,9959,9518,-6252,-1214,1290,1403,-5870,-10923,9568,15139,2905,-10083,4431,10769,8375,-3329,276,-12147,9202,-3259,450,7197,-5343,1761,-1312,7001,-38,1527,2602,1879,-7072,-9865,-15938,-5237,-3637,10354,3671,-2280,-7236,-6672,753,2426,-9897,-4874,-664,-11078,1078,5425,-5826,-2313,5572,-4034,1600,-2805,10854,1239,123,-5750,-2832,5302,7221,-3116,-1711,6721,4872,-3730,-3476,-7345,-352,-4166,549,979,10010,8764,7757,2690,4886,10053,6406,553,8593,4971,-7824,8351,-279,-1303,-7060,-4370,5897,8689,-8536,4419,10590,-5988,-865,-3978,3744,-1424,-10138,3428,-5753,268,16698,508,-3835,3294,2532,-3793,11953,-5929,-9563,-302,624,773,-6642,-3125,13585,-2730,-19025,-11366,-7234,-743,-7784,6632,-3016,-3048,-4150,-6543,-1584,1318,-1165,3570,1941,9603,5740,8639,-7259,-4666,-9584,-59,-1367,-1059,7452,-2061,11122,-4966,6348,-5708,-4691,-4677,-2428,10048,408,-5444,608,-2025,-2052,-5380,4016,-4428,3806,8628,-4792,11359,10910,-3820,-1862,-1048,-6463,2279,611,15375,-8911,10422,-5531,9177,9695,3503,1246,7262,3099,306,775,1283,-12603,-6270,-4557,104,291,6676,-2246,-5421,-289,1827,-6155,6883,6890,-6973,1942,12307,5381,12487,-1417,5863,-4440,-6258,-6034,-10453,-4642,-13741,8081,11448,1187,-111,-7189,5205,5454,6889,-4957,-1985,-3071,-238,530,-2366,-1117,7690,6471,4832,-4461,-1075,3956,5340,9097,-573,818,7053,471,-2074,-3341,5652,-3431,11052,5598,4834,3560,-7264,5038,7576,8261,8628,-4794,5908,2375,9850,-590,8355,3511,11559,8405,6987,-581,369,5102,8133,4722,-4813,-7789,-1160,-12632,-10614,-2338,1103,-10996,-7543,-624,-5565,4022,-2613,-14102,-5761,1646,3779,-3027,-9742,8239,5196,-7787,3210,-14220,-1387,3843,-4294,201,7019,-224,9574,16711,773,-3457,548,1269,-10269,1501,-7533,-442,2658,-1123,-12544,3393,-206,-6987,-2343,123,-10232,-8069,-2363,-1825,-10562,8248,5170,-1832,6594,-4081,8468,8325,1652,-8307,1829,-6033,998,-5613,482,-169,6079,11387,3352,4992,5017,-1628,11826,2063,462,6126,1853,11092,6346,-12098,3771,-13471,-1931,-940,-5526,-6311,-3241,-2210,-5191,6874,-2794,-4571,4071,-1145,219,16354,15041,238,-9412,9786,-5113,-2605,1904,-562,436,2441,5816,-5661,790,2378,1902,12313,2745,4673,5468,-10239,-2096,-1359,630,-4349,-1896,-9887,-2527,-240,3341,10749,2507,-2846,-5971,6480,1398,-9858,2249,-4502,-447,-3214,-4250,-10116,-7924,-2422,-95,7622,3424,7522,4741,2532,2055,-4794,-1051,4918,-2533,7597,8333,-2015,-604,4394,12832,3533,6233,8462,5419,-169,13676,4335,-983,10634,9949,-9391,-2703,9319,3209,-3159,220,8358,-6401,14739,-10984,-4386,-117,-6792,2334,-8615,3288,-6439,6305,-683,-683,2173,8081,1907,7971,-7125,3862,-1477,1309,2301,2705,8216,2357,-3314,4,-8880,-5098,685,-1820,-1580,3673,5609,14114,-8987,5763,-2116,-6376,-8668,-4515,10393,1621,7007,-8841,217,-1904,3542,8297,-1995,-4587,-3147,-2358,1998,1570,-3127,-4461,4450,-1591,-1616,7394,7682,7519,6050,5916,9885,5384,3933,2090,9113,3306,11272,11475,12195,12872,8898,15643,4262,8030,10971,3199,-8242,1279,-8185,8886,3471,-2841,-16827,-4055,3503,-2968,4303,-4888,1724,-10778,-9749,9459,349,-3885,-1950,-7573,-868,4884,5800,-1560,-11635,-6019,696,951,3971,7804,-10459,-9008,-7163,-2704,-13250,964,11385,2734,295,7066,-755,1025,-6766,-1624,-677,-416,4632,-2302,4727,-3051,4654,-2876,8601,-2283,-2504,2327,8004,3374,4721,4000,5858,580,1905,2654,-6143,1872,8343,6784,5725,-1438,11661,-884,3083,3595,8527,3807,4997,6072,-3845,-5174,-4953,-1229,-3827,421,5249,-3197,2320,-4237,4166,-2852,-373,676,4312,1656,4573,893,2409,-1616,-5178,-4671,308,-2851,4132,5569,-10294,-8776,-4890,-3589,5575,-20068,-4185,-6869,-4480,9803,2736,4423,5726,-457,6582,13073,574,2067,-2404,2069,8117,-9145,-3041,-6318,239,138,-1764,3770,-3455,5716,-12478,7631,-198,7636,-2393,-1953,-12988,-4616,-5292,-6589,-5648,-8207,-2380,-9556,-3317,-4254,5858,-3444,-952,3333,-8299,-13212,-4466,156,-8467,-8981,-16159,-9354,2713,1922,-4226,363,-5776,-4565,944,-3854,7675,11995,10914,5591,-2352,-4907,-1897,-2936,8457,9723,569,2253,744,6696,7116,-2988,13425,-11757,-5933,-11236,419,-4415,-511,361,-7313,14739,-630,916,-2242,-11805,2285,3508,4271,-7493,-2982,-5970,-1616,1970,-721,-5631,3824,4493,1945,3314,1283,5421,11403,3055,1592,-10332,-2758,9598,-5833,-2313,-10909,-11891,739,-167,-4834,-6849,-2802,-5936,-1774,-7017,-10442,-20015,-9289,2341,-8235,-12759,-1578,-4911,-9607,-4217,-4815,-6245,-4754,-3624,-518,687,-12636,2624,678,-7782,3612,-4364,-3359,-9980,-10491,-5366,9478,4147,-5454,-9139,9176,-812,-6555,-4961,-3187,-6353,1320,4320,1217,-15750,58,6323,-5596,-6931,14506,11134,-2920,12446,-4588,-213,-10402,-623,-10311,-13371,3047,253,154,-4553,5682,-6201,175,314,-1009,-9750,5254,-202,2362,2424,1050,6168,-11,8810,-4485,1482,9784,4059,-1447,1026,2321,-5514,5578,2253,7571,-1702,13407,-1345,-4942,8289,-1980,6311,3889,4803,-256,7276,9660,-2339,5980,6808,-3476,5506,4692,7583,-2377,2597,525,4815,-3256,4176,-4163,-1557,5002,-4357,3539,-463,-2537,839,10216,-5833,5695,-251,5644,1933,-197,5197,-14680,6955,-2416,-1019,89,3449,-10757,4088,2314,7890,-2952,-1693,12585,-52,-1570,5371,-4515,12366,11463,1174,-1635,4498,7568,4497,-6488,375,-231,7320,4992,4242,-5992,2553,13564,188,-4894,-8547,15977,-11336,2815,-1550,4665,-987,7224,2306,-7682,-5794,-12085,-1659,6851,860,-14034,-4773,-9932,-15948,2677,1468,1648,-10387,-2455,3133,-6633,686,-1698,-2911,10320,-2923,2540,-7904,4169,9274,-7583,1595,8960,-661,5756,2464,-2647,-6438,5281,8072,3872,-4775,279,-10299,2139,4907,-9240,7072,-425,12543,-4677,-251,7109,1455,-2582,-1892,-8275,-663,7216,8382,-4056,5649,2926,-429,-7106,-9572,-12257,8696,-1141,175,-45,7796,-5849,13306,-6170,8454,5182,10108,-6748,2496,-22774,-12565,9764,15780,-10962,-4465,1593,1235,-10193,8993,-5222,-8572,4748,-6364,-3825,7037,564,4157,-7008,1074,-8392,-8625,-9494,-9300,-7199,2396,1866,2777,1570,-5844,-5538,4754,-5153,6368,6376,-7242,6158,6471,9369,618,4521,517,8281,8354,-4446,-1881,1541,1318,10266,7999,7564,93,5770,-10413,3162,-3731,776,-8443,3774,10020,4309,9409,-10363,377,-2607,-7243,-3727,3486,-4698,-2477,6812,-4397,-2860,-9723,-367,-11008,1070,-3843,4200,2985,11225,3484,-3029,2957,-8801,-3837,1089,3683,-1173,1285,-5584,2292,1336,-1326,-2969,2290,2101,-4301,10258,-398,7454,-5872,-301,9793,3590,-4390,7239,-8458,1199,3352,7731,-4704,-1883,2524,8656,-3848,1528,-1083,-2458,5637,8738,-1931,10883,3208,4585,-1286,11852,8801,4202,-7744,3557,-1265,-2704,-6255,7335,3598,-4875,-2179,-5027,-2584,-1210,4705,2606,-949,-678,-1743,3466,-5638,-10485,6143,10009,-1201,-3056,-10396,3406,2895,7352,-12103,-10029,-4382,914,-3100,9388,1895,-8995,-8848,-590,-123,8111,-5590,4891,-846,5400,1815,-8860,70,-3148,-3166,-6379,-2152,5259,-8015,5465,-3572,5607,-9855,4090,2916,-4921,-12315,-899,-11211,-7797,-13525,-9229,-3178,1744,-12190,4181,5302,-3052,-2672,-5802,384,8499,-3968,-150,-9545,8103,-3984,-10118,-1985,1467,-7864,-5681,2824,1066,511,2147,3660,5932,-4405,8803,163,-4683,5698,-4256,-8607,-5025,947,-6662,1200,-14106,-24,-6859,-7870,10465,6347,4325,-6592,-7876,10007,1421,10415,4941,-217,18786,4044,-518,-8120,9049,8652,-3061,7757,6030,6003,8151,-4970,1120,2731,-14477,-4652,-9779,4862,10463,10846,6643,8522,-16833,-1549,-3921,-10909,-2873,-6473,9490,-1936,10858,6422,-3597,1938,-4199,10308,3077,-5723,640,239,1013,7239,6784,-5151,391,7806,-7308,4751,4377,2910,3399,6120,-3595,-1393,11996,5544,2436,8478,-499,11008,1970,1977,5828,7236,5008,-1439,8066,7059,10813,-10510,-11020,-1191,-1286,201,-460,-456,8064,2745,5831,1683,-3052,10527,3112,-9155,3731,-2374,851,-6399,4472,3426,704,3086,6639,687,9072,8022,-1308,6500,5808,-1157,-2485,-7405,2368,7262,-2747,7617,2502,6531,824,3549,2407,-1073,-636,7970,1605,-4226,-231,4950,-632,-982,8826,6528,13172,10549,10573,3004,1840,-2091,4480,-5267,5735,-1087,3454,-2483,10600,-1738,-403,8491,11813,12507,3211,10197,12759,-386,1830,12122,9651,12009,-2737,-458,842,-3205,-1474,-3901,-2117,9468,10833,7538,-3880,-17174,1654,2184,199,8990,-1456,11407,1630,-9543,-6017,-6216,8245,8715,4408,-2648,5132,-5008,1279,-2009,2976,-6868,-4769,7641,-4316,6851,-2724,6493,5452,5988,-2158,6552,4638,-2649,538,-3532,-3554,5057,7456,14003,915,6927,-4320,4656,4940,-719,-4045,2757,341,3096,-905,-5252,1691,-802,3934,2158,4132,942,7590,-10677,-4088,2692,689,-3317,-4200,3216,-826,-3046,-1214,-9879,-8831,-6362,2408,-9485,-1961,-4677,11009,6857,4220,-1177,9745,2655,4743,9339,7562,7886,-9472,-5140,-4612,4222,7894,295,-10973,1824,9991,9994,-1402,5898,1487,1729,4946,-5760,-838,15816,11092,-11567,-8462,8684,846,6843,16229,-103,9786,2992,1464,3371,-13175,-9310,1500,-14541,-12136,289,2869,12152,-11264,4528,2500,4199,-4097,-6786,-3841,-6895,-233,-3032,5535,3696,-3781,2321,-6615,2254,5687,7415,8911,11272,-1641,7101,-5974,6947,-5016,8593,-5132,-5193,2629,-1477,949,-4359,3760,-7124,-7112,-6067,6573,1560,-6291,3539,4476,-3749,-2998,-4295,-2118,-7071,-4961,6342,-1214,7765,12536,-6896,2803,4483,-29,-3691,-13813,2768,905,-3094,-7612,-7038,5929,-1584,8592,-2985,3325,2226,2027,802,5263,-789,3591,926,4781,-3117,14413,3451,3048,-8232,4839,-2870,-7632,748,9833,1343,-4448,-4237,4219,-10186,-2524,5064,9437,-5324,-2474,-2882,14261,2328,-466,10434,-4412,-107,10834,4189,1980,9038,12499,13423,3372,10810,12005,6188,7364,2951,235,-2188,-5979,487,-1292,-6990,2488,-1885,1045,-4364,4017,-3732,-76,-4913,-4710,-3871,6233,2880,-4579,8972,1691,3840,8733,-3519,15190,-826,-6350,-5757,-2405,-6278,866,1931,-9258,2608,2933,-10603,2199,-1784,11120,-2239,4666,3790,2912,171,10658,837,2107,52,523,-7065,-6560,4402,6790,-3017,5119,-2158,363,-1493,-1585,-4145,-2664,1949,-11747,7206,6554,-9948,9052,-3050,8611,-6808,5391,775,8839,3355,12983,-1617,8531,-6417,-1223,10929,739,8894,3209,8107,7696,-3950,4877,6416,3689,-432,-5688,-3741,2764,5011,9403,513,11095,2774,357,7710,8672,-5100,14,7114,-4526,5505,8163,-3045,7266,5406,-884,-4701,1541,-9471,-401,-2814,-11595,-4044,2749,-44,-6740,5304,-2675,-5406,-4755,-4098,-5018,10000,2667,-11799,4213,2062,6606,-5526,6822,-3676,-4029,6055,827,-2258,-3770,-1128,4914,7821,-8918,-1749,-8062,-12503,1113,-4309,330,-10329,259,-6219,-6929,7135,-4983,-1883,-1975,9839,7695,-6415,3553,-763,-7404,-9016,-15907,-3199,-6464,-2232,4526,-798,-8313,3124,-11346,3055,2087,-3707,4515,-1699,-4673,-11348,-8485,-7122,-11325,-7274,-8497,-9622,-5781,-2907,-5088,-4242,768,-1963,8550,-2703,6946,8346,-7869,-1556,-9916,1250,-11123,-474,1525,3297,8496,6331,10045,845,-818,4583,-2445,-2650,-12607,119,-3415,-5150,7261,-3763,5749,3886,-2875,-3565,5752,-5503,9476,8420,7889,-2181,1937,10222,583,-5021,-5281,-22271,-6685,14102,-1766,-2503,1161,-5535,44,3214,114,747,-924,-3282,1573,1242,-3575,-2820,63,2601,5295,2081,8106,10176,5437,14987,2764,8548,3415,5269,633,-1881,452,-4136,-893,7928,-68,11844,9258,-2288,3612,11596,7162,1830,10783,3798,-699,3041,7882,5931,12679,16575,4605,14383,-6777,1522,1325,702,-18122,-751,-6841,-1457,-4876,6812,-6430,-3205,-2930,-15506,-1716,-1866,3399,-1654,86,-4070,1867,3897,-7187,3560,-1480,-905,6475,6405,-3760,12927,426,8619,925,-996,-4243,-6148,4291,-787,-6747,7751,-1931,5383,-6445,-1183,-3228,6825,743,1138,14869,11438,1776,1386,-2827,8807,629,5662,-4642,9074,6393,-3048,4996,5627,3995,-5239,2993,-3971,9452,4248,262,-3679,8212,1517,-8133,7833,4287,6880,5765,1557,6840,-2075,10599,9863,-3351,-6578,5085,6930,-3538,-3314,9861,1605,1688,2007,2732,-14780,-12055,-10103,2091,3155,-5650,-10050,-3719,10091,1166,12623,-4203,-374,4092,7432,5583,-4883,2205,-7956,-11980,-6940,10928,13630,1880,497,-6023,-2940,-1275,4882,10160,-12953,-5757,-5766,11311,8508,-11133,-1335,-3502,-9916,-8153,-8937,-4368,11343,-51,844,-4856,6217,-6967,-8721,-7388,-11682,-1913,-15437,-11461,-7663,7226,7006,2249,-4172,6541,6507,7673,-8741,-3713,-5627,-4999,-8046,1629,-1255,-10877,-821,2178,-3797,-5558,-2183,11712,9765,1749,3917,-858,-4024,-5622,9281,-8844,2951,-9948,16777,-10573,-12811,3241,-5655,-3842,-3992,1054,-1614,-1151,5259,374,-931,10886,5021,394,1809,9762,-2994,-10063,-8589,1938,6900,3071,8765,-1970,2338,-6706,4240,-1343,219,-13339,-512,-11620,15608,637,-5195,-3368,7357,14313,-11488,-14361,3023,12832,9595,-2187,4684,9502,6608,2995,5813,4727,1209,5906,3671,4959,-5004,2259,-893,-1686,1078,-7656,4337,-7824,-4109,2959,7220,-517,2867,1972,9772,-1416,7244,-5607,6411,-412,820,-6345,4776,-3132,-2208,1509,-7685,-1583,4299,5213,-5939,-2326,2172,1373,6775,-1224,-6662,1456,-882,1157,3457,-2268,-871,-7812,5966,1724,2186,-6969,-7265,-2492,-11956,710,813,3773,1456,-10317,6922,1882,-4296,6241,495,1692,-4585,-2058,-6496,650,6588,5888,8207,9951,393,2629,-4102,-613,-392,8222,2923,2648,-7606,-10876,-5040,7215,2945,11026,12462,12150,-4040,-4530,-2288,7935,5307,3676,2079,-1268,8270,3971,6433,-1082,-7052,-3005,-1508,3533,4136,2719,-2025,-8217,-6143,273,2363,-6501,-3012,-1022,-3619,-2641,-25,-9416,-10508,19315,-3777,-7538,-12098,-8134,-4516,-10127,-6354,4820,-6423,-856,3447,5845,-4253,10616,-1232,-15199,1846,-7392,6205,5461,-1606,607,-6900,12914,7001,-15983,2189,-1424,-6369,-1428,-848,-9715,1042,4329,4433,-12748,-9712,-10503,-5841,-10364,-3478,2525,139,5104,480,9876,4046,-13358,-9320,2287,1464,-1749,2936,1892,-2248,1337,-7354,-4581,-6818,-480,688,-2223,-8239,-11066,-7542,-7671,4922,-6431,1806,4582,-7699,-9401,-7365,8,-4939,-9367,-2198,-1898,4658,12261,2328,4927,13670,18431,16316,9292,12188,-2074,486,-10985,3436,-9537,10526,-4367,1888,10933,2897,3377,9129,-7283,6608,-3367,-13496,11826,7949,13238,-2562,3837,-6192,-2008,-12847,-6246,11760,-5826,-3344,-10203,5170,-8919,-5333,3884,-7233,-1973,-3865,-16194,-1339,-5682,-4689,-4241,3152,3732,-4537,-506,6350,-1820,1291,-5972,9681,2433,8227,-564,12035,6080,76,2069,15848,102,3473,11266,2326,-3671,9338,-2051,10833,326,3375,2396,2110,-2748,2853,11096,2746,6365,6450,-1089,-1817,-3260,9704,11524,12098,861,1626,-2483,2199,4908,540,98,-9673,5018,-4479,4362,-4107,13539,7249,132,43,-7079,-5426,-4231,-4677,1643,-5599,10516,1572,-11564,909,-317,2228,-13094,19,2566,10805,9836,201,4712,10380,-2390,-5335,1478,2359,-1063,-9340,-83,-3757,-3532,1710,534,481,-6655,-2454,-1742,-6021,3896,-4028,-8737,-4026,-2471,-3784,3798,-657,4515,121,549,-538,-1632,9451,-890,1488,-1110,-4685,5310,11214,3221,8710,7902,4977,12670,6873,4531,7355,1351,7794,1072,-1644,7977,880,3142,-2162,-553,-965,2102,13427,1864,14454,-716,-4205,-3112,12919,-2431,4501,-2121,17071,7470,4518,4803,-12450,-5177,-4797,-10041,-7585,-9832,6867,2367,-953,8904,5490,-13554,-4372,3806,7520,-8955,1606,-7419,4555,15373,6906,3433,-3196,3475,-12918,-3752,7795,-9149,362,-1867,8190,-3341,4292,-3597,8338,2267,-13810,2266,503,-6145,-3873,-9892,-15418,-9467,-11212,-3127,-8699,2317,5708,-3252,2543,1856,1780,-5084,-1864,-6499,-7914,-8649,-5410,-15100,-7579,-7828,-12813,2065,-11836,5035,730,2124,-1838,-4735,-7141,174,-7311,-10472,-5817,1009,-9920,-10025,-7456,-4392,4230,4216,-1985,3561,-8290,-14400,-6208,1648,4967,-473,-4501,-8417,-1730,-7653,11041,8204,5055,-1468,-344,-9734,-4103,-8525,-2221,8666,1958,4606,3015,-1924,-2403,-15347,-4868,2562,-3684,-4787,-6998,4360,5305,1183,2307,2384,-2473,-18708,-2963,2297,-9699,9004,-9163,-4697,6461,13592,608,2889,11097,5689,1175,-597,2840,9832,-2353,6047,-5378,-3476,10624,-7150,-863,-6384,-10568,-5998,8124,2106,1301,2485,7641,-5975,-144,-5153,-46,5403,6628,5261,-7525,6774,9616,-1663,-1480,-3666,-8180,-2864,-6054,4278,1642,-8486,1879,5593,1490,3110,3903,3703,-7247,6295,-2956,6199,-3400,7433,4777,8445,3166,-3381,7678,7332,-1600,-1341,4107,-8215,-5149,-2950,-8105,-9502,-22,-88,-10627,4488,-5574,5252,-6480,-2579,2812,7363,-698,11394,-5361,4223,11788,3117,2488,-4569,15735,2017,5090,13297,9381,2699,5857,-3502,3442,-5508,-1327,-368,10641,-8389,-4069,8710,2371,-3500,-1106,-433,10716,1223,8512,-5226,-317,756,8158,-1175,-3961,9722,7397,-6703,9166,8799,4678,-847,-8537,3150,-9240,-1716,-11284,-10699,10027,-13602,1541,5040,2697,6623,-7447,12955,2866,3530,9661,-4196,-10882,-3163,8086,-8846,-10995,-4073,-6736,-4699,-6345,4290,3470,-1365,4692,-584,537,3224,-3926,-2315,-2763,-514,-7171,8619,3531,2733,-8363,4231,-2151,-1378,-15712,-4045,5687,9063,10107,6252,-8414,-1071,8832,7152,3235,8486,1775,-5259,1605,1941,12765,6281,-2852,66,4544,-2587,-11991,-3838,2852,-1253,3198,-1954,-1995,8909,12360,13075,770,3169,3918,-5460,2296,-2728,-7069,2784,-4573,2892,6535,-663,3938,-9141,-1556,9130,5709,3050,-2146,13030,5265,-4618,12457,-3298,-9007,-5834,951,-10440,4846,-7479,119,5826,3808,-4050,-1051,-4064,2891,-5346,-4423,-2701,2706,8189,853,-1302,2396,4849,3073,-12916,4220,7496,-210,-5262,-688,-3962,9455,93,-8813,3913,-6848};
const static uint32_t LSTM_01_weights_output_gate_dims[4] = {1,1,48,88};
const static ConstTensor_t LSTM_01_weights_output_gate = {&LSTM_01_weights_output_gate_x[0],&LSTM_01_weights_output_gate_dims[0],0};

const static Weight_t LSTM_01_biases_output_gate_x[48] = {3763,1110,10585,2810,16652,-505,16527,3351,6373,15152,-3299,3477,-18009,-17794,9153,-14230,-10851,-4288,-8069,6741,16970,6616,-10064,-2251,7754,-26781,8726,-12089,-7232,-1580,-2276,6185,48,-209,-11840,6281,-8345,-9006,-4884,-8191,-7515,-4829,9437,6909,-8262,-13174,3,-7879};
const static uint32_t LSTM_01_biases_output_gate_dims[4] = {1,1,1,48};
const static ConstTensor_t LSTM_01_biases_output_gate = {&LSTM_01_biases_output_gate_x[0],&LSTM_01_biases_output_gate_dims[0],1};

const static LstmLayer_t lstm_01 = {&LSTM_01_weights_input_gate,&LSTM_01_biases_input_gate,&LSTM_01_weights_cell,&LSTM_01_biases_cell,&LSTM_01_weights_forget_gate,&LSTM_01_biases_forget_gate,&LSTM_01_weights_output_gate,&LSTM_01_biases_output_gate,LSTM_01_output_dims,LSTM_01_input_dims,TOFIX(0.000000),tinytensor_tanh};


const static uint32_t LSTM_02_input_dims[4] = {1,1,1,48};
const static uint32_t LSTM_02_output_dims[4] = {1,1,1,48};
