#include "tinytensor_lstm_layer.h"
#include "tinytensor_conv_layer.h"
#include "tinytensor_fullyconnected_layer.h"
#include "tinytensor_math.h"
#include "tinytensor_net.h"
const static uint32_t LSTM_01_input_dims[4] = {1,1,1,40};
const static uint32_t LSTM_01_output_dims[4] = {1,1,1,48};
const static Weight_t LSTM_01_weights_input_gate_x[4224] = {86,-143,-65,-71,145,153,-32,-26,142,-13,70,-38,101,52,150,-55,-20,113,-90,142,0,-95,116,15,-51,12,-22,112,-80,26,182,171,111,127,164,-23,166,194,139,247,-29,6,-22,23,-49,2,-32,69,153,-33,-71,-54,-57,-26,-65,-5,-9,57,-93,-14,130,-155,-135,-34,54,65,-111,220,-67,158,-22,68,140,56,-11,-174,-202,-70,-8,-125,53,51,-137,-78,-261,-115,-19,57,11,58,45,3,4,51,115,95,20,21,26,-63,98,-3,75,-124,-87,26,-61,-144,85,63,40,-5,-106,-4,114,12,110,16,93,-86,60,-63,-48,41,-43,14,-27,2,64,-55,-119,-77,40,85,115,-159,50,-76,108,-54,-10,-77,-67,0,-84,92,36,-173,-88,47,140,-22,8,18,-77,86,-62,85,-31,39,10,-2,81,-41,136,-200,131,112,51,-43,1,-28,141,50,-73,-129,14,-72,-142,-6,12,62,-54,-23,32,-17,-16,83,24,23,33,-88,-57,142,-17,-78,72,112,15,59,9,118,106,91,-42,134,75,67,81,-151,-90,15,94,98,-119,-61,-78,-113,92,124,151,89,-50,128,98,154,7,-128,-163,78,-20,-41,104,-140,99,-90,76,89,123,114,-12,-20,-69,-47,18,47,-42,-70,-8,-37,-74,-56,120,53,15,-22,184,101,41,13,-45,-50,-24,113,-34,-162,-24,35,192,197,211,-42,67,113,41,-32,-99,113,124,101,96,63,-125,92,-69,160,-77,114,128,97,-40,-13,92,36,131,133,86,156,70,-88,-18,55,136,82,-12,130,-97,-115,-84,60,-37,12,99,31,-58,85,81,11,-69,-38,267,29,-29,-33,71,-47,30,126,-99,105,90,-41,-74,63,-40,-85,13,-108,19,-189,-133,98,9,93,50,-42,18,-72,18,-8,-179,58,28,-178,-135,-188,28,-143,-185,-233,-94,-166,-62,-222,8,-33,56,108,-73,-42,74,-139,-49,-92,18,-144,-257,-47,-78,127,68,-36,-78,-3,39,68,-16,-100,-82,-91,-134,-131,-116,10,86,-7,20,-8,-32,-106,-82,-30,148,-47,96,-80,151,-10,7,86,-85,-63,-79,-77,-74,-181,118,85,11,-125,49,-33,-157,37,-44,35,17,161,-93,-124,35,-143,-51,-28,117,42,-37,-50,-57,-7,14,13,-65,-70,-15,-31,-134,31,67,40,-15,-127,36,-92,-22,46,-100,-76,-194,-14,-59,-156,-34,-168,-131,-21,-44,94,-42,-100,-53,-99,58,74,-113,-55,-59,111,-129,-94,10,83,-49,40,272,-11,-142,-78,97,-77,-10,32,-94,73,-28,-57,89,34,143,15,239,-53,-39,115,0,-219,161,-8,-8,-79,-48,178,-130,-129,15,-57,-111,60,211,10,61,-79,12,-22,121,-106,15,-69,-52,-93,118,-23,-229,66,30,242,199,-115,-184,75,5,23,-72,-116,-35,47,106,29,96,-102,-29,58,97,17,15,59,-103,-103,-83,-119,-115,79,22,-148,-40,-88,-74,112,27,140,438,74,85,-62,7,-193,-8,145,118,174,-159,97,-6,192,-103,-73,-93,-6,-220,-117,2,179,-9,-34,-129,-124,-59,-90,33,-315,-67,-46,-5,166,101,74,185,88,149,-109,115,76,92,-12,-75,91,187,142,20,47,-28,-223,-66,-19,-214,-79,-90,-11,-104,-158,-215,-155,-126,-113,-102,-143,-112,-128,-18,-98,-9,-61,-22,-205,-27,-41,-4,-63,-95,58,37,-59,107,-33,-162,-122,-203,216,111,234,-65,39,-17,250,-84,3,28,-32,231,-86,-100,-100,-92,-53,173,223,98,-29,-47,-26,-115,82,130,115,96,149,-166,-194,146,-44,69,57,-7,-15,6,-216,247,3,-40,-5,281,7,-173,-2,74,-169,-93,-143,-65,69,-102,-143,-104,-33,47,-97,-82,11,-2,-25,-77,-45,29,-91,-225,-103,-35,15,-6,-58,-24,-90,-93,13,-56,-145,52,-115,-56,59,-25,-24,-112,-22,153,-34,-10,20,32,-45,-150,105,28,41,166,-34,-2,-116,198,109,-59,52,128,-126,96,-115,-124,-74,162,20,11,85,149,-71,-209,-151,105,77,-133,-78,11,105,185,86,83,32,33,-4,43,-119,76,166,-114,-5,-47,80,-139,19,-140,-26,-2,-43,42,-85,-132,53,27,130,-132,-65,-81,100,-74,22,-53,-26,-14,98,23,58,-26,88,-101,30,51,-71,-77,-20,-86,87,-67,-58,-133,-163,49,202,-166,191,-188,-67,-88,-13,11,-156,4,30,135,-190,-45,136,17,62,172,96,26,-11,-18,-18,-77,22,-174,-152,-121,-25,33,-8,104,-80,-153,163,92,-20,16,66,12,80,-37,-38,114,-39,-50,-9,-25,-29,-78,50,-45,-73,109,93,52,122,-75,9,-141,-102,-135,105,6,-1,61,39,-107,54,-80,8,-57,35,-134,46,-56,-115,-30,58,-75,65,-1,-28,87,-26,-8,1,-104,104,-3,68,-338,162,-88,-44,27,21,80,158,-42,173,143,-53,2,167,-210,-17,-17,40,-184,-150,48,97,-8,-26,-8,-36,-11,-85,-127,16,25,-44,58,-1,84,-67,233,-135,-6,-151,102,21,-93,28,-89,89,-164,68,141,-88,66,-94,149,-143,109,-44,-9,-8,-106,44,95,108,-22,-84,123,-83,17,34,71,58,125,-72,87,67,-61,53,-3,9,-129,-160,-102,44,-33,-22,51,-108,118,196,-113,-67,-73,139,-64,132,-8,-84,-63,-35,-20,87,15,-194,-40,21,226,-116,22,-55,64,28,-15,236,-37,-56,137,-225,-88,29,-137,193,-9,-4,81,-133,-63,90,-35,-121,130,-122,77,-76,-90,67,-113,22,-154,23,-31,-151,42,-69,-100,-111,-57,-62,108,-89,-133,-3,81,-87,-138,-44,44,-129,-61,117,109,26,-42,77,87,105,-97,-80,137,43,35,-69,-69,-40,-38,-125,-43,150,126,99,-8,-83,39,100,-92,88,-9,-17,-86,-35,-64,76,47,-176,117,114,63,21,17,-51,-34,40,75,22,69,-161,56,21,-49,36,41,-40,70,-16,60,-90,-10,23,64,26,111,44,-23,63,107,143,100,45,1,123,48,151,4,117,-23,116,110,-62,106,12,18,68,-40,98,57,44,116,21,-37,121,142,59,-13,46,33,-77,8,2,29,-41,137,-138,-67,113,-46,-53,-144,-82,74,78,164,-104,-18,107,-159,51,-143,29,6,72,-35,84,-85,84,84,75,240,60,-40,56,-57,-65,93,-102,-83,-30,38,-17,35,67,-19,-43,67,-1,-54,-48,100,91,-111,-6,-77,10,35,-69,93,-131,64,-5,-57,56,141,15,157,4,70,-83,-35,-124,11,-98,97,29,76,21,77,2,140,-80,-48,133,134,-24,10,95,-52,62,43,159,224,20,-4,61,-1,62,-18,101,-54,-157,24,-46,-18,29,-48,130,72,34,-107,-113,100,-27,12,-135,280,52,6,-45,-51,-120,-61,5,35,35,-49,43,-27,-162,-54,47,-138,125,-103,-31,38,-32,33,-43,-107,93,-39,-161,-34,42,69,-30,92,56,-17,85,-22,-50,17,-62,145,-82,-31,-122,97,79,-88,-42,-105,96,-42,86,-11,21,118,105,-57,86,44,71,-102,-1,67,-80,-16,-65,27,-157,134,21,34,71,44,84,136,-35,60,-47,-8,-261,-110,123,-134,112,53,269,-123,-11,117,-72,-185,-44,6,-90,30,-64,-130,-33,-104,36,-58,43,-112,31,-98,-26,-40,43,-36,235,-89,-37,-54,-13,-79,-79,32,54,-19,169,134,142,126,-48,-71,34,16,119,71,64,-48,54,6,112,-28,31,119,163,154,129,-21,15,149,-39,48,67,102,0,86,7,93,-80,89,-58,99,-18,145,34,10,100,28,-62,137,45,118,23,89,-52,-177,-13,-204,-112,-35,-47,-14,65,-91,75,199,33,118,66,-130,-36,60,121,-27,-127,47,90,4,14,-23,73,-97,116,-50,-31,20,-118,57,144,-59,41,78,81,-20,74,35,83,-91,-61,110,154,-19,143,30,166,-24,-103,-2,-84,-29,75,17,20,78,-102,33,-51,5,94,-80,-69,-31,-53,-40,-37,116,-105,111,140,34,-2,-14,-163,-51,117,-3,48,-49,-155,16,-71,-81,-105,-44,-11,-165,-206,-176,6,-3,55,-202,-103,39,16,-202,2,145,47,-12,-107,-115,-21,131,-18,129,21,-111,30,160,8,-118,-79,-34,-47,-49,14,33,118,-69,21,-101,-17,7,-101,-96,-9,8,181,-64,-5,214,-44,194,-11,57,-93,38,70,-79,35,188,-46,-51,-64,-45,116,136,204,187,-26,68,162,112,252,-137,68,-58,-117,-42,-8,-155,99,39,-96,-46,39,1,87,-59,-6,-3,30,32,-77,144,173,-150,-156,3,5,140,-76,-35,-11,73,-15,100,-15,168,-197,-41,-27,45,-52,-18,-5,-117,-16,30,-132,47,127,104,140,-42,92,-32,-17,61,49,-105,-107,-1,-161,73,18,27,-162,-5,35,2,-177,-4,105,-121,-79,63,65,23,125,-77,49,7,41,-21,-184,-103,-62,42,-165,-124,-143,39,-28,32,-86,-75,65,40,-134,-112,140,-83,-18,118,-81,-125,64,-54,-152,-167,-222,-18,-102,104,-29,12,-108,-40,135,21,-132,72,193,-68,174,30,-115,260,27,146,23,-113,-108,-3,42,32,134,-149,223,52,-48,13,-44,113,-7,151,-13,12,89,-68,154,48,81,-55,118,-93,-62,75,-30,57,158,124,-1,177,5,106,22,30,-60,-36,164,112,177,2,100,76,-44,177,22,-13,75,-82,-31,-31,-94,-141,21,-59,195,127,-127,-92,-48,-138,22,8,5,101,28,-177,56,33,-20,-10,-53,-89,-29,-63,135,-38,29,-68,-23,-54,-261,-95,31,-53,-47,-101,-35,-179,-36,128,-107,175,-14,8,68,-35,116,90,145,57,-69,172,60,120,-29,-94,-95,-121,122,131,-78,49,-9,65,33,79,-6,152,165,37,-66,143,-8,99,92,116,-82,-116,18,44,-135,58,26,291,-23,98,143,-4,-13,33,61,-76,-54,76,-51,-35,-86,-96,146,-62,69,-106,-100,-100,-14,-92,-16,75,5,20,-68,21,29,-91,190,-39,84,-48,38,217,-19,-282,32,5,-107,144,-43,-20,57,-9,180,84,151,33,35,-106,-35,-101,-64,-53,129,-2,72,-69,-29,-28,93,102,120,-86,-53,-44,107,-94,-9,-105,151,29,-62,21,10,77,145,-16,-29,35,-106,114,72,-113,64,-39,-43,21,-74,47,28,97,185,83,135,-27,-52,72,-31,-147,99,0,207,-35,13,-168,-29,-87,-75,49,30,18,80,-8,-195,-67,43,42,-46,108,36,31,-19,-48,33,77,236,38,-12,49,-13,12,-43,105,75,16,-32,137,-19,-35,48,-77,73,111,-100,49,93,78,6,31,118,-66,28,9,-74,134,-65,-54,-19,-14,10,47,-64,77,10,68,-122,-41,-72,-41,-92,67,120,-16,58,-43,-86,-106,-48,-166,-71,112,24,11,41,-177,53,-59,-112,-116,76,-16,-95,23,-59,-27,-65,-126,17,6,9,155,-48,28,141,-174,0,-81,77,20,120,-61,-4,102,95,-78,56,4,-36,7,-58,115,123,-105,144,110,-79,90,66,149,-46,44,180,31,-176,37,141,-115,-28,16,-91,159,-81,129,63,-67,1,57,112,112,63,-37,-20,-27,-87,-85,39,161,48,48,-65,-106,72,-32,-108,-44,190,55,-19,127,-10,-53,68,65,167,-148,-234,67,-2,135,-84,-29,-21,11,106,4,34,-34,46,-155,38,-81,-9,102,204,11,-100,131,59,-1,-159,73,-202,248,-82,-64,-5,-41,-34,-43,83,-104,65,95,163,85,-5,173,143,2,-96,-70,33,69,75,131,122,91,155,78,-14,157,-42,9,134,130,-93,60,-87,71,-57,37,-11,-83,-116,101,-15,-80,14,-23,4,-50,-18,-124,-20,-9,30,-75,15,61,-246,147,161,93,163,-41,135,-43,-53,170,-99,29,34,58,-30,-43,30,68,53,40,-23,-58,-16,41,-7,39,50,-129,-74,-76,31,62,-6,59,-71,-62,-38,38,42,110,-12,129,-97,-89,23,-21,-75,-150,-14,-145,36,-45,-8,20,73,81,-7,-148,82,72,-129,-64,-40,-104,-112,-13,21,-180,-148,-26,118,117,-80,6,127,-66,33,-74,45,-133,51,-187,-28,32,20,96,75,-55,-74,-64,-61,135,96,-81,0,-75,9,-36,89,47,-99,28,-2,35,-88,11,36,-114,10,-127,31,-110,10,-101,160,93,116,76,-2,-178,-119,-126,-25,50,-35,-110,77,12,-69,114,69,-20,-64,140,-80,-58,-100,68,32,-46,-100,-86,-100,-34,2,-55,-17,-49,68,129,-70,-106,-140,-34,-5,-110,-235,1,1,-95,-224,-96,-121,-115,-277,372,59,229,-106,-41,-19,-14,0,47,-16,192,-34,56,129,254,47,193,-86,17,12,-16,-3,131,82,-39,-185,70,107,64,-47,-226,-40,57,-42,75,116,127,-94,58,3,-187,-153,198,-95,145,46,-87,175,-47,49,9,148,120,56,-42,61,-14,-69,109,116,141,47,-72,-16,-172,-91,-83,-53,-146,16,33,38,-165,-149,-66,-41,29,-172,-127,-161,-130,29,-101,-152,-11,-106,-10,32,94,91,286,1,20,-126,159,66,35,-40,36,-96,50,-46,-118,30,141,-134,153,-20,-112,-173,84,-54,66,-142,110,15,10,-92,-229,-144,-48,-24,-117,57,52,-113,-13,1,104,-16,-86,166,-96,142,-118,96,74,9,96,-25,-12,30,-43,-141,-45,-95,55,34,-86,85,66,57,-102,-109,-143,77,106,-106,-91,99,-21,-107,29,65,148,99,-93,89,178,45,74,111,-72,-27,40,-32,-166,176,-117,-94,155,-38,-165,-36,87,45,29,15,0,93,155,-44,130,132,-81,234,99,-90,127,-162,-14,12,65,-29,-195,114,-53,46,73,-49,-16,-30,163,-16,-11,133,37,-16,-43,-82,139,99,102,50,-28,84,1,151,183,79,-181,122,7,-3,59,-122,-32,43,-71,-1,-83,-178,-115,27,16,-160,-152,-38,-115,-4,64,-99,-185,-166,-55,-189,-106,118,67,-3,-52,-160,-45,10,-48,-172,-175,-63,47,8,-104,-23,-66,76,-160,115,-124,71,93,-81,76,86,214,-20,72,197,-31,190,139,-16,6,122,-30,28,182,-41,211,12,70,-12,68,30,96,-60,-59,-156,-40,-57,42,68,-105,-72,-237,-167,-60,-187,-64,-187,146,-51,-45,-177,46,28,-191,-96,-78,-39,-119,-118,-111,7,137,21,86,54,-124,-29,119,-60,77,-95,45,-25,-33,-171,28,33,10,-35,49,-107,231,34,64,-54,60,-62,117,-4,-9,-4,-165,-141,-10,23,72,-63,38,-37,-46,-1,24,-311,-145,6,-140,214,-91,-14,58,38,-314,-1,105,-38,-142,42,-153,38,167,118,27,59,-28,78,73,-61,-77,-18,14,-32,-115,-92,-86,-142,-40,12,21,-74,151,-31,76,-74,-53,79,-49,-48,67,-79,70,-98,-138,79,88,12,-105,-32,-6,50,-169,74,23,-40,-126,-100,-1,77,27,100,-66,-32,128,-50,34,-115,79,12,-149,0,53,114,124,117,66,-160,140,-122,77,-86,4,-139,-24,1,131,97,-108,70,-94,53,-152,-12,-47,-110,13,69,13,-94,-66,76,-27,36,-58,-279,13,-85,146,2,-43,-6,-32,102,61,87,-20,147,-74,44,0,-95,-33,-14,-2,80,75,-103,91,14,-53,40,-11,102,-67,-62,96,2,-73,-26,88,54,77,-74,6,87,65,32,103,-118,3,-68,77,-12,22,45,11,100,93,-57,-140,-21,-4,70,121,-41,21,130,29,10,-1,-102,-14,1,145,-40,111,81,90,-30,-36,-52,-124,-138,-228,-62,-43,-162,29,73,-117,-123,107,-14,64,46,247,58,111,49,114,184,120,20,0,-40,25,-47,-37,-10,155,122,172,151,15,-66,54,-32,78,-16,25,-51,138,-27,15,147,67,147,132,-21,83,70,115,-80,34,165,152,64,204,13,-44,-78,-25,-79,88,7,-79,-102,80,-100,-102,-16,-8,160,-22,63,-91,44,7,44,-24,-36,-83,295,-75,151,-39,-202,-70,97,-134,-54,-145,-45,94,-51,1,-135,-31,-104,-66,-16,-14,5,-2,162,-77,116,119,29,30,16,124,-26,71,5,-15,42,-107,96,-108,-118,92,31,80,80,-16,25,43,-135,-43,-103,103,-104,12,-135,-45,53,-167,30,21,-188,-208,-224,-129,-48,121,-116,93,-48,62,5,163,94,-89,145,90,7,27,-30,94,200,-93,-47,-14,-90,17,-116,-71,-200,-81,24,-7,-144,-25,-22,115,50,-92,-18,-85,-139,21,-44,40,-3,2,-106,27,27,-85,61,-59,44,36,110,87,-98,138,-75,-36,123,-32,102,36,-10,-2,-35,133,154,-77,-18,-67,-46,63,137,-22,126,126,154,56,191,76,-21,-73,133,37,199,155,226,83,41,34,248,-148,18,-272,131,26,-117,4,86,-109,80,-58,157,-50,57,69,-37,-133,59,14,-48,-33,156,75,-123,174,-52,-47,44,-17,-69,-36,103,85,-74,-56,-114,117,80,-92,20,-226,53,-16,184,-66,-195,-3,17,-107,-28,-34,107,103,-26,54,168,-69,-100,-44,123,-103,48,18,-13,146,62,-51,146,47,129,150,-61,80,152,72,91,-16,146,159,-102,-83,-74,4,-90,66,-99,114,-67,-39,38,137,-24,52,-128,-131,57,82,-204,175,-47,-64,32,-126,186,81,83,154,-106,-40,65,-2,108,16,-38,145,103,-106,74,-248,-104,51,-110,12,220,-28,147,280,-73,-139,-46,126,-102,0,-193,29,121,61,-53,-137,77,-51,53,-23,60,-76,-21,-134,50,-102,16,155,-10,-10,159,-39,-49,35,-56,143,-65,-53,149,172,63,94,-44,154,57,-43,94,-27,162,-59,152,140,-57,3,118,93,17,29,-105,-47,4,-100,8,-42,22,61,214,-15,59,-28,151,63,-14,51,71,47,62,22,94,-20,-36,85,87,-104,84,56,-20,16,-58,-241,-64,143,-95,132,62,94,-62,-166,175,50,41,125,-163,133,56,-150,37,89,34,-49,-139,-74,-189,-8,-134,-164,-4,-172,-145,4,-32,-29,-31,-51,-112,-21,-188,-208,-102,-112,-21,130,69,-177,-198,-118,53,-74,-138,-75,4,-42,29,206,-39,-32,31,-129,212,42,21,135,-50,-346,-4,-72,177,48,-154,82,117,114,-205,-30,-189,-35,19,88,34,96,-30,-121,110,24,-135,-48,-185,3,-91,27,186,-113,-21,-91,-71,45,159,-196,-39,-35,45,48,-18,54,34,-65,115,-44,23,-2,-79,-116,-52,-16,3,-131,38,-53,-126,56,-51,-34,40,-36,100,-73,85,64,-33,67,30,-154,-140,-5,-136,-106,-30,-199,-176,272,74,100,-137,88,36,72,-72,7,-129,-95,-33,-36,97,-4,-17,51,47,210,164,-52,-96,103,22,-201,212,213,-43,-129,54,-90,-142,-6,131,-191,-14,57,-18,123,-26,-63,94,199,-213,10,-95,-180,46,36,75,-65,10,-220,-196,0,-23,-9,43,76,-32,-3,-136,-37,-63,-138,-110,-159,96,-64,17,49,5,-41,-74,-121,-78,-43,133,22,-153,4,16,-192,5,40,-45,-70,-88,-251,217,13,-49,64,-2,141,-26,91,143,144,98,-71,-46,-89,-211,28,28,134,-2,-72,-36,-23,-8,-96,54,61,-108,89,124,203,-11,63,-74,69,-41,-89,6,-104,220,84,-42,-190,-45,-316,2,-75,22,-8,140,80,211,95,-59,28,-47,59,136,70,-16,6,104,-79,-33,-19,70,57,192,57,-72,164,-118,7,-112,161,-44,22,98,88,46,-16,66,27,-28,-1,65,-28,114,33,-129,62,38,9,-12,62,126,86,77,-28,71,-62,-36,-4,-152,-13,-55,-26,-19,95,-203,18,-164,113,18,-25,54,81,87,15,-104,-184,78,175,6,-95,0,192,-55,54,-66,11,20,-22,101,-50,60,-66,83,149,63,-72,-34,101,95,14,-76,-43,-4,-42,-76,33,-57,58,-77,75,-97,-25,-84,-46,-30,-40,-104,-147,35,-174,-97,-86,-122,9,-34,60,65,252,44,-7,93,-120,-18,146,176,-66,-71,-24,103,245,-40,66,63,74,-38,-62,-176,-89,-11,31,-15,324,-7,-62,-135,-12,73,14,-42,50,-243,-104,44,135,15,102,-94,-398,68,-29,1,147,-19,-50,-135,57,-25,56,-121,-82,-4,108,-64,-77,-39,-16,63,26,-26,91,-48,10,20,-51,47,-55,19,-137,89,95,-3,-8,6,55,76,9,-175,35,-92,-21,-97,-67,-171,-16,-21,-50,-47,-182,-104,-117,98,2,-186,130,-76,56,-26,-148,1,-75,-115,-101,-4,12,-138,-166,165,-112,-173,-83,9,24,6,-71,-67,-25,-54,118,-34,-131,-232,14,133,-6,120,-109,-63,-105,113,-81,2,-37,-65,-53,20,37,47,-12,-25,-144,88,154,81,-74,-98,2,-115,-41,40,32,-98,-11,-16,92,58,-142,-45,-130,-78,-98,57,-40,-36,-64,114,-150,7,69,43,-150,-71,92,91,118,-26,-9,-111,32,178,-134,-22,72,-84,62,-199,121,84,-126,222,-28,-112,-63,50,-55,-105,17,-218,74,-235,-1,128,10,-114,-6,-4,-160,-24,-278,-275,-30,23,68,62,1,48,139,-119,-148,-53,150,-93,65,-54,185,-61,-202,-204,-194,-75,-135,-28,-23,60,150,-135,-18,-48,-113,-50,-121,110,-117,-76,-83,106,98,101,15,-110,42,-198,-128,79,-41,-8,71,-15,-127,-34,-1,1,59,-162,-16,-149,35,9,-71,44,13,-35,-257,116,108,32,40,-154,168,-37,-22,181,-152,-175,106,58,10,-34,37,35,-186,48,-43,53,-181,-190,-157,73,-120,-14,23,152,-53,-55,-113,59,-29,-153,89,29,90,59,-208,113,23,-7,-42,-116,86,-48,-33,38,30,71,-31,112,130,113,-59,-130,-119,-29,123,-7,-102,-101,129,-2,50,-78,101,-83,-94,10,-114,34,-113,-45,-100,104,20,-46,86,-55,121,224,57,-126,103,-13,-44,99,58,132,-50,27,23,-116,-63,15,-18,35,-3,-121,39,60,79,52,149,24,-17,198,28,-160,-16,53,-77,129,26,-23,18,20,-2,79,-72,-147,-45,27,-171,-4,242,-312};
const static uint32_t LSTM_01_weights_input_gate_dims[4] = {1,1,48,88};
const static ConstTensor_t LSTM_01_weights_input_gate = {&LSTM_01_weights_input_gate_x[0],&LSTM_01_weights_input_gate_dims[0],0};

const static Weight_t LSTM_01_biases_input_gate_x[48] = {123,-30,-12,17,-209,-160,-98,-149,-103,79,-121,-48,-77,12,0,-92,48,-89,71,-59,100,24,3,54,15,-15,62,-166,-256,-108,-42,39,-70,5,7,-71,-63,-122,96,-278,-99,-100,25,-117,-101,-86,-131,-25};
const static uint32_t LSTM_01_biases_input_gate_dims[4] = {1,1,1,48};
const static ConstTensor_t LSTM_01_biases_input_gate = {&LSTM_01_biases_input_gate_x[0],&LSTM_01_biases_input_gate_dims[0],0};

const static Weight_t LSTM_01_weights_cell_x[4224] = {-18,-10,-15,67,113,191,133,66,-10,16,-15,74,-26,-29,119,21,-32,64,0,-69,0,-34,54,68,58,-18,72,-24,62,36,1,12,39,-118,-103,-94,-117,-92,-151,-310,-1,20,78,-6,-111,-6,23,14,106,29,-46,-66,65,131,-11,-51,57,-53,1,-46,-50,-58,-34,-131,-130,49,45,24,-64,107,18,-101,21,21,0,-36,29,5,130,-110,-68,-67,59,-1,1,0,119,49,-16,26,22,-45,-51,14,15,12,-13,-25,-84,-72,20,-98,-23,-62,-85,-79,18,78,95,61,65,-13,-8,-53,-95,-86,19,-43,-69,60,42,34,87,51,23,-42,48,148,-76,-40,-34,-87,-79,-49,120,13,-45,51,-11,14,27,-13,29,35,-4,-72,-85,-34,-37,-20,71,-2,-120,-7,48,67,-64,-42,59,-33,-32,-3,-46,38,-10,-51,18,36,55,-17,-83,-104,24,99,38,-44,34,112,70,6,1,-20,32,76,106,140,24,106,71,58,54,-17,32,20,54,-32,-35,60,-17,-1,28,20,61,13,-9,-12,-68,-93,-31,-67,-47,-7,60,15,-60,-21,-120,75,-13,-107,107,-34,35,44,56,-60,88,17,71,-55,-103,1,-20,-54,17,37,-104,47,-5,164,95,-44,100,-40,-9,-68,-28,-55,26,-38,11,43,60,43,-10,-49,-82,23,0,14,129,38,68,-50,-53,2,-40,-105,-113,-169,-127,-33,-38,-54,-45,88,24,88,-29,-9,48,-4,154,51,-39,-58,-32,-69,-122,-74,-4,21,-58,-27,-7,-24,-27,45,17,45,62,11,-23,76,-37,0,132,-184,-124,-25,9,23,36,-105,-32,-122,8,32,-27,86,-19,49,11,-29,-84,-58,-25,-85,0,90,-16,-6,18,-37,41,-69,40,-45,39,-50,114,-11,-118,-59,42,140,-41,-74,-121,-32,-40,-9,36,-74,-53,-26,50,-46,16,-33,-38,-63,42,-3,-72,-10,-64,-71,-31,-8,-44,-48,-52,-22,-67,-57,-85,-31,-63,-77,-78,-40,-42,-83,-87,-122,-31,-85,-73,-32,1,-18,70,-3,-28,8,56,-16,-86,-43,-23,9,97,17,-5,93,-33,79,-69,-9,-78,28,-140,10,29,34,-57,-16,-20,12,-29,-8,-17,-11,-75,79,-15,59,40,41,29,-74,10,17,-18,22,70,37,-99,-10,32,27,87,32,-4,-50,-28,-49,25,-55,-66,-11,35,83,-50,-32,18,0,69,0,93,25,-59,8,-8,41,-80,-27,-58,11,-27,-10,-52,-28,-24,-39,46,32,4,29,-61,69,-41,73,-15,-3,73,48,-50,84,-3,19,47,40,-16,-5,-52,-7,-21,98,22,-45,-45,0,-2,-70,-34,-33,-127,21,65,-24,99,41,118,4,-52,-39,-89,-31,-7,70,-35,-43,72,33,-93,12,10,-32,-64,-92,77,1,-36,-105,20,63,-19,-6,85,16,18,17,12,59,-69,-97,-40,12,13,-34,71,42,65,48,18,24,-50,53,-54,-51,77,-20,-13,-18,-19,-61,3,20,-47,60,54,-53,-1,-78,-77,-3,-28,-64,33,24,-50,10,-75,-38,-34,40,29,-105,-93,-27,-75,24,-80,-101,43,-1,-20,20,-57,-5,-61,60,45,-16,-18,71,9,24,-194,101,-124,-49,-61,0,-35,39,24,21,59,19,45,108,59,107,42,39,122,82,74,124,-34,57,68,-12,28,96,-6,57,30,-13,82,43,71,53,-25,36,-54,35,-41,1,-55,-69,-63,-78,129,76,58,-44,-35,16,46,14,0,41,74,-49,-27,-17,20,-24,86,-64,-25,-12,-36,13,-30,-24,75,-28,-22,31,-209,-117,-65,41,-134,-17,71,-33,198,-73,-33,-27,-21,-12,146,9,13,120,-4,52,80,65,147,44,92,77,47,-52,62,10,-14,13,86,-56,19,34,-42,1,96,15,28,52,-13,-29,-74,-3,67,-32,35,64,-14,-39,-9,49,63,-30,-13,-22,-12,-80,-16,26,29,-72,21,-25,153,-69,127,-60,-72,42,42,69,-128,-13,13,-26,45,20,-12,-10,28,-42,-39,-31,45,-32,-84,106,70,-70,4,63,-67,-95,39,68,118,-134,60,-46,57,-38,56,29,-68,-112,-166,-68,-69,-36,-80,-62,55,7,-94,-61,27,-63,14,-98,-52,-28,14,-12,-71,-11,82,3,-31,-21,41,-20,-14,-5,-35,1,-71,36,-10,-48,-45,32,45,80,95,94,-94,-61,-12,71,-86,-56,-53,-48,-72,-13,65,3,-5,-24,226,76,35,1,20,-17,109,-18,-45,-96,78,31,-43,77,65,-70,3,61,-43,-37,78,-42,-3,24,-95,-12,-32,-76,-13,34,32,41,71,68,-27,49,65,27,-73,6,11,-79,-45,-39,-31,-9,59,-47,-66,23,-4,-54,-105,-49,-31,-15,61,70,-16,43,59,-26,-4,33,17,56,-47,-44,-26,72,69,42,39,96,14,-83,-12,-9,56,-32,-93,16,-40,-89,-29,-20,-16,-74,-5,45,-34,-80,-29,34,-119,6,74,24,79,-44,-102,4,-34,63,72,61,-78,-13,-30,34,65,-15,-17,89,-1,-46,64,-10,49,-25,-10,-4,92,101,21,71,142,33,-58,-48,-122,-36,-20,7,4,-24,54,34,75,8,2,-3,-51,-61,-37,-73,32,-91,21,-20,-47,-39,-12,-99,26,36,57,48,35,48,9,55,-41,46,-59,22,-16,11,23,79,45,-4,-31,-59,-14,-43,-32,-74,59,101,-40,-39,-66,77,-69,42,108,-2,-41,8,42,71,189,-47,-29,4,8,-7,-51,54,18,11,118,-62,50,79,-13,-8,-2,5,-106,-62,56,79,48,48,54,-6,-58,51,85,11,69,31,53,-44,-58,13,-11,78,-29,-11,20,70,10,-26,-21,56,10,-38,-45,20,10,67,-16,10,86,-1,-13,-7,-149,84,66,22,-36,12,-37,-8,66,-72,-23,-15,39,66,-60,55,-2,17,103,-46,-4,-42,-78,19,-77,7,52,107,-145,4,-22,0,-66,-15,-74,-13,-55,70,33,-46,-26,-7,58,-106,15,-41,-100,129,-46,1,27,48,-43,-54,-110,22,-17,-117,-67,-10,-26,12,18,-22,-61,53,4,103,-13,43,-25,-102,-31,-64,-16,-37,37,17,-25,45,-37,-83,-30,-63,-4,-9,-78,-111,-28,-2,15,23,28,-53,-79,-9,-26,5,34,-20,-12,-56,-115,13,66,9,69,32,84,-46,12,-18,-57,83,30,97,-28,76,90,-2,64,-41,-21,-81,-77,-19,-28,-102,-70,59,-51,-50,13,33,-46,2,-3,-23,-133,39,46,121,12,102,53,-8,-58,-131,-15,37,82,-7,116,-22,13,-16,-120,-123,39,42,25,-53,74,74,-5,-58,-39,52,83,10,-85,-74,-172,-49,29,-151,41,-120,33,-33,9,-12,98,21,67,-100,-32,93,59,48,49,65,20,-10,-9,-67,2,4,-7,44,52,41,55,12,-10,-47,-15,-50,69,38,36,-37,-53,-136,-135,-35,-11,1,-70,7,1,-37,-19,2,-61,-88,25,10,-33,-7,46,54,41,62,-33,-100,49,-54,-7,19,52,-31,24,58,10,17,0,-25,-51,32,-44,-37,-10,-42,24,-55,0,28,-31,-66,27,25,35,37,-21,-4,-58,-13,64,-27,-87,-50,-132,-60,-25,-46,-31,71,-71,38,110,23,-15,24,-115,-140,31,106,122,-103,48,7,-25,-88,-84,21,-6,-59,4,-30,80,-8,21,-21,-30,-10,82,-69,8,-78,-11,41,0,-40,-36,57,-20,-27,40,30,-47,15,-46,-48,1,18,8,-50,-17,17,-32,-52,9,58,-47,-61,-54,-4,38,41,-55,-17,-16,-2,41,45,76,-10,53,47,-14,-12,-276,109,-138,85,22,4,78,-12,-69,116,10,-4,57,39,40,-16,26,-56,62,36,26,-39,-2,31,-101,44,31,-10,-11,19,-7,20,-38,44,-44,44,-75,-40,50,-57,74,-62,-130,-36,4,41,3,-22,-66,23,64,-15,-3,-100,-148,42,6,5,63,73,3,-6,77,112,77,14,44,83,-10,-93,-108,-54,-62,-44,30,3,57,67,68,33,-27,-36,33,-47,50,55,-15,-7,-1,-20,-31,-28,21,-26,-9,44,17,-61,4,62,16,13,32,-61,-34,-1,-66,-145,-6,61,-28,78,63,-35,-103,-49,-34,-5,-70,-91,-127,-63,-2,91,-32,28,-46,23,73,-1,55,-32,5,-11,-118,-74,21,47,62,-61,9,-6,-73,-9,-77,-63,-26,-11,-101,20,-36,-38,-27,-55,-41,-49,27,71,60,55,-43,-75,46,0,30,5,92,-4,21,62,121,120,28,134,38,81,-76,-66,25,27,0,6,-71,60,11,-49,8,70,113,-4,-72,-71,-13,36,-58,34,59,22,-73,-23,76,101,29,-81,-92,11,11,96,69,-24,37,37,-59,35,-26,-61,-12,80,101,44,28,19,18,149,57,1,10,-71,-68,-77,-36,-39,-44,37,-127,-22,-109,18,-117,-97,-65,4,-36,-2,-35,-68,49,1,69,-27,-25,-1,77,-28,-11,4,86,-4,58,-4,52,72,62,-13,-90,63,-30,-75,-10,33,-153,34,-139,20,59,-40,60,-18,-38,-2,70,61,-23,113,-21,13,33,49,-147,-68,-18,43,60,11,34,52,-246,37,6,65,14,-122,-17,5,55,-11,-21,-12,-27,90,-99,70,156,62,36,-17,-99,-117,-121,-66,-13,-21,46,-9,-3,-64,-9,86,-98,-50,-57,-51,-97,1,-73,-37,-115,-120,-20,-133,18,-16,81,-9,87,34,44,46,125,77,67,-9,79,30,47,26,3,-2,-14,-10,12,-150,6,-36,-11,-2,46,61,36,-8,-28,95,-24,12,-123,-209,-13,-1,39,13,16,-114,52,101,-99,-46,11,-44,-59,8,94,61,16,115,-22,61,-90,39,-3,-7,66,81,16,-55,-97,-31,-127,-27,-26,92,152,86,103,55,75,71,76,-15,139,63,-22,27,-33,-36,-16,-66,-110,-51,-21,-22,-86,-14,11,25,47,-4,-10,-8,-22,14,-49,-54,-11,165,-3,99,-41,-4,14,3,-28,-74,39,85,-51,77,-45,6,-52,-17,16,-10,25,12,-3,-5,-54,-1,46,-26,64,84,-69,-2,-8,-69,-27,43,-61,3,-42,86,172,1,-79,25,-18,-45,39,4,3,-5,-21,-68,-12,-1,-15,-43,39,-21,-19,33,-3,54,45,62,-26,-12,-32,-19,-42,50,-27,-4,-7,12,-77,-29,-22,-33,35,21,26,-46,-52,-22,-34,64,-57,4,-85,3,36,-40,-110,-46,30,-5,-45,6,22,103,-41,-63,59,-32,36,-14,26,62,30,12,-37,-52,27,-23,36,-21,-8,9,35,6,14,-61,-41,-26,-39,14,-60,3,9,-70,4,10,-77,61,15,-16,43,14,-40,32,36,30,-26,17,-30,-20,-47,-30,-33,-3,-21,10,9,10,-2,-60,-13,19,6,-51,-10,-20,17,-24,8,-52,-46,3,52,-7,50,-25,-49,5,35,9,27,73,34,6,51,7,-16,-30,0,86,67,-14,18,-23,32,44,18,-48,-48,-53,47,65,-45,17,-1,-12,58,-47,11,52,-38,-16,19,46,25,-50,69,35,-89,22,14,-15,65,-8,-51,8,-79,8,38,89,90,45,-57,-49,45,60,42,132,154,43,128,101,39,76,-63,-73,-28,-92,20,34,-11,-53,-32,-41,-32,34,-51,-61,43,-106,-54,-5,-54,29,14,39,27,59,-18,-33,0,54,72,-23,69,-73,35,-5,-39,-27,-83,-115,15,29,-127,-29,44,-15,-15,174,-109,-62,-64,-49,14,47,32,-46,-23,55,50,-12,24,24,74,-41,41,-76,82,7,-36,-33,59,-102,16,-48,-15,38,46,31,34,59,27,32,36,-73,-30,12,11,-34,-54,-79,1,67,22,73,-35,16,-59,34,23,-22,27,37,84,43,27,22,30,15,80,85,-9,38,26,101,78,-61,-56,4,52,19,143,-54,34,-103,23,38,-58,10,27,68,8,-33,-15,-70,-58,-44,74,50,59,-48,4,13,-109,59,-5,-86,-36,-53,-89,-19,-68,26,-2,65,-37,2,91,48,69,94,-35,-29,50,48,122,93,49,35,-14,-21,4,-25,7,41,-95,-71,-97,-102,33,-38,58,10,32,-57,-61,7,3,-28,63,36,-64,-10,-13,7,74,-8,83,45,21,116,-164,36,-6,22,49,31,37,-47,42,-6,44,91,-79,14,-59,23,-14,32,-8,4,-76,18,82,64,39,-161,-87,15,26,21,28,-65,-44,14,89,104,74,-93,-8,76,21,78,83,11,71,-33,29,4,3,-32,-51,-8,54,11,16,26,62,-15,-37,82,12,-34,88,18,-4,-44,-18,69,16,-8,-16,61,42,-71,47,6,3,-33,-37,-32,-46,-25,-66,-59,-16,-50,-29,17,101,-75,81,-17,-20,-82,22,-72,-26,16,-6,37,20,-23,39,84,2,53,32,-55,-136,44,21,27,81,-126,21,-2,55,26,-129,-52,2,-79,-40,-16,72,61,61,-54,-4,-27,140,-23,-61,21,-43,-50,82,-17,-4,21,22,9,-53,-21,-30,-55,27,10,38,-28,22,0,12,-72,44,38,-59,-32,39,17,-50,-32,-48,45,-3,35,-7,-23,44,-9,-10,-49,-35,-44,-37,-49,7,-154,-47,-38,-6,28,-63,40,95,-20,121,-77,-22,-92,18,19,-90,69,-77,-36,50,78,-10,-51,-30,-24,-59,-136,-57,-23,2,-24,-60,-17,37,-4,-24,-15,43,87,-165,33,-53,111,-74,-83,33,-54,32,-27,34,-19,-78,-92,-86,-70,-51,37,118,10,84,11,-60,53,-53,-36,33,-45,3,90,35,17,45,-69,46,-42,-22,12,71,45,37,-24,-4,39,-36,-17,34,2,-113,-53,20,26,-21,30,30,-49,-40,127,-47,15,19,-15,-32,28,22,33,72,-11,152,137,24,-12,-29,-2,44,-28,22,37,49,39,-55,-41,97,-14,-17,-6,-9,-12,41,28,-3,130,-4,-38,-96,46,43,154,26,-83,-39,-73,-86,-11,-56,-1,-34,15,86,-13,18,66,54,23,46,60,21,-1,-77,-19,-56,-50,23,18,-12,-23,-13,-81,-24,5,60,37,10,0,-11,-14,46,-78,-2,120,-204,27,27,49,-47,41,82,-157,38,13,-52,50,10,-83,-10,24,93,-10,-62,-108,-9,-52,-51,87,32,-46,-20,116,-51,37,26,-39,-27,21,-42,3,18,18,-19,49,-75,23,-49,105,104,85,10,23,-13,-19,61,-35,-109,-113,-32,-104,-19,-35,-79,-44,-44,-66,35,-10,87,77,-35,46,32,35,25,-11,-89,-44,47,33,62,40,63,-48,52,18,14,62,146,17,-11,-122,40,8,5,78,-61,-20,24,9,-26,-5,73,111,35,42,-33,74,29,-45,-21,-59,80,-24,-50,97,-8,-65,3,-20,-64,36,-58,50,63,-21,-13,-13,3,24,108,16,102,-39,-54,183,34,-43,22,94,118,49,-42,-42,18,-3,-33,-55,49,-26,18,-56,-41,-83,37,-8,-31,-51,-34,25,11,15,47,-21,-16,18,18,34,-36,-43,-28,3,30,96,16,-10,-104,-23,12,-9,47,43,15,49,4,25,-34,160,-13,64,-46,-35,145,-2,14,33,54,14,-32,2,77,-27,116,2,100,121,-26,28,38,-15,41,25,-110,69,-44,5,-103,-106,-51,-16,-33,-33,27,-101,16,32,-66,0,72,13,-52,-29,-45,4,-49,-103,-75,-18,-2,-5,-39,0,12,-14,42,101,70,30,-46,-11,57,36,15,-23,57,-12,-33,50,-30,2,-91,-21,-104,-19,47,69,-57,96,-81,-9,145,92,-90,-17,-46,-74,9,0,5,52,-100,-41,6,-55,-17,10,-43,-76,-83,51,9,-12,-56,2,-18,15,7,-39,42,1,-2,-27,-81,-27,73,1,30,69,-25,-89,-15,-24,105,105,27,-61,-53,-9,-77,-63,30,43,-27,60,4,103,0,67,83,103,-14,-70,-32,-86,-124,-66,-116,-16,61,1,28,-52,44,24,31,-53,-108,-88,-58,-12,-65,2,-21,-11,9,34,-81,-48,98,-10,139,-46,-45,19,13,-16,0,-19,9,13,23,81,87,-40,-104,47,-26,9,-64,-42,-40,36,2,-15,-125,-17,-48,-4,5,-12,-15,-114,23,-36,23,-100,-52,3,71,22,-74,38,1,-9,-44,-42,42,45,-74,-18,-104,-19,-69,25,-13,-75,5,-13,36,9,11,27,-68,-91,-18,-60,-14,-54,-24,-5,38,41,18,-14,22,36,68,67,24,18,-29,51,-91,101,12,81,-121,-2,-83,37,11,-11,9,-27,39,-42,10,118,5,-23,-19,-13,150,79,48,-23,-4,11,19,-44,95,-22,15,34,-65,98,-115,30,-112,13,37,116,-3,28,-40,36,-22,-41,78,14,-21,10,-61,-43,54,14,92,13,-76,-21,52,69,5,14,-34,-45,-37,-21,-19,83,122,160,138,128,43,102,25,-11,25,-19,-24,-81,10,-95,-53,-52,54,-117,-117,3,34,2,-66,3,-26,-135,1,47,-32,-3,-19,58,20,-8,131,-92,21,-30,14,43,70,75,30,59,-99,41,50,48,-25,2,82,28,7,69,-31,63,-1,-75,-107,-67,129,97,32,-36,-20,-58,60,52,-43,-7,-121,-144,-84,-34,-57,-82,5,-5,6,36,-63,-14,35,-35,98,142,87,71,10,-28,-21,13,-62,-17,64,-47,88,60,47,17,-31,-53,35,-75,-71,13,-14,-37,-94,71,-46,24,8,-26,-29,-46,-84,-103,39,55,55,24,51,-80,22,-86,-27,23,-17,-27,-38,113,38,-92,56,30,-59,-67,-25,100,27,7,-15,8,51,15,-83,60,33,-3,-14,57,4,-3,54,-45,-78,-1,-42,-102,-32,-9,-70,-29,-73,-25,-56,-74,-32,-99,-109,-9,-42,-12,15,37,-28,18,-10,-32,66,-19,32,0,-15,-20,86,83,87,-17,26,-21,-7,67,-77,43,-61,128,-42,-29,55,-55,14,2,-16,115,-57,-56,-162,-41,46,-7,92,7,57,22,-24,-43,-136,46,28,-26,36,13,-21,-30,68,37,-51,-45,44,89,-11,19,-47,10,-88,61,-24,-3,35,31,1,-63,22,-37,84,9,-59,-40,52,35,122,72,17,118,93,-25,14,95,-7,39,-62,38,69,-58,37,34,-7,48,-44,-60,-59,33,-36,-45,-14,27,-44,-14,-11,-32,164,-169,12,88,-112,-27,-125,77,-58,75,70,-2,-113,-4,49,-1,-77,-17,-136,-70,-47,142,-74,-73,58,0,-40,-105,76,-69,115,-23,-35,18,-47,-42,78,-58,-40,-30,-26,34,94,24,-74,-77,4,38,-83,-58,58,40,13,30,-4,101,12,-40,-18,-1,-7,12,53,0,-65,-11,32,-31,66,3,26,56,-48,-41,-32,-49,56,-50,-41,-92,-43,-26,-44,-92,-18,-70,15,-91,55,40,61,-29,15,-40,-15,69,-23,39,7,-60,-64,-74,125,47,-60,-44,-145,59,-112,-35,140,106,23,-42,64,-2,-24,-39,-38,37,-100,18,-33,10,110,-87,-76,12,26,-67,71,-45,64,44,-154,115,46,41,94,93,28,59,115,49,60,149,74,-59,28,44,-57,-16,68,-44,63,85,65,0,56,-22,89,68,79,-31,-41,-23,-38,-18,16,17,37,71,-43,21,68,146,-56,90,100,-125,50,30,-63,-33,-28,3,77,-43,53,-110,27,96,36,-29,-31,-36,-11,49,-1,-40,-39,-23,11,-27,-108,-37,9,48,-31,3,-40,-63,-22,-115,-39,-33,8,-52,48,-4,92,47,21,136,-22,61,141,-26,-51,1,-6,7,-29,91,82,123,63,91,87,75,94,92,134,45,57,-82,-26,-26,58,67,83,84,-28,-37,-22,69,-96,-39,-9,-117,-87,-96,-122,-211,-13,56,-7,31,-12,75,48,-145,-4,-45,-68,-57,-26,23,-28,35,85,19,-67,-50,6,42,94,105,-38,-95,-96,-75,-66,-28,-1,-78,-24,41,32,-6,-46,103,31,-107,17,-183,-50,-98,-31,55,-10,17,132,91,-1,-105,6,-60,-12,29,-79,-42,-38,8,13,-18,-59,36,2,67,-32,-6,-59,-71,46,59,11,42,-6,-14,11,47,86,-39,-15,-21,66,-49,-32,87,-59,-131,106,-64,-43,38,-80,-30,-97,-16,36,24,-22,-15,49,-29,2,47,-47,78,-23,67,69,77,-80,-187,26,104,-47,55,69,4,36,40,-7,-14,124,-37,60,-9,-83,96,-110,-73,189,-13,-113,25,-43,89,-22,42,13,53,-31,-1,30,-22,10,29,-100,-14,-94,-79,-48,-39,-31,24,14,12,16,-11,-68,53,-57,-74,-18,-20,-17,45,81,36,19,38,26,51,84,34,70,73,-22,-15,-10,22,113,100,-54,7,48,2,-45,9,-3,27,-23,61,81,-44,19,49,10,-63,-50,42,-63,15,42,57,-15,-68,-48,-9,-24,-37,31,59,-17,-28,-11,11,119,-78,139,54,25,32,-98,62,-25,-57,19,65,83,-56,62,79,-28,-80,-84,32,-63,-20,-65,-75,-55,21,-26,30,76,12,19,45,61,-59,11,39,56,-25,16,-26,32,-36,-46,-14,86,40,-37,34,-3,12,45,-39,46,27,113,-68,-119,12,83,17,54,-61,51,31,-16,-51,-71,-32,-110,-2,32,2,31,-43,63,-7,17,-31,25,23,-96,110,-31,-9,32,-22,-137,67,126,60,7,-72,-32,-15,10,77,-43,33,-17,33,30,-14,-29,11,38,-86,-21,-30,39,-35,-1,-34,21,38,-54,6,-62,-21,-42,37,-57,-13,26,-13,-35,-67,-19,19,42,52,13,1,35,40,13,21,-33,-8,-111,43,48,37,27,0,173,-130,-10,57,15,41,-78,-97,-38,-14,14,-81,38,4,42,-93,39,5,46,-67,-54,70,90,67,93,-2,-69,59,3,9,83,-71,-42,-21,-92,30,61,-46,-21,-91,-109,14,17,138,17,64,9,116,-25,15,-72,-78,-54,-32,-59,-5,-50,39,30,52,-45,30,26,-45,66,-9,-51,-36,-28,3,34,-15,-32,-40,58,-6,-34,-12,81,13,-4,19,150,-20,7,-61,-89,-76,12,-2,50,-145,53,0,-14,71,64,46,-23,95,-76,-14,39,36,36,-17,66,-43,-122,-68,-103,7,-45,30,-67,71,14,-88,-25,40,39,17,92,-62,167,2,-71,65};
const static uint32_t LSTM_01_weights_cell_dims[4] = {1,1,48,88};
const static ConstTensor_t LSTM_01_weights_cell = {&LSTM_01_weights_cell_x[0],&LSTM_01_weights_cell_dims[0],-1};

const static Weight_t LSTM_01_biases_cell_x[48] = {191,-24,-191,90,-49,274,-36,-410,-120,157,1,-233,-217,333,27,240,108,42,-155,399,371,51,-102,-266,-164,-337,-132,108,-136,-23,277,350,-43,-61,298,123,-178,-11,-37,-275,125,-169,223,-5,123,103,211,208};
const static uint32_t LSTM_01_biases_cell_dims[4] = {1,1,1,48};
const static ConstTensor_t LSTM_01_biases_cell = {&LSTM_01_biases_cell_x[0],&LSTM_01_biases_cell_dims[0],0};

const static Weight_t LSTM_01_weights_forget_gate_x[4224] = {-88,-16,-52,60,-81,19,-113,93,-88,37,-10,-105,42,-55,-45,-86,-17,-127,56,-47,44,37,128,-113,-82,132,-52,-145,-112,-119,-75,-94,80,-81,126,-100,89,-176,-63,213,-177,25,69,62,-19,-16,67,22,-11,7,-31,35,23,140,-38,37,67,-196,44,0,-58,-141,-23,185,49,26,163,-36,-139,-44,100,-73,81,77,25,5,-64,100,5,-37,-24,-62,-100,3,88,63,-116,63,20,60,-103,-210,-49,-75,102,26,42,3,89,-153,-44,15,73,139,83,30,111,-143,-65,-154,-20,-70,-91,-154,-158,102,-2,-7,48,-51,-181,-58,-150,-22,1,53,-149,-152,30,-54,134,-12,-24,-144,45,-42,-138,-309,-47,-122,57,-24,198,42,50,97,14,76,-75,5,-11,-214,98,20,-114,-84,30,-160,85,69,-117,-40,108,-100,-13,-112,-31,7,-179,128,-50,-45,24,28,-15,61,107,20,-23,52,-35,66,-55,-62,-59,-93,-96,-148,-2,-104,-32,-54,-14,110,-82,-187,98,106,80,5,122,150,-125,-79,-50,20,44,47,-21,-144,-128,-167,-25,46,-158,-109,114,56,58,28,13,-49,145,-28,48,-55,135,-63,-115,168,-31,78,-95,-142,-63,68,-68,-193,-188,93,24,113,-19,-55,-88,-169,82,56,-191,211,107,-151,186,-15,-21,28,13,-99,119,103,-61,-92,-93,101,-49,-21,-56,130,74,78,62,105,143,90,71,-97,-201,-53,-64,-98,129,36,60,-37,-52,107,-79,175,84,84,-114,-104,-39,-49,-51,50,-166,-103,-101,78,-99,98,84,-17,99,24,-95,-165,124,76,-35,-70,-36,-92,-70,-20,-10,-25,130,97,-23,-115,143,-125,75,-10,71,142,28,20,95,-117,-79,-77,-99,-50,166,139,57,125,78,29,72,16,-205,93,141,-189,141,-70,-152,7,66,-81,-33,-94,-32,94,-11,-23,-96,150,-114,-33,-74,-40,35,51,133,41,-24,-145,-144,-10,74,3,-95,62,-6,123,-1,-17,-99,-129,148,107,33,3,135,130,-89,-76,102,-82,49,9,154,-122,-30,-57,-99,-88,119,-272,66,-269,115,35,-271,114,-62,-40,72,10,4,-127,-17,102,-87,-22,3,-15,114,3,-89,-7,-14,80,-167,-35,-52,47,21,-28,62,-58,-134,-126,-126,153,83,-53,69,-48,50,85,112,-133,-1,54,-23,100,62,1,-77,-21,126,104,2,101,40,172,-28,108,-62,159,0,213,82,73,70,-116,-99,-48,146,-131,-57,-12,113,46,-3,-93,6,-151,-118,-64,-134,-43,-134,66,-83,178,103,-116,-70,146,5,-52,54,-6,-245,-103,4,-23,-55,-1,66,163,-28,143,19,66,-63,-23,-3,-87,127,79,201,50,22,-37,163,-77,-45,30,-81,-132,50,15,94,130,169,118,22,-4,60,64,107,49,-94,70,-73,-100,74,-138,61,146,40,-87,156,76,17,-56,-57,-86,71,61,110,-106,32,-50,-87,3,-133,6,89,91,66,75,191,127,-103,125,79,136,38,104,-43,-124,129,58,32,-46,172,-182,-85,83,-93,-151,-133,-197,-219,45,164,136,-246,50,-44,-143,135,102,-19,-139,4,72,131,-51,-177,109,100,-180,-137,39,77,88,110,78,104,216,104,-19,72,32,-27,-7,-43,87,-60,103,-76,113,-34,-34,5,62,223,215,200,-6,62,141,-96,-15,105,-41,-38,-15,184,62,180,67,121,127,37,134,-32,-105,-228,130,-57,110,46,155,163,-71,-33,-25,-31,-13,-126,-69,-20,10,31,-55,203,-25,-60,-58,-13,142,10,-20,-45,200,9,50,17,69,-70,-164,-104,144,27,127,-24,108,-365,78,83,-28,128,93,-19,-90,-146,-105,-230,-118,-211,-59,37,56,-38,-122,-132,70,-116,68,70,119,56,-74,-28,-118,-86,76,83,155,-9,84,-18,199,157,3,-9,-93,98,-43,-29,54,57,-53,-339,-36,-158,52,-77,30,63,-1,-34,140,66,14,-63,16,88,62,-102,-15,127,131,33,50,-172,-67,-177,-43,144,-57,151,139,33,168,-167,-81,58,-47,-94,-219,-13,78,-125,36,-144,-61,-94,-120,40,38,12,-148,-51,12,-145,84,-133,-68,132,66,-110,-126,24,92,53,142,-20,-38,-11,92,121,-85,-101,-36,-74,62,134,128,-82,14,101,57,-99,50,48,18,-88,105,-30,-45,-170,-169,-255,121,52,73,53,-52,-42,70,36,-56,86,-1,-47,-110,103,10,-119,138,88,114,5,-42,147,38,29,-136,77,130,-61,-43,-12,-56,-37,48,147,38,49,-62,1,-53,6,-47,-22,-39,-76,-56,32,72,-46,37,26,20,95,131,91,-62,117,128,88,125,-61,-91,-8,40,-24,-11,124,-26,62,-48,7,-129,-99,82,-122,53,-21,68,-17,121,-34,80,24,17,-102,-3,104,48,36,-41,-45,68,-2,43,-4,-92,-67,185,-20,12,51,-49,-56,-54,-192,33,-115,103,-54,-177,62,67,79,45,148,-102,34,0,18,102,51,66,45,-51,-22,119,204,36,172,-79,104,-93,-61,70,-144,-61,163,75,-91,-102,-66,-137,-147,-30,-130,3,68,-103,-6,-196,66,48,-124,-123,68,-78,67,-26,140,-121,-3,-17,-43,93,104,-8,-24,68,-79,77,-9,9,10,95,-92,35,42,-27,170,66,30,-66,-58,38,55,7,-100,63,102,95,36,189,-41,-27,-146,-62,176,-90,69,79,73,81,-137,-2,-149,-132,-65,-209,42,0,-45,12,28,105,-13,-79,21,63,67,-43,20,-124,8,103,-117,53,-78,64,102,-123,-29,60,156,14,-33,-5,-81,114,-70,-97,147,48,-83,-39,72,36,22,115,109,142,99,-87,-26,-44,55,10,-24,-16,-30,104,115,8,184,-28,-29,-118,-56,47,-82,-1,54,113,2,-6,-113,104,116,210,-16,100,-59,9,114,82,-36,0,234,-167,32,145,81,69,96,193,127,-129,22,54,104,-154,42,94,1,34,136,-16,-52,22,42,-26,-10,45,-132,43,27,-38,168,103,75,-20,115,20,-19,-81,-53,65,67,36,113,62,-108,-43,3,78,-18,75,151,99,-77,129,-58,-163,26,-63,-119,135,128,1,-96,90,41,69,-36,127,0,-25,70,40,-65,-28,-5,30,25,-110,178,14,39,-3,-63,-17,5,-98,-63,70,-9,-115,-67,-95,95,-67,163,-139,8,152,-41,-55,-58,12,-91,35,-17,53,99,-13,-14,3,23,-176,139,-105,-204,-9,-62,-198,-222,-81,0,7,-171,-11,-41,0,81,-40,-144,-112,54,-9,-43,-96,-24,-87,41,-62,-29,108,-62,30,26,65,-64,-112,-88,79,83,25,-12,62,-33,-84,82,-107,-20,18,37,48,-31,120,126,-52,-119,2,187,227,-28,-59,-81,8,112,-61,-61,-146,-140,129,-181,16,165,-174,-83,176,23,40,-15,-1,56,-103,41,52,-49,-100,6,65,51,-16,-73,-160,-172,41,22,36,-132,-161,-63,54,70,14,186,149,70,66,-44,81,64,66,-88,-135,-125,-66,98,-23,68,-112,29,-26,171,-54,10,-39,-7,-30,-45,204,-7,189,79,1,-180,34,-91,-23,-83,-51,-85,135,-80,73,-94,-198,-84,-175,8,25,-9,64,36,-10,-4,175,79,-6,6,-54,-53,-51,129,-40,35,-100,-89,-11,228,-50,-74,-205,-20,-50,-77,-65,-74,-32,-99,53,38,106,-30,16,62,-18,72,89,95,107,91,147,-46,-59,180,14,74,51,-121,-50,-2,-52,49,118,-80,110,47,151,-68,16,-31,-21,34,151,48,26,-15,127,90,-33,-87,86,64,112,-141,45,296,113,90,172,14,57,-97,71,32,169,-269,-2,174,-48,6,-26,-126,-46,-240,-85,3,-28,-82,-73,-94,-29,95,-23,208,38,21,-14,3,141,118,-58,28,-55,-8,-221,-57,-35,116,-155,34,-78,48,-209,-138,-115,69,-161,-61,24,115,66,-20,-7,-36,-110,-26,-105,-70,-133,12,45,-32,-59,-49,-46,112,-26,202,182,10,69,6,6,4,-70,-43,-107,-23,84,-54,61,119,-8,102,120,53,81,56,-29,126,-63,-78,117,-312,-173,183,-7,-47,-23,-61,27,12,156,-197,-35,-13,-128,-39,158,113,-155,-5,91,-209,71,-33,-11,199,79,4,120,62,-275,86,88,17,86,111,-75,18,33,-163,10,-49,-115,-206,-145,-92,-165,-94,-3,-30,28,-59,-2,-117,-160,9,-39,-147,27,-96,-93,-86,66,56,-53,73,39,-12,-16,35,-23,61,-63,73,47,-113,-27,-73,102,-20,-51,61,65,91,-77,88,-157,151,-94,-14,9,81,209,48,65,-2,-88,-5,71,-149,54,84,65,-19,-38,12,-6,246,76,55,-100,-103,-82,-38,-4,-13,6,-22,32,179,-66,48,39,-25,-62,97,51,-42,-17,126,-86,86,48,11,-158,87,62,-113,-24,-58,130,-107,-35,-100,-40,14,-78,19,66,35,25,125,56,-64,-7,65,6,-49,111,-2,8,-112,-131,-194,-103,-177,92,-159,-78,316,119,159,171,-184,-2,-103,-2,19,-96,-23,15,94,-34,202,5,-207,-121,-116,161,-15,-85,-77,84,105,-113,127,-70,-45,-193,-107,-53,-17,-3,114,138,-101,85,-45,7,42,121,115,168,105,-128,-103,-2,-82,-162,-40,66,-139,-21,-103,29,-99,69,7,76,-72,-164,-43,-8,-78,-66,29,16,166,55,100,102,13,-141,48,13,39,-98,-129,100,-63,-162,-40,98,10,51,-102,35,93,47,9,20,10,-39,-27,-71,-138,46,111,67,-140,47,-69,72,-87,55,9,-51,127,66,-131,21,40,9,75,-80,5,59,-33,-39,88,-63,-49,31,-68,6,-6,-124,-268,-76,-62,-31,69,103,-48,-138,-129,-31,2,-118,10,-274,-82,-132,9,-83,24,13,-77,-111,35,33,-119,-84,-3,-192,-10,-73,48,-168,25,40,-137,-121,40,17,-2,-114,-43,2,227,10,-73,32,-171,148,138,-71,-12,41,90,-140,-23,84,-107,137,61,-254,-21,-15,3,-238,1,-89,-104,-155,-31,-77,-5,-159,-5,-72,-80,-42,28,-9,-187,-67,4,169,54,-28,-35,-82,-14,-20,15,37,-87,98,-62,152,124,135,120,-5,189,80,-34,23,-30,-23,162,-5,-70,-57,-5,25,-62,66,45,167,55,19,158,25,89,110,-5,-88,78,51,103,12,107,127,46,70,68,24,-16,2,15,-99,106,-40,60,22,81,-88,-56,-62,104,-18,92,-25,161,59,-5,-60,-149,-161,71,-30,-99,128,-117,45,-78,42,18,109,-5,45,91,-182,-106,87,40,169,-36,-9,-52,177,-107,93,24,108,-47,150,-30,89,-34,45,40,85,-23,135,-75,-74,71,22,30,144,-48,-25,127,-18,141,141,-23,81,79,43,-46,66,88,5,109,89,8,68,31,-112,7,131,61,-105,-40,-110,-51,86,52,-147,-102,-41,16,-127,121,60,76,111,13,55,-33,127,75,81,-26,57,7,31,-140,155,-78,-23,46,18,-17,104,-64,154,-32,19,-73,-31,34,-68,-117,-76,-99,25,117,38,-3,68,-54,-52,14,123,-47,100,158,70,156,155,-82,78,-10,166,-28,126,-70,-128,-2,4,-29,-93,-124,-27,57,16,60,113,-9,53,87,-58,-130,15,1,-121,-127,59,144,-85,204,-50,126,22,-99,171,-87,-96,-54,-172,-2,-34,33,228,37,-14,-57,72,-119,56,11,27,20,-11,39,-97,46,0,-74,-111,-276,29,-42,152,177,-92,-174,-133,-96,30,70,108,-36,-97,-129,130,-67,-110,-37,9,-30,22,-5,-17,-79,69,24,-47,-120,-23,81,-97,135,-115,-121,44,180,69,67,42,127,89,-77,122,150,-91,175,61,66,55,85,33,2,-88,32,161,-37,-11,112,-98,39,105,124,79,80,-71,-102,-10,249,27,-28,-33,25,77,94,-16,-40,-2,-169,62,6,164,-58,-172,16,36,-193,-7,-18,1,119,45,-52,-29,-129,161,-56,36,-67,35,-57,78,-14,-68,-90,44,-52,-77,-38,-49,-59,-54,120,59,-35,-92,173,23,-18,61,51,148,-6,-70,143,133,105,-36,-50,57,75,72,45,114,87,-44,-75,109,165,-16,91,91,89,102,-57,-57,31,-18,25,102,94,34,239,-97,-112,64,27,55,-160,-86,40,-181,142,77,-20,11,155,85,28,-38,-12,65,-105,55,129,4,29,0,24,-137,5,15,-72,-40,84,-53,120,-117,-46,-38,-51,-76,-115,189,165,-20,185,17,89,-10,180,162,7,-58,56,-6,116,-33,47,-63,51,146,55,76,122,79,25,62,18,-41,96,98,62,55,-102,-73,89,78,-70,99,59,-49,85,-189,23,-57,-74,37,-146,146,33,-32,-10,-175,32,-122,115,42,-144,4,-7,34,-92,79,-21,-165,170,-71,38,-73,-175,-159,-81,133,96,-48,-169,25,83,41,-276,122,-196,64,142,-180,41,-4,78,-205,-149,75,-77,158,86,122,35,-1,193,-37,26,150,9,-39,28,63,78,-9,8,68,107,-9,72,38,78,30,-61,115,41,-94,-92,13,140,53,74,78,-2,20,-49,100,208,-67,-167,-147,-122,-3,-34,112,101,-5,54,-86,-8,-46,-82,-123,40,-33,80,-35,368,31,-90,-201,197,173,19,92,52,2,133,85,-3,130,216,65,-322,51,-90,-26,-64,55,145,-42,-48,-11,143,80,-71,123,-10,147,-60,121,-90,-96,11,8,-56,-62,131,4,12,-112,-83,-93,-87,-49,-115,-31,93,54,-69,-87,30,114,191,19,-51,186,-8,-56,-19,11,114,94,17,-51,100,-72,-18,-19,67,-71,59,9,-54,41,124,98,-75,-85,-46,-101,143,-5,29,-34,82,175,-182,65,-198,-84,91,35,34,-26,63,149,-34,-121,-112,-6,-49,-49,-98,-23,-132,-44,144,-61,82,88,105,35,-163,-54,-95,295,141,123,79,71,102,64,-70,-113,25,42,41,20,-10,139,-136,49,9,75,34,-123,-44,-202,47,-91,3,-30,-43,-115,-65,-116,37,-132,30,-120,-64,-96,131,122,-243,-175,-56,90,-179,-105,61,-137,104,35,209,13,96,61,-25,-251,-43,-55,176,-78,4,-79,23,-5,-126,175,-146,-195,-18,115,-123,-161,-58,-76,96,-178,117,-39,-134,-54,55,-8,-34,-26,68,100,-158,-156,-187,24,-95,67,57,57,146,-11,97,-70,33,-152,-135,41,-160,77,141,51,56,-98,-18,4,-22,128,112,2,86,155,-2,-51,69,164,115,211,-53,-66,108,117,231,130,35,45,-89,136,-1,-167,263,185,-112,-251,61,-4,130,-114,51,-100,-81,6,-50,22,-182,-160,-112,93,136,93,-22,37,-35,47,-116,44,-108,-193,-134,10,-140,-38,106,39,64,50,67,251,9,85,-44,-46,19,81,100,57,-135,-109,76,-73,139,88,-30,184,164,51,43,155,-33,-75,-106,69,-36,-75,-71,-9,-28,148,-39,56,-74,23,-43,-107,-56,70,18,-143,-123,-45,401,35,-35,-91,-39,22,133,-16,-79,-256,-7,-66,-10,109,128,-20,-79,-127,111,199,8,84,-135,-11,122,-14,67,-46,-70,171,13,-20,34,117,99,-32,-63,32,-43,-70,-58,-82,134,115,32,67,78,56,-138,-160,-87,-44,36,-115,-73,-129,10,-28,35,-133,80,-2,-54,61,-117,-98,98,-131,26,-95,-110,-72,-19,54,47,-83,-129,-28,107,-126,-135,-74,23,-56,81,-128,9,-58,31,-11,-90,-154,104,-49,-88,169,69,29,19,-109,60,106,158,-220,129,-107,-192,-29,-90,-37,-13,-90,-54,-184,-88,31,42,-53,0,79,-69,109,58,69,4,78,-4,51,-147,-95,132,87,-23,-7,22,117,168,131,93,65,-45,40,-18,2,-68,-48,-54,88,-32,-46,-102,-148,-12,58,19,58,91,84,-97,61,-27,-92,125,-23,86,-35,30,-58,-96,86,-100,-15,-142,-27,69,82,-90,-90,-30,20,-83,-26,-103,141,-97,49,99,45,79,-10,151,15,176,-186,-28,-14,15,72,39,1,-115,90,10,-138,-41,186,59,216,31,220,216,29,-144,-170,1,65,203,121,17,85,-94,-41,-113,-64,-89,-4,-129,106,28,138,-39,-93,106,40,70,-6,-81,1,23,6,-118,77,-83,-54,69,-56,144,147,92,-79,6,26,102,-53,136,-60,-67,108,45,36,62,127,140,119,-216,70,-123,-82,-59,-89,247,23,79,32,-31,-109,-104,133,-73,120,-11,-172,-77,-72,4,111,-46,-79,111,119,57,159,45,117,80,128,5,55,-137,-305,-96,-59,-52,70,-6,17,134,52,-137,147,24,-85,57,-91,-121,-26,-14,13,67,-26,12,90,-123,114,-55,2,-65,-76,-94,36,17,-26,-63,3,-41,7,183,112,25,60,69,81,-3,-122,-19,19,109,-52,50,-94,14,93,-284,216,298,183,126,-83,206,-131,44,137,24,-9,87,-3,-328,-17,-107,-362,-23,29,136,-26,-152,102,-170,127,74,27,-101,28,177,-26,88,-18,-22,51,-69,-151,65,-65,6,237,-223,-3,129,8,-3,-25,-221,28,-28,-107,-91,-23,-106,12,-55,-73,-12,-121,-52,-116,-84,49,67,-38,64,-65,-90,-17,87,-135,-98,74,9,41,65,120,142,67,85,106,24,-137,-41,-14,-132,-83,311,-79,-136,138,-154,-27,118,-53,13,-6,63,-86,105,104,-98,349,-314,156,-68,-51,51,-81,-85,-267,-80,42,-171,-25,75,8,-177,128,-179,130,85,-21,-15,-216,-110,-53,-166,63,100,131,-70,23,-172,230,-79,-119,123,32,138,76,53,30,-107,47,148,0,26,4,-76,41,-70,89,-62,69,-113,122,-58,111,-109,24,-111,-62,98,-71,20,-91,132,-81,-113,18,99,-74,-55,35,-4,-108,-29,162,-163,-14,28,71,-20,-82,17,-161,27,10,72,51,38,-48,-53,-135,67,13,-206,-230,14,-25,-15,130,-27,86,129,-36,-199,107,48,6,123,98,96,23,6,-29,-76,-59,73,-48,70,-124,60,84,-105,8,22,-62,176,-123,-31,112,13,6,166,-25,-46,89,103,-72,-74,131,-59,-44,125,158,5,90,160,175,96,146,230,19,-19,123,-78,177,158,174,96,-64,135,67,-81,79,-47,-90,200,246,134,21,42,74,8,87,-62,-104,149,19,193,106,-158,-86,16,-13,205,158,-191,-77,23,172,6,159,-52,60,-93,47,132,136,151,-173,22,-15,28,91,66,-168,99,67,17,28,-82,36,160,107,15,123,57,-4,68,-56,134,14,-38,42,0,112,82,107,119,114,78,-41,85,75,154,-12,36,-27,31,-48,98,-6,168,132,-73,124,88,-60,14,179,142,-61,-1,-93,-81,-57,97,94,-33,16,179,-29,76,107,64,-84,30,159,16,-60,-62,-40,-85,-5,90,66,33,44,-191,-194,-40,8,21,-157,-148,92,78,-49,-134,33,135,-241,21,-114,-19,239,-34,-66,-12,18,-56,2,-29,39,58,107,28,-9,160,137,16,151,167,114,-84,-19,148,116,-43,75,-30,-38,12,-11,48,92,38,-52,-157,4,23,86,154,45,-106,86,156,-8,-129,-92,-176,-18,-109,-3,65,225,35,47,177,-36,23,147,106,-1,146,37,-183,35,-32,-254,-155,112,-102,150,-142,-89,61,-105,-134,34,-75,51,100,-145,-91,-26,-157,-110,45,92,22,-99,103,120,10,10,84,98,-111,-22,-220,7,-108,128,-85,109,146,-49,72,22,38,1,33,126,44,-11,-68,-17,106,-22,1,-32,-154,23,-2,19,-67,-10,26,48,-165,-95,69,82,14,-102,94,23,158,-57,5,90,99,9,8,123,8,-100,28,19,25,8,-59,-6,-116,105,105,75,222,-219,-106,-49,3,-178,-13,-136,-256,7,130,129,1,148,117,-153,142,161,220,127,-20,17,-40,-68,-38,-13,3,111,79,55,83,26,-85,-34,-2,-36,-71,62,-122,-105,45,-129,76,-7,52,113,28,36,-98,-79,85,-20,24,110,-76,-31,-87,-28,152,9,33,107,93,176,-132,-49,-68,129,-36,-95,-92,-112,52,-53,-147,-61,-8,83,-132,-25,-16,192,54,-108,196,-117,-70,-146,117,-81,37,72,73,-1,-106,-136,-6,72,-6,60,-245,95,173,-5,115,-38,173,11,50,-95,-40,-102,81,9,88,-104,-17,0,-136,-23,174,177,98,85,-47,47,17,27,151,113,114,-11,-73,127,149,36,119,45,-7,139,139,-9,123,159,12,156,51,-118,-15,6,126,6,-136,-75,106,-117,-11,54,61,-34,-149,124,51,18,-160,-193,7,100,-66,1,-11,-154,-3,62,-57,-152,246,-80,40,19,-4,27,-48,-94,34,-121,-98,-83,16,1,3,109,-88,-57,-23,178,-78,-38,25,74,86,46,99,-46,177,-8,93,-105,14,197,212,-15,86,-29,89,87,38,-62,25,-143,-67,-127,62,133,-79,-116,19,-27,-11,-22,-66,61,120,45,99,-85,-5,58,142,158,57,-25,28,55,-82,175,-46,33,-192,41,-12,-80,50,80,86,-202,-89,31,114,-21,-6,166,-4,-106,194,-29,-12,154,90,-175,-138,7,-162,33,9,-111,-134,-70,31,-23,22,103,149,46,-92,51,-171,63,-74,20,-29,-20,50,159,-24,-164,-117,-76,-51,39,-111,104,-36,-21,-46,26,105,37,-39,165,-54,151,186,182,196,198,61,102,213,154,104,-65,20,115,155,83,15,-135,-38,56,-90,34,-77,-174,169,-160,81,229,-22,149,24,53,-89,-75,-87,153,-26,-4,65,-54,125,-168,-27,-126,182,6,-65,5,152,31,112,116,-124,-9,116,87,228,153,44,-179,-175,100,-156,34,66,-157,34,-25,47,-27,-119,-75,-76,-85,-73,99,25,107,-118,-57,81,-53,27,79,-5,102,-44,-5,-43,88,11,-88,-30,-79,49,0,-85,105,-139,80,18,-133,-94,-13,26,40,48,78,167,124,81,-19,-113,-79,30,-46,-160,30,-1,-203,-110,101,-86,119,-12,46,140,138,-52,-45,-107,103,-158,148,-23,-25,29,237,-143,47,46,67,93,-71,-21,90,-76,18,165,150,-48,-59,13,74};
const static uint32_t LSTM_01_weights_forget_gate_dims[4] = {1,1,48,88};
const static ConstTensor_t LSTM_01_weights_forget_gate = {&LSTM_01_weights_forget_gate_x[0],&LSTM_01_weights_forget_gate_dims[0],0};

const static Weight_t LSTM_01_biases_forget_gate_x[48] = {159,218,267,158,195,226,300,253,305,275,232,239,328,222,233,197,260,210,244,266,207,252,267,311,202,239,240,237,223,232,227,288,296,210,204,212,163,277,270,213,187,192,248,250,254,219,343,315};
const static uint32_t LSTM_01_biases_forget_gate_dims[4] = {1,1,1,48};
const static ConstTensor_t LSTM_01_biases_forget_gate = {&LSTM_01_biases_forget_gate_x[0],&LSTM_01_biases_forget_gate_dims[0],-1};

const static Weight_t LSTM_01_weights_output_gate_x[4224] = {-76,61,12,84,87,21,82,149,89,77,135,78,69,26,153,96,24,202,79,143,59,38,69,86,218,-15,166,214,135,63,57,85,106,137,175,78,232,50,216,50,79,10,18,-5,-72,18,212,201,202,4,5,-134,-14,-86,126,-67,22,114,40,-56,69,117,-75,-253,69,6,-58,96,-24,59,16,253,-120,-15,-58,-115,-52,-177,-51,90,-47,-21,-60,19,-78,-35,153,74,-83,134,-37,-82,27,-53,114,-54,-32,46,-116,36,-62,-15,122,109,49,-71,15,-31,-157,13,36,-52,-120,81,-61,40,-78,99,76,68,7,-13,-137,-48,80,-36,77,28,44,-177,253,5,-37,-181,-83,-69,2,30,173,-97,109,-45,46,166,-91,-17,-13,32,-53,-80,-105,-47,157,26,-62,-19,-54,42,-87,133,-226,15,129,-45,-15,11,-114,163,-39,-67,-68,155,103,-91,74,70,92,-28,12,76,-60,17,41,-51,183,174,62,71,72,71,95,-40,104,149,-10,-48,-53,118,67,-44,130,63,-20,92,110,-12,-70,-97,129,-3,134,103,-77,-5,128,-32,120,7,171,-115,74,-30,12,-123,112,-34,137,-229,-37,-118,25,22,-71,-119,100,-70,-84,-3,-179,-4,-7,13,-49,147,-5,154,47,-72,-7,-48,-120,49,-60,-2,6,-210,113,-51,-165,9,17,31,-90,61,-19,-120,-81,193,117,2,29,84,150,77,167,45,74,-31,31,34,-55,7,82,21,120,-55,152,27,47,157,142,50,100,104,55,164,-99,118,61,158,-12,128,-62,138,-27,-15,-69,-187,-65,-37,79,-35,131,55,58,-92,118,54,-99,1,167,-61,54,109,98,-114,3,82,13,52,-91,100,-24,134,-13,101,-1,-107,89,-15,82,8,199,-87,-204,81,81,-209,-119,-26,68,-146,81,-43,191,29,-59,157,29,-81,204,88,180,24,64,51,155,105,214,246,76,225,40,93,192,100,9,146,-6,9,-15,25,6,151,10,-7,82,31,154,82,130,-43,254,-57,-88,-180,-115,-9,-81,-40,26,-49,-23,-6,80,-124,180,134,-7,314,22,110,63,-26,-192,6,-56,9,-11,-51,-41,1,-118,80,-58,146,-32,41,-48,-36,-102,-2,-75,-30,22,43,-127,41,-119,-120,75,-93,102,-21,113,75,41,79,85,201,-56,-30,163,137,91,-57,112,42,27,8,73,195,122,30,44,7,208,149,153,185,99,94,136,34,217,51,98,52,202,120,-91,-32,-14,-2,14,-22,-16,-1,9,-99,53,-130,-9,144,-37,-27,-64,92,66,-18,127,12,-99,-9,58,-115,21,-156,128,168,-45,-190,-72,-104,78,-177,-32,101,87,-70,16,98,97,-45,-69,-33,-56,55,150,11,57,205,89,161,115,166,250,122,64,70,54,-50,94,171,-96,1,171,55,141,123,203,-41,85,47,0,123,66,-42,-56,104,-89,89,-36,173,152,54,96,97,169,89,144,-46,65,165,14,36,22,-12,13,4,55,212,109,-59,133,-217,-109,-89,164,-173,-102,-71,25,184,51,127,7,57,-35,208,-22,-98,-155,-137,26,-31,-3,-12,82,-37,80,-10,-36,6,73,-163,32,136,6,11,-133,-76,-138,-130,60,-188,-68,71,-38,-30,-30,-113,-97,-69,127,-80,-30,-34,-96,-113,-181,-5,71,81,-22,92,45,-102,-27,-38,216,57,196,-19,-1,-2,-12,-75,24,111,-109,91,83,226,54,-29,-49,-32,146,66,-46,16,-47,136,42,25,420,191,-26,-160,-11,6,-136,-34,-96,118,40,102,-123,19,-29,-75,-126,27,-179,-32,-36,44,-48,-50,-83,140,87,80,20,-98,-2,-37,-195,-48,-81,-139,-56,82,51,93,5,-127,-36,6,46,10,-66,-56,94,151,3,79,141,38,143,51,120,3,69,67,-37,92,154,121,142,124,110,121,-186,55,-155,55,-198,-33,-41,-155,36,192,10,-94,-25,74,41,153,83,-9,15,125,101,-40,-90,-235,248,114,37,137,-19,110,-161,241,3,-32,31,-107,100,-44,-47,22,-30,187,-17,-12,57,-149,-75,-129,36,89,18,-57,90,103,65,91,115,-15,108,88,66,19,-62,-92,3,-77,89,74,-87,-36,-93,-76,26,10,66,36,127,-99,-72,-13,147,155,65,119,-70,-88,148,-67,-73,-99,-200,78,-97,-40,27,-19,70,40,-186,23,-117,256,-154,-13,37,30,113,141,218,61,-168,-24,30,-89,-47,-58,-12,166,0,-57,126,-18,-58,62,12,-76,73,6,262,15,-10,-73,-76,63,43,-97,61,26,126,126,149,147,-3,121,57,91,-56,50,-95,-26,115,77,-6,-13,132,90,-20,29,-94,-132,-27,-31,-43,0,-11,13,96,158,-9,-3,70,124,-66,-32,0,32,219,-100,-38,65,31,52,-120,-187,156,-80,-17,-26,-55,11,-15,39,36,-86,80,-102,133,52,-199,-73,76,104,99,-119,5,-134,-71,71,29,20,94,-75,-125,16,7,61,-34,199,56,-275,0,-119,124,-65,-105,66,-10,163,14,43,-27,182,46,-70,22,66,108,-24,-73,-25,56,73,-13,37,166,127,184,-3,195,-34,-55,157,71,80,88,97,-61,16,16,14,-107,29,87,83,36,-28,72,-49,31,-73,-26,-19,-131,15,87,87,53,-127,-5,99,101,32,99,-138,-155,28,-138,108,15,-77,-42,-8,35,-61,-52,128,36,-138,-129,-63,-112,-123,39,64,-3,80,-73,140,-178,-81,-106,74,-17,28,-32,-3,-128,47,-48,-84,-8,-66,-117,69,-53,-116,-34,84,-75,-84,58,-72,2,-144,66,86,-89,-52,115,-31,-55,-123,-39,-94,-80,-156,-60,-4,-159,-142,-41,-98,103,49,-145,-60,-80,73,144,-81,66,-2,38,47,-117,68,-52,-19,45,-18,90,16,21,-112,-45,-69,125,127,39,-52,-106,186,138,-80,-106,123,99,-3,145,0,-70,29,5,-221,38,31,-100,-94,-54,6,42,158,49,103,-6,73,-34,-106,-66,113,94,-46,-11,34,100,-27,-110,-32,-52,68,113,149,-58,77,10,-26,-53,-6,-19,-148,-142,47,-145,75,49,-28,44,162,-5,-25,77,-13,74,95,-68,165,126,-4,12,10,91,-100,63,-70,-123,134,-36,-74,130,70,-66,-129,-106,22,-186,-12,115,113,66,39,94,1,130,48,-104,73,41,-24,-10,1,-238,48,105,-60,207,46,72,130,8,77,-71,83,-35,186,-58,-41,169,145,93,-23,-66,7,171,142,154,42,-53,84,79,20,-98,79,88,-77,123,20,-20,177,100,3,167,-7,108,215,170,125,206,52,-3,-51,23,-44,-11,45,156,149,-98,-19,20,22,-92,-171,150,237,45,-158,69,168,131,-52,4,-190,144,-51,7,112,-83,28,-21,109,-1,24,41,29,-110,-154,-249,-82,-57,162,57,-36,-113,-104,12,38,-155,-76,-10,-173,17,85,-91,-36,87,-63,25,-44,170,19,2,-90,-44,83,113,-49,-27,105,76,-58,-54,-115,-5,-65,9,15,156,137,121,42,76,157,100,9,134,78,-122,130,-4,-20,-110,-68,92,136,-133,69,165,-94,-14,-62,59,-22,-158,54,-90,4,261,8,-60,51,40,-59,187,-93,-149,-5,10,12,-104,-49,212,-43,-297,-178,-113,-12,-122,104,-47,-48,-65,-102,-25,21,-18,56,30,150,90,135,-113,-73,-150,-1,-21,-17,116,-32,174,-78,99,-89,-73,-73,-38,157,6,-85,9,-32,-32,-84,63,-69,59,135,-75,177,170,-60,-29,-16,-101,36,10,240,-139,163,-86,143,151,55,19,113,48,5,12,20,-197,-98,-71,2,5,104,-35,-85,-5,29,-96,108,108,-109,30,192,84,195,-22,92,-69,-98,-94,-163,-73,-215,126,179,19,-2,-112,81,85,108,-77,-31,-48,-4,8,-37,-17,120,101,76,-70,-17,62,83,142,-9,13,110,7,-32,-52,88,-54,173,87,76,56,-114,79,118,129,135,-75,92,37,154,-9,131,55,181,131,109,-9,6,80,127,74,-75,-122,-18,-197,-166,-37,17,-172,-118,-10,-87,63,-41,-220,-90,26,59,-47,-152,129,81,-122,50,-222,-22,60,-67,3,110,-4,150,261,12,-54,9,20,-160,23,-118,-7,42,-18,-196,53,-3,-109,-37,2,-160,-126,-37,-29,-165,129,81,-29,103,-64,132,130,26,-130,29,-94,16,-88,8,-3,95,178,52,78,78,-25,185,32,7,96,29,173,99,-189,59,-210,-30,-15,-86,-99,-51,-35,-81,107,-44,-71,64,-18,3,256,235,4,-147,153,-80,-41,30,-9,7,38,91,-88,12,37,30,192,43,73,85,-160,-33,-21,10,-68,-30,-154,-39,-4,52,168,39,-44,-93,101,22,-154,35,-70,-7,-50,-66,-158,-124,-38,-1,119,54,118,74,40,32,-75,-16,77,-40,119,130,-31,-9,69,200,55,97,132,85,-3,214,68,-15,166,155,-147,-42,146,50,-49,3,131,-100,230,-172,-69,-2,-106,36,-135,51,-101,99,-11,-11,34,126,30,125,-111,60,-23,20,36,42,128,37,-52,0,-139,-80,11,-28,-25,57,88,221,-140,90,-33,-100,-135,-71,162,25,109,-138,3,-30,55,130,-31,-72,-49,-37,31,25,-49,-70,70,-25,-25,116,120,117,95,92,154,84,61,33,142,52,176,179,191,201,139,244,67,125,171,50,-129,20,-128,139,54,-44,-263,-63,55,-46,67,-76,27,-168,-152,148,5,-61,-30,-118,-14,76,91,-24,-182,-94,11,15,62,122,-163,-141,-112,-42,-207,15,178,43,5,110,-12,16,-106,-25,-11,-6,72,-36,74,-48,73,-45,134,-36,-39,36,125,53,74,63,92,9,30,41,-96,29,130,106,89,-22,182,-14,48,56,133,59,78,95,-60,-81,-77,-19,-60,7,82,-50,36,-66,65,-45,-6,11,67,26,71,14,38,-25,-81,-73,5,-45,65,87,-161,-137,-76,-56,87,-314,-65,-107,-70,153,43,69,89,-7,103,204,9,32,-38,32,127,-143,-48,-99,4,2,-28,59,-54,89,-195,119,-3,119,-37,-31,-203,-72,-83,-103,-88,-128,-37,-149,-52,-66,92,-54,-15,52,-130,-206,-70,2,-132,-140,-252,-146,42,30,-66,6,-90,-71,15,-60,120,187,171,87,-37,-77,-30,-46,132,152,9,35,12,105,111,-47,210,-184,-93,-176,7,-69,-8,6,-114,230,-10,14,-35,-184,36,55,67,-117,-47,-93,-25,31,-11,-88,60,70,30,52,20,85,178,48,25,-161,-43,150,-91,-36,-170,-186,12,-3,-76,-107,-44,-93,-28,-110,-163,-313,-145,37,-129,-199,-25,-77,-150,-66,-75,-98,-74,-57,-8,11,-197,41,11,-122,56,-68,-52,-156,-164,-84,148,65,-85,-143,143,-13,-102,-78,-50,-99,21,67,19,-246,1,99,-87,-108,227,174,-46,194,-72,-3,-163,-10,-161,-209,48,4,2,-71,89,-97,3,5,-16,-152,82,-3,37,38,16,96,0,138,-70,23,153,63,-23,16,36,-86,87,35,118,-27,209,-21,-77,130,-31,99,61,75,-4,114,151,-37,93,106,-54,86,73,118,-37,41,8,75,-51,65,-65,-24,78,-68,55,-7,-40,13,160,-91,89,-4,88,30,-3,81,-229,109,-38,-16,1,54,-168,64,36,123,-46,-26,197,-1,-25,84,-71,193,179,18,-26,70,118,70,-101,6,-4,114,78,66,-94,40,212,3,-76,-134,250,-177,44,-24,73,-15,113,36,-120,-91,-189,-26,107,13,-219,-75,-155,-249,42,23,26,-162,-38,49,-104,11,-27,-45,161,-46,40,-124,65,145,-118,25,140,-10,90,38,-41,-101,83,126,60,-75,4,-161,33,77,-144,111,-7,196,-73,-4,111,23,-40,-30,-129,-10,113,131,-63,88,46,-7,-111,-150,-192,136,-18,3,-1,122,-91,208,-96,132,81,158,-105,39,-356,-196,153,247,-171,-70,25,19,-159,141,-82,-134,74,-99,-60,110,9,65,-109,17,-131,-135,-148,-145,-112,37,29,43,25,-91,-87,74,-81,100,100,-113,96,101,146,10,71,8,129,131,-69,-29,24,21,160,125,118,1,90,-163,49,-58,12,-132,59,157,67,147,-162,6,-41,-113,-58,54,-73,-39,106,-69,-45,-152,-6,-172,17,-60,66,47,175,54,-47,46,-138,-60,17,58,-18,20,-87,36,21,-21,-46,36,33,-67,160,-6,116,-92,-5,153,56,-69,113,-132,19,52,121,-73,-29,39,135,-60,24,-17,-38,88,137,-30,170,50,72,-20,185,138,66,-121,56,-20,-42,-98,115,56,-76,-34,-79,-40,-19,74,41,-15,-11,-27,54,-88,-164,96,156,-19,-48,-162,53,45,115,-189,-157,-68,14,-48,147,30,-141,-138,-9,-2,127,-87,76,-13,84,28,-138,1,-49,-49,-100,-34,82,-125,85,-56,88,-154,64,46,-77,-192,-14,-175,-122,-211,-144,-50,27,-190,65,83,-48,-42,-91,6,133,-62,-2,-149,127,-62,-158,-31,23,-123,-89,44,17,8,34,57,93,-69,138,3,-73,89,-67,-134,-79,15,-104,19,-220,0,-107,-123,164,99,68,-103,-123,156,22,163,77,-3,294,63,-8,-127,141,135,-48,121,94,94,127,-78,17,43,-226,-73,-153,76,163,169,104,133,-263,-24,-61,-170,-45,-101,148,-30,170,100,-56,30,-66,161,48,-89,10,4,16,113,106,-80,6,122,-114,74,68,45,53,96,-56,-22,187,87,38,132,-8,172,31,31,91,113,78,-22,126,110,169,-164,-172,-19,-20,3,-7,-7,126,43,91,26,-48,164,49,-143,58,-37,13,-100,70,54,11,48,104,11,142,125,-20,102,91,-18,-39,-116,37,113,-43,119,39,102,13,55,38,-17,-10,125,25,-66,-4,77,-10,-15,138,102,206,165,165,47,29,-33,70,-82,90,-17,54,-39,166,-27,-6,133,185,195,50,159,199,-6,29,189,151,188,-43,-7,13,-50,-23,-61,-33,148,169,118,-61,-268,26,34,3,140,-23,178,25,-149,-94,-97,129,136,69,-41,80,-78,20,-31,47,-107,-75,119,-67,107,-43,101,85,94,-34,102,72,-41,8,-55,-56,79,117,219,14,108,-68,73,77,-11,-63,43,5,48,-14,-82,26,-13,61,34,65,15,119,-167,-64,42,11,-52,-66,50,-13,-48,-19,-154,-138,-99,38,-148,-31,-73,172,107,66,-18,152,41,74,146,118,123,-148,-80,-72,66,123,5,-171,28,156,156,-22,92,23,27,77,-90,-13,247,173,-181,-132,136,13,107,254,-2,153,47,23,53,-206,-145,23,-227,-190,5,45,190,-176,71,39,66,-64,-106,-60,-108,-4,-47,86,58,-59,36,-103,35,89,116,139,176,-26,111,-93,109,-78,134,-80,-81,41,-23,15,-68,59,-111,-111,-95,103,24,-98,55,70,-59,-47,-67,-33,-110,-78,99,-19,121,196,-108,44,70,0,-58,-216,43,14,-48,-119,-110,93,-25,134,-47,52,35,32,13,82,-12,56,14,75,-49,225,54,48,-129,76,-45,-119,12,154,21,-70,-66,66,-159,-39,79,147,-83,-39,-45,223,36,-7,163,-69,-2,169,65,31,141,195,210,53,169,188,97,115,46,4,-34,-93,8,-20,-109,39,-29,16,-68,63,-58,-1,-77,-74,-60,97,45,-72,140,26,60,136,-55,237,-13,-99,-90,-38,-98,14,30,-145,41,46,-166,34,-28,174,-35,73,59,45,3,167,13,33,1,8,-110,-103,69,106,-47,80,-34,6,-23,-25,-65,-42,30,-184,113,102,-155,141,-48,135,-106,84,12,138,52,203,-25,133,-100,-19,171,12,139,50,127,120,-62,76,100,58,-7,-89,-58,43,78,147,8,173,43,6,120,136,-80,0,111,-71,86,128,-48,114,84,-14,-73,24,-148,-6,-44,-181,-63,43,-1,-105,83,-42,-84,-74,-64,-78,156,42,-184,66,32,103,-86,107,-57,-63,95,13,-35,-59,-18,77,122,-139,-27,-126,-195,17,-67,5,-161,4,-97,-108,111,-78,-29,-31,154,120,-100,56,-12,-116,-141,-249,-50,-101,-35,71,-12,-130,49,-177,48,33,-58,71,-27,-73,-177,-133,-111,-177,-114,-133,-150,-90,-45,-80,-66,12,-31,134,-42,109,130,-123,-24,-155,20,-174,-7,24,52,133,99,157,13,-13,72,-38,-41,-197,2,-53,-80,113,-59,90,61,-45,-56,90,-86,148,132,123,-34,30,160,9,-78,-83,-348,-104,220,-28,-39,18,-86,1,50,2,12,-14,-51,25,19,-56,-44,1,41,83,33,127,159,85,234,43,134,53,82,10,-29,7,-65,-14,124,-1,185,145,-36,56,181,112,29,168,59,-11,48,123,93,198,259,72,225,-106,24,21,11,-283,-12,-107,-23,-76,106,-100,-50,-46,-242,-27,-29,53,-26,1,-64,29,61,-112,56,-23,-14,101,100,-59,202,7,135,14,-16,-66,-96,67,-12,-105,121,-30,84,-101,-18,-50,107,12,18,232,179,28,22,-44,138,10,88,-73,142,100,-48,78,88,62,-82,47,-62,148,66,4,-57,128,24,-127,122,67,107,90,24,107,-32,166,154,-52,-103,79,108,-55,-52,154,25,26,31,43,-231,-188,-158,33,49,-88,-157,-58,158,18,197,-66,-6,64,116,87,-76,34,-124,-187,-108,171,213,29,8,-94,-46,-20,76,159,-202,-90,-90,177,133,-174,-21,-55,-155,-127,-140,-68,177,-1,13,-76,97,-109,-136,-115,-183,-30,-241,-179,-120,113,109,35,-65,102,102,120,-137,-58,-88,-78,-126,25,-20,-170,-13,34,-59,-87,-34,183,153,27,61,-13,-63,-88,145,-138,46,-155,262,-165,-200,51,-88,-60,-62,16,-25,-18,82,6,-15,170,78,6,28,153,-47,-157,-134,30,108,48,137,-31,37,-105,66,-21,3,-208,-8,-182,244,10,-81,-53,115,224,-180,-224,47,200,150,-34,73,148,103,47,91,74,19,92,57,77,-78,35,-14,-26,17,-120,68,-122,-64,46,113,-8,45,31,153,-22,113,-88,100,-6,13,-99,75,-49,-35,24,-120,-25,67,81,-93,-36,34,21,106,-19,-104,23,-14,18,54,-35,-14,-122,93,27,34,-109,-114,-39,-187,11,13,59,23,-161,108,29,-67,98,8,26,-72,-32,-101,10,103,92,128,155,6,41,-64,-10,-6,128,46,41,-119,-170,-79,113,46,172,195,190,-63,-71,-36,124,83,57,32,-20,129,62,101,-17,-110,-47,-24,55,65,42,-32,-128,-96,4,37,-102,-47,-16,-57,-41,0,-147,-164,302,-59,-118,-189,-127,-71,-158,-99,75,-100,-13,54,91,-66,166,-19,-237,29,-116,97,85,-25,9,-108,202,109,-250,34,-22,-100,-22,-13,-152,16,68,69,-199,-152,-164,-91,-162,-54,39,2,80,7,154,63,-209,-146,36,23,-27,46,30,-35,21,-115,-72,-107,-7,11,-35,-129,-173,-118,-120,77,-100,28,72,-120,-147,-115,0,-77,-146,-34,-30,73,192,36,77,214,288,255,145,190,-32,8,-172,54,-149,164,-68,30,171,45,53,143,-114,103,-53,-211,185,124,207,-40,60,-97,-31,-201,-98,184,-91,-52,-159,81,-139,-83,61,-113,-31,-60,-253,-21,-89,-73,-66,49,58,-71,-8,99,-28,20,-93,151,38,129,-9,188,95,1,32,248,2,54,176,36,-57,146,-32,169,5,53,37,33,-43,45,173,43,99,101,-17,-28,-51,152,180,189,13,25,-39,34,77,8,2,-151,78,-70,68,-64,212,113,2,1,-111,-85,-66,-73,26,-87,164,25,-181,14,-5,35,-205,0,40,169,154,3,74,162,-37,-83,23,37,-17,-146,-1,-59,-55,27,8,8,-104,-38,-27,-94,61,-63,-137,-63,-39,-59,59,-10,71,2,9,-8,-26,148,-14,23,-17,-73,83,175,50,136,123,78,198,107,71,115,21,122,17,-26,125,14,49,-34,-9,-15,33,210,29,226,-11,-66,-49,202,-38,70,-33,267,117,71,75,-195,-81,-75,-157,-119,-154,107,37,-15,139,86,-212,-68,59,117,-140,25,-116,71,240,108,54,-50,54,-202,-59,122,-143,6,-29,128,-52,67,-56,130,35,-216,35,8,-96,-61,-155,-241,-148,-175,-49,-136,36,89,-51,40,29,28,-79,-29,-102,-124,-135,-85,-236,-118,-122,-200,32,-185,79,11,33,-29,-74,-112,3,-114,-164,-91,16,-155,-157,-116,-69,66,66,-31,56,-130,-225,-97,26,78,-7,-70,-132,-27,-120,173,128,79,-23,-5,-152,-64,-133,-35,135,31,72,47,-30,-38,-240,-76,40,-58,-75,-109,68,83,18,36,37,-39,-292,-46,36,-152,141,-143,-73,101,212,10,45,173,89,18,-9,44,154,-37,94,-84,-54,166,-112,-13,-100,-165,-94,127,33,20,39,119,-93,-2,-81,-1,84,104,82,-118,106,150,-26,-23,-57,-128,-45,-95,67,26,-133,29,87,23,49,61,58,-113,98,-46,97,-53,116,75,132,49,-53,120,115,-25,-21,64,-128,-80,-46,-127,-148,0,-1,-166,70,-87,82,-101,-40,44,115,-11,178,-84,66,184,49,39,-71,246,32,80,208,147,42,92,-55,54,-86,-21,-6,166,-131,-64,136,37,-55,-17,-7,167,19,133,-82,-5,12,127,-18,-62,152,116,-105,143,137,73,-13,-133,49,-144,-27,-176,-167,157,-213,24,79,42,103,-116,202,45,55,151,-66,-170,-49,126,-138,-172,-64,-105,-73,-99,67,54,-21,73,-9,8,50,-61,-36,-43,-8,-112,135,55,43,-131,66,-34,-22,-245,-63,89,142,158,98,-131,-17,138,112,51,133,28,-82,25,30,199,98,-45,1,71,-40,-187,-60,45,-20,50,-31,-31,139,193,204,12,50,61,-85,36,-43,-110,44,-71,45,102,-10,62,-143,-24,143,89,48,-34,204,82,-72,195,-52,-141,-91,15,-163,76,-117,2,91,59,-63,-16,-63,45,-84,-69,-42,42,128,13,-20,37,76,48,-202,66,117,-3,-82,-11,-62,148,1,-138,61,-107};
const static uint32_t LSTM_01_weights_output_gate_dims[4] = {1,1,48,88};
const static ConstTensor_t LSTM_01_weights_output_gate = {&LSTM_01_weights_output_gate_x[0],&LSTM_01_weights_output_gate_dims[0],0};

const static Weight_t LSTM_01_biases_output_gate_x[48] = {59,17,165,44,260,-8,258,52,100,237,-52,54,-281,-278,143,-222,-170,-67,-126,105,265,103,-157,-35,121,-418,136,-189,-113,-25,-36,97,1,-3,-185,98,-130,-141,-76,-128,-117,-75,147,108,-129,-206,0,-123};
const static uint32_t LSTM_01_biases_output_gate_dims[4] = {1,1,1,48};
const static ConstTensor_t LSTM_01_biases_output_gate = {&LSTM_01_biases_output_gate_x[0],&LSTM_01_biases_output_gate_dims[0],1};

const static LstmLayer_t lstm_01 = {&LSTM_01_weights_input_gate,&LSTM_01_biases_input_gate,&LSTM_01_weights_cell,&LSTM_01_biases_cell,&LSTM_01_weights_forget_gate,&LSTM_01_biases_forget_gate,&LSTM_01_weights_output_gate,&LSTM_01_biases_output_gate,LSTM_01_output_dims,LSTM_01_input_dims,TOFIX(0.000000),tinytensor_tanh};


const static uint32_t LSTM_02_input_dims[4] = {1,1,1,48};
const static uint32_t LSTM_02_output_dims[4] = {1,1,1,48};
const static Weight_t LSTM_02_weights_input_gate_x[4608] = {35,-36,-105,-32,89,46,-52,-66,126,-34,98,-69,95,-80,88,1,-65,-108,-71,-93,-92,-134,-114,-23,38,111,-54,-73,-83,139,-21,-6,22,70,-84,-47,-116,46,42,32,104,-107,-9,105,-43,-101,-78,36,77,65,-126,13,56,40,136,44,-138,-94,17,-20,33,11,-33,-16,-15,201,72,-63,-99,-18,61,-66,25,-46,147,-90,162,139,65,-134,-70,-45,-37,-27,14,-84,34,130,75,123,82,70,13,-103,-21,35,-328,-27,30,-138,-120,-29,84,129,125,127,-101,110,100,-144,-29,28,-40,-5,113,-114,5,14,22,104,-68,-46,102,100,58,-12,-92,18,-10,-14,-25,-143,-51,-130,-129,83,-30,41,-174,-66,-32,4,-26,-104,25,62,-154,-137,24,105,32,20,246,-10,20,89,-182,-189,-83,-210,79,61,-52,192,-58,-49,-90,-23,59,-51,-127,-20,-53,173,-61,162,-41,-54,-32,186,6,32,8,49,-57,44,145,65,-6,-49,-214,-24,-210,-14,-83,94,75,22,-142,-181,13,158,21,102,96,-81,167,-35,19,8,-40,15,69,38,-1,-41,81,-19,129,17,10,-132,-148,-29,50,-157,-28,-1,-8,-100,-29,-101,25,-44,106,-221,-129,-55,-70,16,-58,191,47,-56,25,-48,-14,-111,-74,35,70,-224,206,155,-75,-1,-74,110,-120,140,-11,19,-35,-102,-15,81,-354,-30,-162,-73,49,68,-3,110,-125,110,-46,-125,53,-13,39,46,104,-56,-29,-25,-11,-143,79,-62,39,0,109,-6,-10,-21,-100,37,109,-115,90,-108,-42,-20,5,-25,1,27,23,4,-105,-80,-78,-73,-69,110,-36,-17,-12,55,-55,23,-82,15,60,-67,71,-1,-67,-92,119,-130,-143,67,86,-86,16,134,-60,149,136,42,-28,-28,-6,127,-4,44,-49,103,55,-69,82,-103,-12,66,22,5,-106,-89,8,32,77,54,218,112,-72,36,75,-42,5,23,-128,49,105,63,-115,35,-72,-151,-150,-24,-103,169,7,-53,-147,-60,-111,-104,-1,-119,-25,-3,100,111,31,-97,170,104,-115,5,31,-75,-61,-4,137,-105,-11,-142,42,-91,74,57,-38,-54,-79,146,-18,110,-71,-135,58,140,38,-54,99,96,68,118,106,-88,-22,-68,131,-7,-113,46,-175,-135,62,-29,159,134,-116,15,-67,175,-102,-36,41,123,-53,-3,47,-19,-11,72,83,-63,-31,224,132,130,47,-268,183,44,-87,-20,155,42,33,-28,-66,161,-9,83,38,64,114,-54,-62,7,-165,-107,54,139,-16,138,-86,-78,-135,27,79,-62,85,-122,-30,132,-61,-20,70,72,104,-48,113,56,-41,-99,-82,15,84,47,-181,-11,-60,5,52,139,5,71,-4,124,69,-42,-30,21,-82,232,156,136,-87,-76,-152,-33,148,-67,-146,13,-7,-125,54,-118,34,13,5,70,-76,49,71,-99,86,-145,59,93,-26,0,-17,19,-2,-34,65,70,163,-63,128,-51,151,95,32,-61,-185,-201,-78,-207,95,32,131,-32,-67,17,-38,-91,44,-74,7,-103,73,27,37,153,90,72,-28,53,-8,48,32,112,38,63,105,39,116,99,-113,-29,68,-71,-2,34,91,-114,14,-100,72,-21,-85,-91,78,-98,-52,50,-113,-57,44,-39,34,122,-55,-20,-55,-92,59,-145,0,-105,45,-49,147,69,-77,-10,-57,21,-104,61,106,-22,35,-10,29,-149,126,-116,-92,73,149,17,-162,96,45,-118,13,-113,61,-35,-5,-96,-90,-5,84,-112,84,-90,48,101,-222,60,-87,-48,-140,14,6,47,191,170,16,89,108,45,-193,20,62,5,108,-63,21,72,-7,31,-77,-136,68,-174,-89,148,96,-2,-8,-159,-25,-172,-8,-105,209,-116,-78,56,36,-101,-110,-170,119,-130,-2,-155,-131,65,-101,-230,106,3,41,-68,-67,-186,172,-2,-117,98,153,-52,-72,-15,-9,126,-107,-109,86,22,-122,-94,-208,-41,15,-151,-8,-128,25,-103,179,-34,43,-35,-178,-63,-148,-81,97,75,-97,-44,-26,47,105,96,15,66,95,16,25,-119,70,156,-44,111,-106,74,-124,-69,-86,-34,-74,105,-76,-99,-164,45,61,-119,147,28,91,-114,-54,-96,-60,83,23,10,61,-43,-5,-16,5,113,0,64,-26,55,-50,57,-72,-97,-65,113,127,7,-15,167,6,-58,-14,-25,14,69,-10,4,51,-241,98,47,-171,62,148,-24,14,77,-116,-44,-31,103,76,82,-47,41,135,-17,-6,-6,-222,-61,-89,33,14,45,-99,-71,102,-99,92,-117,42,-29,-101,7,69,-73,-2,-139,71,118,127,-65,-142,21,-3,-91,-38,-85,47,72,166,86,20,120,65,81,-84,-137,-72,-81,-27,38,62,56,-127,129,-42,-35,55,-226,140,63,140,0,37,33,-18,76,-3,41,-25,3,-34,-46,-167,-78,66,57,55,83,-152,-30,111,-16,103,-37,-70,56,-38,-56,-127,58,-68,28,-98,22,-11,20,89,47,-80,8,-163,-135,129,5,-117,-84,-139,-43,69,38,-20,143,51,97,-14,87,69,-118,81,-97,-55,8,20,114,70,106,-65,115,-101,80,39,119,-81,104,-5,63,148,80,77,-139,-101,-59,-107,28,-47,-33,-29,-79,-100,-118,-61,-89,94,93,-101,22,39,14,221,-105,-13,122,-25,110,-48,-6,-242,38,167,25,-61,80,-68,-210,-201,153,-42,7,-20,-38,-101,70,134,18,66,-81,-107,80,-63,38,-93,15,-72,-49,-163,-107,-4,-108,-11,-150,12,-118,30,-2,148,111,63,17,-103,-5,-41,-32,7,36,46,-63,66,-104,110,11,81,-124,75,-121,-18,84,-14,74,135,131,6,31,41,146,87,-57,4,52,83,-133,6,110,5,88,-96,-41,118,44,198,97,107,41,17,33,131,-9,33,25,-117,48,-29,113,-28,51,11,-7,157,-104,-163,-36,-32,-90,134,88,10,11,12,-90,-125,25,1,-127,26,-83,-63,134,-51,-53,145,-125,40,70,-30,236,-93,87,-227,175,-79,188,160,44,214,-36,115,121,-5,128,-131,102,-136,68,-35,-71,-2,1,-17,-54,-33,122,-198,2,136,-3,28,149,-132,61,-33,32,92,-163,-80,69,40,-10,179,-9,-219,-20,-109,110,-2,-4,21,263,-40,64,-64,167,-38,67,-107,79,-43,184,126,12,66,15,86,-106,-104,45,-179,-66,-35,-42,44,112,-59,68,-39,-35,-168,123,-127,-26,2,-81,42,-219,6,-133,118,62,12,57,-29,9,38,8,52,-89,-90,46,-89,-50,-1,87,94,-36,-17,-42,123,71,-41,120,-97,-66,36,-58,-59,-69,-23,107,-121,38,46,36,56,19,54,4,-146,-137,69,27,-46,-130,-100,26,-33,9,36,-93,96,-21,-6,179,-12,80,147,-39,78,137,-12,124,14,-22,105,-85,125,-30,36,-76,-125,58,-44,-41,-10,-159,86,9,-51,-44,-52,127,-6,-16,-77,132,34,-98,-33,-187,-6,118,6,-67,-66,71,-60,24,-69,-137,-14,1,-14,-180,-67,-73,-17,27,-6,88,-66,77,122,-28,-62,108,-99,-27,76,86,-147,-107,66,154,-137,96,39,-112,-96,96,-30,43,94,-80,90,-43,32,-29,129,65,-91,75,-136,9,40,-89,10,-12,26,68,139,116,-29,33,76,-49,-34,-156,-85,130,-67,-136,3,-83,133,20,-87,4,-129,-20,-32,-86,-133,96,-17,-18,59,-150,83,48,-135,81,28,138,-30,-40,-90,26,-30,80,-17,-131,-17,-98,120,49,-52,-243,-73,-5,-96,-35,-108,47,89,-65,-79,-76,110,-146,-46,46,42,168,139,-106,-147,-38,12,37,37,102,-86,94,-31,35,-15,-20,17,31,-29,88,-2,-12,-21,-133,-86,-39,48,15,41,-38,-105,-50,-8,100,-166,-133,55,98,82,-19,59,-149,58,141,60,111,-100,55,178,26,10,113,-33,72,-36,-112,-122,-29,130,-197,-27,-66,-12,-177,-37,-95,65,-11,138,-143,-33,-4,53,-35,-126,76,21,182,106,-125,-112,82,-62,-109,-3,68,48,26,-19,-52,-3,38,88,-34,76,-101,43,66,-108,85,27,-79,-41,162,43,62,66,-17,-28,37,84,-46,-104,-9,84,-100,-3,-9,-60,-73,-36,-132,5,142,30,83,68,84,102,28,63,127,-142,-227,-70,-32,29,-48,-30,125,129,-16,79,-11,53,108,93,38,192,-118,109,114,-106,36,82,77,-192,-225,59,-11,43,-5,12,72,66,-29,-21,16,7,-18,-131,5,-90,-12,-114,-95,-24,-175,-101,-107,-85,39,9,75,-93,97,-36,26,81,-93,-36,-118,-107,74,36,133,27,-68,-92,213,43,-71,125,-5,-52,-118,-74,119,57,117,212,-81,-88,-82,200,86,52,-5,54,-125,132,-64,-92,-101,189,-2,-24,-29,-11,9,48,-84,-12,60,40,228,143,21,-60,-146,-67,-48,105,-27,71,-150,-103,9,112,127,-56,90,-1,-158,-100,-60,59,4,205,41,-51,1,-176,-114,-56,143,119,14,-17,-64,-9,-15,-94,-15,-78,52,-10,-4,-30,-17,-168,16,-86,-20,3,11,29,-5,-26,-45,108,-21,-67,73,71,-33,-26,74,-10,-95,126,25,-21,117,95,-74,58,-46,24,-47,-13,-6,-18,-17,-44,-28,99,-86,22,-19,47,140,-140,-71,119,51,44,-133,-71,-81,-108,-40,64,-71,-32,26,109,22,-12,102,318,-113,-64,-3,2,84,51,7,-115,-25,-83,137,-8,35,-126,-67,-145,-9,141,24,89,-71,-30,-136,90,-218,36,85,-22,46,-55,-57,39,10,-99,-21,77,-82,-122,18,88,-120,-61,16,90,89,-17,105,-11,106,-160,-134,-29,65,141,5,96,75,142,17,0,64,-61,-22,-42,-45,-78,25,-10,-45,-82,50,11,-70,106,-85,-129,201,-63,171,80,39,87,-40,98,118,29,-17,-160,32,57,-227,105,-8,-39,96,43,169,28,18,78,-65,-27,-196,-132,-6,-79,-115,147,29,-74,125,-119,97,-2,100,124,12,-32,31,-44,-16,-10,33,66,45,-40,-116,76,8,-56,11,5,159,44,-1,-41,28,-11,-61,211,182,-131,23,5,57,-127,50,121,-61,-8,67,-90,37,77,-120,-83,-27,-46,29,-165,-54,61,24,61,90,-7,-125,159,-100,-32,-20,-60,75,-98,42,-2,-81,88,78,-27,-116,79,-47,105,74,-22,-117,112,-42,-84,-63,162,113,-18,92,-5,-70,-70,-53,-164,206,-82,-79,110,-141,87,114,114,116,156,27,-1,31,52,17,-88,-17,89,10,-30,3,-99,85,-81,-21,84,-49,54,-86,127,23,123,-53,-6,-82,65,74,-150,143,-10,7,78,50,-51,39,22,-44,-56,6,91,124,55,-162,-83,-1,-195,-144,-15,-15,13,-43,-24,-49,31,-72,0,38,94,-13,83,35,-134,180,-93,-95,57,-55,45,15,29,93,-98,-46,-106,-82,-129,48,5,-102,-26,-53,-49,20,-178,85,40,-55,-77,-31,-26,23,-4,-24,160,-24,-36,15,-14,20,-38,104,-20,89,-292,71,-13,-87,31,-11,5,20,73,37,117,11,92,-43,97,88,103,-75,118,64,128,-12,75,118,-37,-44,85,-88,10,128,9,-89,-101,20,-53,-108,58,-96,65,-70,-2,-123,-29,-116,-127,-72,-106,96,-124,-102,-27,95,36,38,-44,16,84,-8,-108,-62,138,27,-157,-39,117,-47,-2,-23,56,8,112,76,102,-69,-14,-22,-45,219,-40,68,-110,110,116,-42,-57,117,10,-156,-52,104,-85,50,8,6,188,77,73,-87,106,-16,172,-49,29,-116,20,-10,-13,31,-10,13,3,79,70,-133,175,-137,-18,-50,-88,24,-156,41,70,70,-24,-45,36,-6,-61,-101,154,35,-178,97,-13,11,70,-166,-43,-109,-69,-116,-28,112,49,56,-33,-105,-32,-51,-63,-3,-93,-32,119,-133,16,-56,214,68,-52,2,51,-103,-76,-184,61,-14,61,-89,88,32,143,24,-64,20,-52,21,103,235,131,90,39,40,118,17,171,9,274,-27,77,-46,72,-124,-39,72,47,-137,53,-163,-77,-64,-23,-118,-23,37,43,56,-103,-155,123,55,64,-2,-46,25,-93,-66,-60,-69,23,16,38,-86,126,-23,-61,-35,10,102,90,120,46,-149,-59,40,-3,-78,42,-4,8,123,-155,-14,86,-109,52,-52,-27,-70,-260,12,-92,-27,4,11,-49,-82,213,-61,18,55,144,87,200,-155,-29,-170,-37,28,-3,15,-141,-140,87,28,109,-81,-25,175,126,-9,38,37,91,28,-38,97,66,-156,15,137,-118,77,74,26,132,84,-53,-8,81,-23,87,21,64,-79,57,-97,130,-58,23,33,-234,-288,-7,101,102,-22,4,-105,-108,-12,-1,25,137,-84,-28,150,143,-64,51,50,-112,-147,-39,52,206,46,53,-21,5,28,94,-215,83,-308,51,-26,-47,14,-31,-175,69,148,135,-36,75,-10,24,-16,-47,8,34,0,-61,-183,-68,201,-115,-27,-55,-2,9,291,-6,-118,-4,-88,52,25,34,-127,58,130,9,83,4,136,-40,-77,85,122,-132,-76,140,-104,62,84,-116,40,28,3,74,36,155,38,105,5,-39,94,-88,80,62,94,143,-56,-129,103,-67,-14,114,46,45,49,-49,36,190,114,33,-133,-71,-108,63,-118,84,-128,-105,111,0,-43,128,152,-1,-106,51,-44,-146,-90,151,134,121,-111,-16,-38,22,93,56,44,85,52,-80,-162,29,-226,-175,-51,105,120,22,3,44,-54,109,-72,-51,-83,165,-15,-41,13,-2,67,29,142,-47,206,-68,-43,-32,87,-13,-64,8,-74,24,-58,-104,-42,3,141,-98,56,20,-56,-10,7,-37,50,-240,48,108,53,31,-41,-27,92,47,-49,-130,20,97,-156,-41,132,-30,-63,-25,64,-31,157,18,-16,26,9,143,23,35,-23,5,-240,74,-190,-54,117,217,-150,152,-97,-39,22,-54,-139,-29,105,-69,-197,109,55,63,17,-36,-33,182,81,12,19,-110,-109,-11,-173,50,-80,-154,69,-2,55,44,39,57,73,90,40,-70,-86,116,45,-107,-122,-104,75,-4,113,69,75,183,-66,35,-26,84,-7,-92,-135,-3,4,45,-95,-31,-3,-7,74,-7,-29,-82,48,-60,-19,-10,66,85,19,-24,-33,-29,-5,-17,-89,-52,45,104,31,71,-125,153,114,-107,-182,-10,-214,108,9,75,134,84,-10,93,93,43,180,-60,72,64,-28,13,64,-128,-123,-78,-95,-108,22,27,219,-192,19,126,35,92,25,-13,-59,-15,-78,80,-196,-87,-188,-22,-93,-14,76,-132,-77,-92,-152,-108,-46,-105,-95,76,-5,-20,4,-101,56,76,-19,-91,-160,-40,-100,-196,6,84,81,-14,-146,-164,30,-87,-144,-38,153,52,-53,-53,-30,-1,-141,-194,-153,48,-81,-53,-123,-122,-42,12,-41,34,47,-31,3,6,-62,-121,73,-7,23,84,5,-31,-104,-5,-87,-89,-131,-7,-213,-131,-17,-113,-50,-32,42,-65,-61,166,53,-47,56,-179,-31,-39,-69,120,-123,77,69,-152,-49,180,43,58,36,-29,-136,-9,-149,-83,89,86,69,18,6,142,137,145,187,3,43,-20,84,-148,85,-91,108,-31,85,71,-60,-21,-85,-60,13,130,-12,-66,2,-10,-20,-76,16,79,93,85,-65,-17,-131,21,-5,-10,-20,21,-34,18,-34,48,15,70,17,-50,29,117,62,205,-6,-119,58,-183,58,-64,67,95,152,183,20,-68,-29,-171,-89,49,-202,-66,20,86,118,97,96,48,156,-69,-12,104,-204,-20,-109,-49,18,-205,93,-3,153,-35,-54,147,59,-94,145,32,142,91,-12,96,-82,-3,-12,-102,-105,-11,-101,-29,-17,31,-41,-63,120,-11,136,220,23,-209,172,11,-30,-87,0,118,67,-32,19,-67,155,-113,85,-3,90,27,42,101,125,-80,-2,-80,-117,99,9,-39,55,49,4,-204,36,18,-74,8,185,-111,-17,42,17,8,-81,-89,-67,138,-54,-109,12,33,-125,104,-36,-30,4,90,-39,51,196,-14,-84,78,13,-18,179,88,8,19,103,-73,-21,37,78,-74,-73,-41,-71,-91,-74,47,106,32,53,-89,35,79,75,-95,-71,-136,-49,24,-53,77,-11,-93,-7,-57,-35,-107,66,50,13,58,-81,-103,-51,-30,-92,-18,33,-10,118,175,-68,63,204,-1,74,-28,64,170,25,-58,-127,-26,44,86,80,65,69,46,-165,-21,93,-124,108,-3,-94,-50,48,31,79,35,73,5,-22,61,41,-111,-138,-122,-10,10,101,-37,-25,41,-89,-35,-82,70,-41,-37,-94,59,-15,76,2,28,-108,-38,-151,0,225,-8,-89,120,14,50,-132,-70,-167,39,-54,206,-102,16,-59,-76,144,-13,-38,211,-56,-8,-43,48,56,180,-24,-43,-131,-65,-222,-92,-81,20,-77,24,196,-17,-180,-7,138,-54,-43,-141,-37,-228,-1,21,-47,-171,90,-142,40,30,-36,-13,-52,-69,136,42,-17,-59,87,-125,-33,-170,112,-39,99,-19,1,11,-154,-138,15,-1,-89,24,-43,6,2,40,191,-148,-28,-41,-48,-86,-94,36,-126,-22,-10,77,43,-35,73,-152,-154,29,124,41,-151,11,-44,119,114,-60,39,161,8,32,68,-20,46,14,11,-73,-4,-17,-52,82,-10,109,-84,70,-38,61,-35,128,-81,-47,-18,18,-85,-82,101,-13,-72,127,165,-89,-36,-144,-56,-90,96,48,-117,-5,-16,7,-181,105,-80,105,-7,-9,-76,-12,77,-17,19,-48,-31,-85,-53,55,-10,-88,20,82,200,-153,29,-112,61,-54,-56,125,9,-22,-81,-94,-117,126,145,120,101,88,6,78,4,-59,-71,4,-20,-63,71,-15,11,8,53,-79,40,36,106,67,15,103,-102,-4,-14,15,-20,-7,-109,13,-95,-90,-94,66,-27,22,-108,-46,29,-82,-8,-188,170,-22,54,12,76,-19,-53,94,-193,12,-83,-128,116,14,-32,52,48,0,103,-40,-54,112,75,78,-5,-140,-20,-101,33,123,-46,-28,-90,67,-11,-9,84,-46,-117,-122,92,20,12,39,69,-145,-40,19,106,14,-38,-117,48,56,-90,81,-2,86,55,39,-24,-4,58,83,26,-64,-52,-11,108,34,-7,-23,-100,-49,-86,-109,7,45,55,75,-110,10,-73,45,67,89,80,107,27,-126,-49,-31,152,-49,194,-28,-130,-239,95,66,-160,-23,41,6,10,-123,-33,61,25,-13,16,-29,71,4,143,96,-22,-92,-2,0,35,-166,31,-197,-2,-33,32,-120,6,-56,48,-145,-199,42,6,-47,-45,-85,-136,-94,-17,67,-116,-65,16,33,-90,-31,-85,52,133,39,54,31,-20,75,-76,-173,-13,57,-113,-48,58,125,65,25,-46,86,-79,58,-133,-11,95,-203,169,-101,133,3,-60,-56,92,-41,-86,60,-19,-49,52,-108,73,37,-12,28,76,-11,-69,-109,-119,-83,-21,125,30,-187,45,12,-45,70,-9,3,62,-129,42,148,-94,96,-10,-141,-110,-110,16,180,261,59,117,80,-22,123,-23,-114,-64,-35,16,30,73,-36,-58,120,87,140,-173,105,81,139,63,57,73,-27,-32,-75,-16,43,-117,127,157,159,-67,-41,71,-127,64,171,-78,104,83,-46,-5,-74,-173,-236,-86,-88,-184,-14,135,140,58,-28,-47,9,2,114,-15,64,-65,59,-27,-148,29,-9,-120,45,-11,-35,-71,-160,64,-99,-84,-33,19,-101,-103,61,-44,0,-218,22,83,-83,-111,-162,-26,21,26,-243,-21,-105,60,46,-23,62,41,96,152,173,21,81,152,67,-87,149,-1,-11,74,-108,-115,12,-53,-58,24,-27,97,77,14,-120,-57,-89,101,84,57,85,115,46,-66,136,153,-83,108,-49,-28,12,-93,-73,-74,-113,111,-95,130,21,-42,8,-69,150,66,-26,-11,117,-27,96,-18,-45,-22,46,182,51,59,-53,161,-50,0,51,8,-43,-78,23,30,12,-81,-152,-120,34,-108,68,0,104,-40,39,-76,-39,-106,-186,-26,45,-76,-75,97,-36,35,58,-80,254,-223,-101,-69,-59,146,163,-51,121,139,95,96,-35,7,98,-51,132,-143,51,-62,-93,83,-32,92,75,-113,-82,-101,105,151,-48,75,-23,124,-83,105,-112,22,-32,-84,-83,118,35,14,-12,78,7,-61,-92,43,-66,55,-49,60,133,108,-81,-79,-54,115,-113,-145,-111,153,-89,-25,105,-77,-66,-8,116,132,68,-154,-49,59,149,72,-287,-109,-96,7,60,-61,115,61,-105,-105,56,111,-52,176,-125,-26,-16,-77,96,96,-135,4,-1,-101,78,17,92,-33,83,37,-61,7,-9,12,79,83,-93,10,-83,-109,112,5,-42,128,41,162,-117,25,3,-13,-98,72,-56,15,-14,104,-34,-35,65,50,-32,-45,-72,-33,-82,-49,-40,-89,-70,95,130,37,43,34,86,23,113,33,-81,10,85,-86,-57,28,62,58,211,95,13,15,-115,-15,-6,3,55,-45,55,-43,109,-158,82,-110,100,2,-22,-3,-25,5,-36,-82,151,98,-134,56,-110,-65,-36,-56,84,-137,63,33,101,-84,-211,-17,-12,123,96,-171,-17,71,-39,-12,-41,108,-71,-87,-225,2,100,-38,-113,-81,80,-179,-101,17,-121,-84,-111,67,69,-16,-78,20,-18,-123,64,82,-182,54,40,-64,-52,-90,14,14,24,7,-11,-31,49,112,126,-51,-112,154,27,-7,-81,48,42,-113,23,-20,39,-67,3,-171,7,65,67,-89,-75,-53,-46,-81,3,-3,-64,26,55,37,165,-72,-90,17,135,11,-167,18,-37,29,217,149,-148,91,92,69,-19,52,65,-34,119,-20,147,67,-168,-76,38,-92,-128,-146,9,125,-138,-90,-147,71,-187,-74,-46,117,5,-75,88,-19,50,-155,-141,75,97,101,-141,139,159,-145,44,16,-8,26,63,-18,-104,-73,-112,147,-108,-12,96,107,-79,-27,-34,-38,64,-56,151,61,-24,33,17,-160,91,-200,-80,-31,67,-63,-36,-83,-20,-123,-59,-23,30,-56,-55,11,-240,-92,20,-18,-91,81,-89,166,61,-11,-79,259,22,47,-52,114,-205,-23,64,-20,85,-30,140,127,111,-138,-96,-102,-50,81,-1,81,94,-31,20,69,-129,-30,9,60,32,122,56,73,-96,-57,25,0,-129,29,-49,88,23,110,-6,-5,-100,68,100,-35,73,-7,60,-63,-156,81,70,80,68,31,42,50,-131,13,-154,22,86,39,-71,-60,-24,-87,85,-55,15,-73,87,142,78,112,57,51,-7,33,-126,21,19,31,46,238,-85,-3,-142,19,-112,78,-20,209,112,69,-72,-2,-96,-69,-6,98,80,-76,24,159,142,30,76,147,116,137,19,12,-4,12,41,134,58,24,39,129,42,56,-122,2,-123,-50,101,-50,-176,86,28,-23,-166,-36,-55,-154,56,-68,28,-17,73,80,-26,93,-93,226,15,-76,143,-60,-78,26,57,-124,109,-23,-131,123,39,138,-151,-114,-4,45,-16,85,-99,95,11,79,-9,-70,53,-165,51,27,-25,9,-130,33,73,66,12,-39,82,48,113,17,79,91,68,120,265,-110,212,-156,-60,-16,76,83,-63,119,153,65,39,77,123,-17,-114,-123,-30,-3,-175,21,1,-148,38,51,-28,79,130,-86,14,83,-74,-36,45,89,132,14,-37,-10,128,-99,35,203,-76,-6,6,22,-35,-147,249,93,40,-73,107,126,49,-186,142,10,-199,-53,25,-33,79,8,29,235,-17,-53,40,-22,99,49,59,-1,-62,-25,0,0,71,-48,178,-23,-45,-79,133,-38,-60,183,38,-47,33,41,75,-11,-65,-107,17,96,147,-87,-63,124,-131,49,88,-8,108,-133,-60,100,134,-33,-1,-62,-91,88,-5,-77,111,50,107,-63,46,85,-13,85,26,7,-58,-67,-28,57,-82,-21,19,75,-70,93,-132,-119,-16,-27,-50,67,164,-23,-20,-54,96,20,144,154,-151,58,55,63,-139,63,-24,-28,-19,-127,-76,60,14,-94,-95,100,93,-75,83,-39,61,99,-85,123,48,3,129,-71,-1,52,-21,-242,83,-119,46,-155,-192,42};
const static uint32_t LSTM_02_weights_input_gate_dims[4] = {1,1,48,96};
const static ConstTensor_t LSTM_02_weights_input_gate = {&LSTM_02_weights_input_gate_x[0],&LSTM_02_weights_input_gate_dims[0],0};

const static Weight_t LSTM_02_biases_input_gate_x[48] = {114,128,167,42,-161,-69,-5,-83,132,176,237,-59,-31,-1,208,146,211,69,-33,-92,-27,257,124,-269,-23,-125,4,136,-80,79,79,-2,135,129,186,129,127,-16,-113,-6,-40,100,48,135,66,-43,-54,60};
const static uint32_t LSTM_02_biases_input_gate_dims[4] = {1,1,1,48};
const static ConstTensor_t LSTM_02_biases_input_gate = {&LSTM_02_biases_input_gate_x[0],&LSTM_02_biases_input_gate_dims[0],1};

