#include "tinytensor_lstm_layer.h"
#include "tinytensor_conv_layer.h"
#include "tinytensor_fullyconnected_layer.h"
#include "tinytensor_math.h"
#include "tinytensor_net.h"
const static uint32_t LSTM_01_input_dims[4] = {1,1,1,40};
const static uint32_t LSTM_01_output_dims[4] = {1,1,1,48};
const static Weight_t LSTM_01_weights_input_gate_x[4224] = {171,-285,-130,-142,291,306,-64,-52,284,-26,139,-75,202,104,299,-110,-40,227,-179,284,0,-190,232,30,-102,24,-44,225,-160,51,364,342,221,254,327,-47,332,388,279,495,-58,12,-44,46,-98,4,-64,139,306,-66,-141,-109,-115,-52,-130,-10,-18,115,-186,-28,260,-310,-270,-67,108,131,-221,440,-134,316,-43,137,281,111,-22,-347,-403,-140,-16,-251,106,102,-274,-157,-522,-231,-39,115,22,116,89,7,9,102,229,190,41,42,53,-127,197,-6,151,-248,-174,53,-123,-287,170,126,79,-11,-213,-9,228,25,220,32,186,-172,120,-126,-96,81,-85,27,-53,5,128,-110,-238,-153,80,169,230,-318,100,-152,216,-109,-21,-155,-134,0,-168,184,72,-346,-176,93,280,-43,16,35,-154,172,-124,170,-61,78,20,-4,161,-81,273,-399,262,225,101,-87,3,-57,282,100,-147,-259,28,-143,-283,-12,25,124,-108,-46,64,-34,-31,166,48,46,66,-175,-114,283,-34,-156,144,224,29,119,17,236,211,182,-84,267,150,133,162,-302,-179,29,188,196,-238,-121,-157,-225,183,248,303,178,-99,256,196,309,13,-257,-326,156,-40,-82,209,-280,197,-181,152,179,246,228,-24,-40,-139,-95,36,93,-85,-140,-17,-75,-148,-111,239,106,31,-43,367,203,81,27,-90,-101,-48,226,-69,-325,-49,70,385,393,421,-85,134,226,82,-64,-198,226,249,202,192,126,-250,185,-139,320,-154,229,256,195,-80,-26,184,72,262,267,173,312,141,-177,-37,110,271,164,-23,261,-193,-230,-168,120,-74,23,198,61,-116,171,162,22,-137,-77,534,57,-57,-65,143,-94,60,253,-199,211,179,-82,-147,126,-80,-170,27,-216,37,-377,-265,195,19,185,100,-83,36,-143,35,-17,-357,116,55,-355,-270,-375,57,-285,-370,-467,-187,-333,-124,-445,16,-66,111,216,-147,-85,149,-279,-98,-185,37,-288,-513,-93,-157,254,137,-72,-157,-6,77,135,-32,-199,-163,-182,-269,-261,-231,21,172,-13,41,-17,-64,-212,-164,-61,296,-94,191,-160,302,-21,13,173,-169,-127,-158,-155,-148,-363,236,171,22,-250,99,-65,-314,74,-89,70,33,322,-186,-248,70,-285,-102,-57,234,84,-74,-100,-113,-13,27,25,-129,-139,-30,-62,-269,62,134,79,-30,-254,71,-184,-45,91,-201,-153,-388,-28,-118,-311,-68,-336,-262,-41,-89,188,-84,-200,-106,-198,116,148,-226,-110,-118,223,-259,-189,20,166,-97,81,544,-22,-284,-157,194,-154,-21,63,-189,147,-57,-113,177,69,286,30,477,-105,-78,229,0,-439,322,-15,-16,-158,-96,356,-260,-259,31,-115,-222,121,421,21,122,-157,24,-43,243,-213,30,-138,-105,-186,237,-46,-459,132,61,484,398,-229,-369,149,9,47,-145,-232,-71,93,212,58,191,-204,-58,116,193,33,29,117,-206,-206,-167,-238,-231,158,44,-297,-79,-176,-148,225,53,279,876,147,170,-123,14,-386,-15,289,235,347,-319,195,-12,385,-206,-147,-187,-11,-439,-235,4,358,-18,-69,-259,-248,-118,-181,66,-631,-133,-91,-9,333,203,148,369,176,297,-217,230,151,185,-25,-150,181,374,285,41,94,-55,-446,-132,-38,-429,-158,-181,-21,-208,-316,-430,-311,-252,-227,-204,-285,-224,-256,-36,-195,-19,-122,-44,-410,-54,-83,-9,-127,-191,116,75,-118,213,-65,-324,-243,-407,433,221,468,-131,79,-35,500,-167,5,56,-64,463,-172,-200,-199,-184,-107,346,446,195,-58,-95,-52,-229,163,261,229,192,297,-332,-389,293,-88,138,113,-13,-31,13,-431,495,5,-80,-9,562,15,-347,-3,148,-337,-187,-287,-131,139,-204,-285,-209,-66,94,-194,-163,23,-4,-50,-154,-91,57,-181,-450,-206,-70,31,-12,-116,-47,-179,-186,26,-112,-290,105,-230,-113,118,-51,-48,-224,-45,305,-68,-19,40,65,-91,-300,211,57,83,331,-69,-4,-232,395,218,-118,104,255,-252,191,-229,-248,-149,323,41,23,171,297,-142,-418,-302,211,155,-266,-156,23,210,370,172,166,63,66,-8,86,-238,152,332,-228,-11,-94,160,-277,37,-279,-51,-5,-86,83,-171,-265,106,54,261,-264,-129,-161,200,-148,44,-107,-51,-28,197,46,116,-53,175,-201,61,101,-141,-154,-41,-172,175,-133,-116,-266,-325,98,404,-332,383,-376,-135,-177,-26,22,-312,9,59,271,-379,-91,273,33,125,344,193,53,-22,-36,-37,-154,44,-348,-304,-241,-50,66,-15,207,-161,-305,326,185,-39,31,132,24,160,-74,-75,228,-77,-101,-18,-49,-58,-156,99,-91,-146,218,185,103,245,-151,17,-282,-203,-271,211,12,-2,121,79,-215,108,-160,15,-114,71,-268,93,-112,-230,-60,117,-151,131,-2,-55,174,-52,-17,3,-209,207,-6,135,-676,324,-175,-88,55,42,161,316,-83,346,286,-107,3,333,-421,-35,-34,81,-367,-300,96,193,-15,-52,-17,-72,-22,-170,-255,31,50,-89,115,-3,167,-135,465,-271,-12,-302,204,42,-185,57,-178,178,-327,135,283,-177,132,-188,297,-286,217,-87,-18,-17,-212,87,190,215,-45,-168,246,-165,35,67,142,117,249,-144,174,135,-122,106,-5,18,-258,-321,-203,87,-65,-44,103,-216,235,393,-225,-133,-146,278,-127,264,-15,-168,-125,-70,-40,173,31,-388,-81,42,453,-231,43,-109,129,55,-30,471,-74,-113,274,-451,-175,57,-274,386,-18,-8,162,-267,-126,180,-69,-242,260,-243,153,-153,-179,134,-225,44,-308,46,-63,-302,84,-138,-200,-221,-115,-125,217,-178,-266,-5,161,-173,-277,-89,89,-259,-122,235,218,51,-83,154,174,211,-194,-161,274,86,71,-138,-138,-79,-76,-251,-86,300,252,198,-16,-165,77,200,-183,175,-19,-35,-172,-70,-127,151,93,-352,235,228,125,41,34,-102,-68,81,150,44,138,-322,112,41,-98,71,81,-80,141,-31,119,-181,-19,45,129,51,221,88,-46,126,214,286,199,89,2,245,96,301,8,234,-46,232,221,-123,211,24,36,137,-81,197,113,89,231,42,-75,241,284,118,-25,92,65,-154,16,4,58,-82,273,-276,-135,226,-93,-107,-288,-164,147,157,327,-208,-35,215,-318,102,-285,57,12,144,-71,168,-169,167,167,150,481,120,-80,111,-114,-129,187,-203,-167,-59,76,-33,69,134,-39,-86,135,-2,-108,-96,200,181,-223,-12,-154,20,70,-139,187,-263,128,-10,-114,112,282,30,314,9,141,-166,-71,-249,22,-196,193,58,152,42,153,4,281,-160,-96,265,268,-48,21,191,-104,124,86,318,449,41,-8,121,-1,123,-35,202,-109,-314,48,-93,-37,59,-96,261,143,68,-213,-226,200,-54,24,-271,559,104,13,-91,-102,-240,-122,11,71,71,-97,86,-55,-324,-108,93,-276,250,-205,-63,76,-65,65,-87,-214,187,-78,-322,-68,84,138,-61,184,113,-33,171,-44,-101,34,-124,290,-163,-63,-244,194,158,-175,-84,-210,192,-84,172,-22,42,235,209,-114,172,88,141,-203,-2,133,-160,-32,-129,55,-314,267,41,69,143,88,168,272,-71,120,-94,-16,-523,-220,247,-267,223,107,538,-246,-23,233,-144,-370,-89,12,-180,60,-128,-261,-66,-208,72,-115,86,-224,62,-195,-52,-81,86,-71,469,-179,-74,-108,-25,-158,-159,63,107,-39,337,268,284,251,-97,-143,69,33,239,142,128,-97,108,12,225,-56,62,239,326,308,257,-42,31,298,-79,97,133,205,1,172,15,186,-161,177,-116,198,-36,291,68,20,200,57,-124,275,90,235,46,179,-104,-354,-26,-408,-223,-69,-95,-28,129,-181,150,399,65,235,132,-261,-71,120,243,-54,-253,93,180,7,29,-47,147,-193,232,-101,-63,40,-235,113,287,-118,83,156,163,-40,148,69,166,-182,-121,221,307,-37,286,60,331,-47,-205,-3,-168,-59,150,34,40,156,-204,66,-101,10,189,-161,-138,-61,-106,-79,-74,232,-210,223,279,69,-4,-29,-327,-102,233,-5,96,-98,-310,32,-142,-162,-210,-89,-22,-330,-411,-351,11,-7,111,-403,-206,79,32,-404,4,290,95,-25,-214,-229,-43,262,-37,258,42,-223,60,319,17,-236,-157,-68,-95,-97,29,66,236,-139,42,-202,-34,14,-201,-192,-18,17,361,-128,-10,427,-88,389,-23,115,-186,76,140,-157,69,375,-92,-103,-129,-89,233,272,407,374,-51,136,323,224,504,-274,137,-116,-233,-85,-16,-311,197,77,-192,-93,78,1,175,-119,-12,-6,59,64,-154,288,345,-299,-313,6,10,279,-152,-70,-23,147,-30,200,-31,335,-393,-82,-55,90,-103,-37,-9,-235,-33,61,-264,95,254,208,280,-85,185,-64,-34,121,97,-210,-215,-1,-322,147,37,53,-324,-11,70,4,-354,-8,210,-243,-157,125,129,46,250,-153,98,14,83,-42,-367,-205,-124,84,-330,-248,-287,79,-57,65,-172,-150,131,80,-268,-224,279,-167,-36,235,-162,-250,129,-109,-304,-333,-443,-36,-203,207,-58,25,-215,-79,269,42,-264,143,387,-137,348,59,-229,519,55,293,47,-225,-215,-5,84,64,268,-297,447,105,-96,25,-87,226,-15,301,-27,24,178,-136,308,96,163,-109,237,-185,-123,149,-59,113,316,248,-1,355,9,213,44,60,-121,-73,328,225,354,4,200,152,-87,354,45,-27,149,-163,-62,-62,-188,-283,41,-119,390,253,-254,-183,-96,-275,43,15,10,203,57,-355,111,67,-41,-19,-106,-178,-57,-126,271,-76,59,-135,-46,-109,-522,-189,62,-106,-94,-202,-70,-359,-73,256,-215,350,-27,15,137,-70,232,181,289,115,-138,343,121,240,-58,-187,-190,-242,245,262,-157,98,-18,130,67,158,-13,303,331,74,-133,286,-16,197,183,233,-164,-233,36,88,-271,117,52,583,-46,195,286,-9,-26,67,122,-151,-108,152,-101,-71,-172,-191,291,-124,138,-213,-200,-199,-27,-185,-33,149,9,39,-136,42,58,-181,381,-79,168,-95,76,434,-39,-564,64,9,-213,287,-85,-40,113,-17,360,169,301,66,69,-212,-70,-202,-129,-107,258,-4,144,-137,-58,-55,186,204,239,-172,-105,-88,215,-187,-17,-210,302,59,-123,42,21,153,291,-31,-58,71,-213,228,144,-226,128,-78,-86,41,-147,94,57,194,370,165,270,-55,-103,143,-62,-295,197,1,415,-70,26,-337,-58,-174,-149,99,61,36,161,-15,-390,-134,85,84,-92,217,72,62,-38,-97,66,153,471,76,-24,98,-26,24,-85,209,150,31,-64,274,-37,-70,95,-154,147,222,-199,98,185,156,12,63,236,-132,56,17,-148,267,-130,-108,-38,-27,21,94,-128,154,19,136,-244,-83,-145,-82,-183,135,240,-32,117,-85,-173,-211,-96,-331,-142,224,48,22,83,-354,106,-118,-224,-233,152,-32,-190,46,-117,-54,-130,-253,33,12,19,309,-95,57,282,-348,-1,-163,154,39,239,-122,-8,203,189,-156,112,8,-72,14,-116,231,246,-209,287,219,-157,181,132,298,-92,88,361,63,-351,75,281,-230,-56,32,-181,318,-162,258,125,-134,1,113,225,224,126,-74,-39,-54,-173,-170,78,322,96,95,-130,-212,144,-64,-217,-87,381,109,-38,253,-20,-106,136,129,334,-296,-467,134,-5,269,-168,-59,-41,21,213,8,68,-69,93,-309,75,-161,-18,205,409,22,-200,262,118,-2,-319,146,-403,495,-163,-127,-9,-81,-69,-86,166,-208,130,189,325,169,-11,347,285,4,-193,-141,67,138,150,262,244,182,311,155,-28,314,-83,18,269,259,-185,120,-174,141,-114,75,-22,-167,-233,201,-30,-160,28,-47,8,-100,-36,-248,-41,-17,61,-151,30,122,-493,294,323,186,327,-81,270,-86,-107,339,-199,58,69,116,-61,-87,59,135,107,80,-46,-115,-32,82,-15,79,99,-259,-148,-152,63,124,-13,119,-142,-125,-76,76,83,220,-25,257,-193,-179,47,-42,-150,-299,-29,-289,72,-90,-17,41,145,163,-14,-296,164,143,-258,-127,-79,-207,-223,-26,43,-360,-295,-51,237,235,-160,11,254,-133,67,-149,91,-266,102,-374,-55,65,40,191,149,-110,-147,-127,-121,270,192,-161,1,-151,19,-72,177,94,-197,57,-4,69,-176,23,71,-229,20,-255,62,-219,20,-203,321,186,232,151,-5,-356,-237,-252,-49,100,-70,-220,154,24,-138,228,137,-40,-129,280,-159,-116,-201,135,64,-91,-201,-171,-200,-68,5,-109,-34,-98,136,258,-139,-212,-280,-67,-10,-220,-469,2,2,-191,-448,-192,-243,-229,-555,744,117,457,-211,-82,-38,-29,0,93,-32,384,-68,111,258,507,93,385,-171,34,25,-32,-6,261,165,-79,-369,140,214,128,-93,-453,-81,113,-84,150,232,254,-188,115,7,-374,-307,396,-189,290,92,-174,350,-93,98,18,297,241,113,-84,122,-28,-139,217,233,282,94,-145,-31,-344,-182,-167,-105,-292,33,67,77,-330,-297,-132,-83,58,-344,-255,-322,-260,58,-202,-304,-22,-212,-20,63,188,183,573,1,40,-251,319,133,70,-79,73,-192,100,-92,-237,59,281,-267,306,-40,-223,-346,169,-109,133,-285,219,30,19,-184,-458,-289,-96,-47,-234,114,103,-225,-27,1,208,-31,-172,333,-192,284,-235,192,148,18,192,-50,-25,60,-87,-282,-90,-191,110,68,-173,170,132,114,-203,-218,-286,153,212,-211,-181,198,-42,-214,59,131,296,198,-187,178,355,91,147,221,-144,-53,81,-65,-331,352,-234,-188,309,-76,-331,-73,174,90,59,30,-1,186,311,-89,259,264,-161,468,198,-180,254,-325,-27,24,130,-58,-390,228,-105,92,146,-98,-32,-61,325,-33,-21,267,75,-32,-87,-164,278,198,203,101,-55,168,2,302,365,157,-362,244,14,-5,119,-243,-65,86,-142,-1,-166,-356,-229,54,32,-320,-304,-77,-230,-7,128,-198,-370,-331,-110,-378,-212,237,135,-5,-103,-320,-89,20,-96,-344,-349,-126,94,17,-208,-45,-132,151,-320,230,-247,143,186,-163,152,171,429,-39,144,395,-61,380,277,-31,11,245,-61,57,363,-82,423,24,140,-23,137,60,193,-120,-118,-312,-80,-113,85,136,-209,-144,-474,-334,-119,-373,-129,-373,291,-102,-90,-354,92,55,-381,-191,-155,-77,-238,-236,-222,13,275,41,172,108,-247,-58,238,-120,153,-191,89,-50,-66,-342,56,66,20,-70,99,-214,463,68,128,-107,121,-124,235,-9,-18,-8,-330,-283,-20,46,144,-126,76,-73,-92,-3,47,-623,-290,12,-281,428,-181,-28,116,77,-627,-1,211,-76,-285,84,-307,76,334,235,54,117,-56,155,146,-123,-154,-37,28,-65,-230,-184,-171,-285,-80,25,41,-149,302,-62,152,-149,-106,158,-97,-95,134,-158,140,-196,-277,158,176,24,-210,-63,-12,100,-339,147,45,-80,-251,-199,-2,154,54,199,-131,-63,257,-101,69,-230,159,23,-299,0,107,228,248,234,132,-320,280,-244,155,-171,8,-277,-47,2,261,195,-216,140,-187,107,-305,-25,-94,-220,27,138,27,-188,-131,151,-53,72,-116,-558,26,-171,293,5,-85,-12,-65,204,123,174,-39,294,-148,88,1,-190,-66,-29,-3,160,150,-205,182,28,-105,80,-21,205,-135,-125,193,3,-147,-51,177,108,154,-148,12,174,130,65,205,-235,5,-136,153,-24,44,91,21,201,186,-115,-279,-41,-8,141,242,-82,42,261,57,20,-2,-205,-27,3,290,-80,221,162,181,-59,-73,-104,-248,-275,-457,-125,-86,-325,59,146,-235,-246,213,-28,127,92,495,116,222,98,227,369,240,40,-1,-81,49,-93,-73,-19,310,243,345,302,29,-133,109,-64,156,-32,51,-102,276,-53,30,295,134,295,264,-43,166,139,229,-161,68,330,304,128,408,25,-88,-156,-50,-158,175,14,-158,-203,161,-201,-205,-32,-17,319,-43,126,-183,88,15,88,-48,-73,-167,591,-151,301,-78,-404,-139,193,-268,-109,-290,-90,189,-102,3,-269,-63,-208,-133,-32,-28,10,-5,324,-154,232,238,58,61,31,249,-51,142,10,-31,83,-215,192,-217,-236,185,61,159,161,-32,50,86,-270,-86,-207,206,-208,23,-269,-89,106,-333,60,42,-375,-416,-449,-258,-96,241,-232,187,-96,125,10,326,188,-179,289,180,13,54,-60,188,399,-186,-95,-27,-180,34,-232,-141,-400,-163,48,-15,-289,-50,-44,231,100,-184,-36,-170,-277,41,-88,81,-6,3,-211,53,55,-170,121,-118,88,71,219,174,-195,275,-150,-71,246,-63,204,72,-20,-4,-70,266,309,-153,-35,-135,-92,127,274,-45,253,252,309,112,382,153,-43,-147,266,75,398,310,452,167,82,67,496,-296,36,-544,263,53,-233,9,172,-219,161,-116,313,-100,113,138,-74,-266,118,27,-96,-65,311,149,-246,347,-105,-94,88,-34,-138,-72,206,171,-148,-113,-227,233,160,-184,41,-453,106,-32,368,-132,-391,-5,35,-214,-56,-68,214,206,-52,109,335,-137,-201,-88,246,-206,95,36,-27,291,125,-103,292,94,257,299,-123,159,304,144,181,-33,293,318,-204,-166,-148,9,-180,132,-198,228,-133,-77,76,273,-47,104,-257,-262,114,163,-408,350,-95,-128,65,-252,373,161,165,308,-212,-80,131,-3,215,32,-76,290,206,-212,148,-496,-208,102,-221,24,440,-57,293,559,-146,-278,-93,253,-204,1,-386,58,241,121,-106,-274,154,-102,107,-47,119,-151,-42,-269,100,-204,33,310,-20,-20,318,-78,-97,69,-112,286,-131,-106,298,345,126,187,-88,309,115,-86,188,-55,325,-119,305,280,-115,7,237,186,33,57,-211,-94,8,-200,16,-84,44,123,427,-30,117,-56,302,125,-29,103,141,95,123,44,188,-41,-72,171,175,-207,168,113,-39,31,-115,-482,-128,286,-190,263,125,189,-125,-332,351,99,82,250,-325,265,113,-301,73,178,69,-99,-277,-148,-378,-15,-267,-328,-9,-345,-290,9,-63,-58,-63,-101,-224,-42,-375,-417,-203,-224,-41,260,138,-354,-395,-235,105,-148,-276,-151,7,-85,59,412,-77,-63,63,-257,425,83,41,270,-100,-693,-8,-144,355,97,-308,165,234,228,-409,-59,-377,-70,39,176,67,192,-60,-242,221,48,-270,-96,-370,7,-183,54,372,-226,-43,-182,-143,91,317,-393,-78,-69,89,96,-36,108,68,-129,231,-88,47,-5,-159,-231,-104,-32,7,-261,75,-107,-252,112,-102,-68,80,-73,200,-146,169,128,-66,134,61,-307,-279,-9,-272,-211,-59,-398,-351,544,149,200,-275,176,73,144,-144,14,-258,-191,-66,-72,195,-9,-35,102,93,420,328,-105,-191,206,44,-403,424,425,-86,-258,108,-179,-283,-12,262,-382,-28,114,-36,246,-53,-126,187,398,-425,20,-190,-360,93,73,150,-131,20,-440,-392,0,-46,-18,85,151,-63,-6,-271,-74,-126,-275,-220,-319,191,-127,34,98,10,-82,-148,-243,-155,-87,265,44,-306,9,31,-384,10,81,-90,-140,-176,-502,435,26,-98,128,-3,282,-52,182,285,288,195,-142,-92,-177,-421,56,56,269,-5,-145,-72,-46,-15,-192,109,122,-216,178,247,405,-21,125,-148,138,-83,-177,13,-209,440,167,-83,-381,-91,-631,5,-150,44,-16,280,160,422,190,-119,56,-93,118,271,139,-31,12,209,-158,-65,-38,141,114,384,114,-144,328,-235,14,-224,322,-88,44,195,176,91,-32,132,54,-55,-2,130,-56,228,66,-259,124,76,17,-25,125,251,171,154,-55,141,-124,-73,-8,-304,-26,-111,-52,-38,190,-406,37,-327,227,35,-51,109,162,174,30,-207,-368,156,350,11,-190,1,384,-110,108,-131,23,39,-43,202,-100,120,-131,165,298,126,-144,-68,201,190,28,-152,-85,-8,-84,-151,66,-113,116,-154,149,-195,-50,-168,-92,-59,-79,-208,-293,70,-349,-193,-172,-244,17,-68,120,130,504,89,-14,185,-240,-36,291,352,-131,-142,-48,205,491,-81,131,126,149,-75,-125,-353,-178,-22,62,-30,647,-13,-125,-271,-23,145,29,-83,101,-486,-208,87,271,31,204,-189,-796,136,-58,3,294,-37,-100,-270,113,-50,112,-241,-164,-8,215,-127,-154,-77,-32,126,53,-53,182,-95,20,40,-102,95,-110,39,-273,177,190,-7,-15,12,110,153,19,-349,70,-184,-42,-194,-134,-342,-31,-43,-100,-93,-364,-208,-234,195,5,-373,260,-153,113,-53,-295,3,-149,-230,-202,-7,25,-277,-332,329,-223,-346,-165,18,48,12,-142,-134,-50,-107,237,-69,-263,-463,28,266,-12,239,-218,-126,-210,226,-162,5,-74,-129,-105,40,75,94,-23,-49,-287,177,308,163,-148,-196,3,-229,-83,79,64,-196,-21,-32,185,117,-285,-90,-261,-155,-196,114,-81,-72,-128,228,-300,15,137,86,-300,-142,184,182,237,-52,-19,-221,63,356,-268,-45,144,-168,125,-398,242,168,-252,445,-57,-225,-126,101,-110,-210,33,-436,147,-470,-1,256,20,-229,-12,-8,-321,-49,-555,-551,-60,46,136,123,2,96,278,-238,-296,-107,300,-186,130,-108,370,-122,-403,-409,-388,-150,-269,-57,-45,121,301,-269,-36,-97,-225,-100,-241,220,-235,-152,-166,212,197,203,31,-220,84,-396,-256,159,-82,-17,142,-30,-254,-68,-1,1,118,-324,-31,-297,71,19,-141,88,26,-70,-514,231,216,64,79,-308,337,-74,-44,362,-303,-351,212,116,20,-69,73,71,-371,97,-86,106,-363,-380,-313,146,-240,-28,45,304,-105,-110,-227,118,-58,-307,178,58,179,118,-416,226,45,-14,-84,-232,172,-97,-65,76,60,141,-63,225,259,226,-119,-259,-238,-57,246,-15,-204,-201,258,-3,99,-156,201,-167,-187,20,-229,68,-226,-89,-199,208,41,-92,173,-110,242,449,114,-252,207,-26,-89,199,115,264,-101,55,45,-233,-125,30,-36,70,-6,-242,77,119,158,104,298,48,-35,397,56,-320,-32,106,-154,258,53,-46,35,39,-4,157,-144,-295,-91,54,-341,-7,485,-624};
const static uint32_t LSTM_01_weights_input_gate_dims[4] = {1,1,48,88};
const static ConstTensor_t LSTM_01_weights_input_gate = {&LSTM_01_weights_input_gate_x[0],&LSTM_01_weights_input_gate_dims[0],0};

const static Weight_t LSTM_01_biases_input_gate_x[48] = {247,-61,-23,34,-418,-321,-196,-298,-206,159,-241,-96,-154,23,0,-183,95,-177,141,-118,201,48,7,107,31,-29,125,-331,-511,-216,-84,78,-141,9,14,-142,-126,-243,192,-556,-198,-199,51,-235,-202,-172,-262,-50};
const static uint32_t LSTM_01_biases_input_gate_dims[4] = {1,1,1,48};
const static ConstTensor_t LSTM_01_biases_input_gate = {&LSTM_01_biases_input_gate_x[0],&LSTM_01_biases_input_gate_dims[0],0};

const static Weight_t LSTM_01_weights_cell_x[4224] = {-36,-21,-31,133,226,383,267,131,-20,32,-30,147,-52,-58,238,42,-65,128,0,-139,0,-69,107,137,116,-36,144,-48,123,72,1,25,78,-235,-205,-188,-234,-183,-302,-619,-2,40,156,-12,-222,-13,46,28,212,57,-93,-132,131,262,-22,-103,115,-107,3,-92,-101,-115,-68,-262,-260,98,90,47,-129,214,37,-203,43,43,1,-73,57,11,261,-220,-136,-135,117,-1,2,-1,239,97,-32,51,44,-89,-101,29,30,24,-26,-50,-168,-145,40,-197,-46,-125,-171,-159,36,157,191,123,130,-27,-16,-106,-189,-171,39,-86,-138,120,83,68,174,101,47,-83,96,297,-151,-80,-67,-175,-159,-98,241,26,-90,101,-22,27,54,-27,58,69,-7,-145,-170,-67,-74,-41,141,-3,-241,-13,95,134,-128,-85,119,-66,-64,-6,-91,76,-19,-102,36,72,110,-33,-166,-209,48,197,75,-88,67,223,140,12,3,-39,63,151,213,281,48,213,141,115,109,-34,65,41,109,-64,-69,121,-35,-1,56,40,122,25,-18,-24,-136,-185,-63,-134,-94,-13,120,30,-119,-42,-240,150,-26,-214,213,-67,70,88,112,-119,176,35,142,-110,-207,2,-39,-108,34,74,-207,95,-10,329,190,-89,200,-80,-19,-136,-56,-109,51,-77,23,86,121,86,-21,-99,-163,47,0,27,258,76,136,-101,-105,4,-80,-209,-227,-337,-254,-65,-77,-108,-91,177,48,175,-58,-17,97,-8,308,102,-78,-115,-63,-138,-243,-148,-8,42,-117,-55,-14,-48,-54,89,33,89,124,22,-47,152,-73,0,263,-368,-249,-51,17,47,72,-210,-63,-243,16,65,-54,172,-38,98,22,-57,-168,-115,-51,-170,0,180,-32,-12,37,-75,83,-138,80,-91,78,-100,227,-21,-237,-119,83,280,-82,-147,-241,-64,-81,-17,72,-149,-107,-51,101,-92,32,-66,-77,-125,84,-6,-144,-19,-128,-141,-63,-16,-89,-96,-105,-44,-135,-113,-170,-61,-126,-154,-155,-81,-84,-166,-173,-244,-61,-170,-145,-64,2,-37,139,-6,-56,16,113,-32,-172,-86,-46,17,193,34,-11,186,-67,157,-138,-18,-155,56,-281,20,58,67,-114,-32,-40,23,-58,-16,-34,-21,-150,157,-29,119,79,81,58,-148,20,33,-37,44,140,73,-199,-19,64,54,174,64,-8,-100,-56,-99,51,-109,-132,-22,71,166,-100,-64,36,-1,137,1,185,50,-118,16,-16,82,-160,-55,-116,21,-54,-20,-104,-55,-47,-78,92,63,8,59,-122,139,-81,147,-30,-6,145,96,-99,167,-6,37,94,81,-31,-11,-105,-13,-43,195,45,-89,-89,0,-5,-139,-69,-66,-255,42,129,-48,197,82,236,9,-104,-78,-179,-62,-14,139,-69,-86,144,66,-186,24,21,-63,-129,-183,153,2,-71,-210,40,126,-38,-12,171,32,37,33,24,118,-138,-194,-79,24,27,-67,141,84,129,97,35,48,-99,105,-109,-102,154,-41,-25,-36,-38,-122,5,39,-94,119,108,-105,-2,-155,-153,-6,-55,-127,65,48,-100,20,-151,-75,-68,81,59,-210,-187,-55,-151,47,-161,-203,85,-2,-41,40,-113,-9,-122,121,90,-32,-36,142,19,48,-388,202,-247,-98,-122,-1,-70,79,47,43,118,37,90,216,117,213,84,77,243,163,147,248,-67,114,136,-24,56,191,-12,113,60,-26,164,87,143,107,-50,72,-108,70,-82,2,-111,-137,-125,-157,259,152,116,-87,-70,31,92,29,1,83,147,-97,-54,-34,39,-48,171,-128,-50,-23,-72,27,-61,-47,149,-57,-44,62,-418,-235,-130,81,-267,-34,142,-66,396,-145,-65,-54,-41,-24,292,18,26,240,-8,103,159,129,295,89,183,153,94,-104,124,20,-29,25,172,-113,37,68,-83,1,193,30,56,103,-27,-59,-149,-5,133,-64,71,128,-28,-78,-18,98,126,-60,-26,-43,-23,-160,-33,53,59,-145,43,-50,306,-138,255,-121,-145,83,84,138,-256,-26,26,-53,91,40,-25,-20,55,-83,-77,-62,89,-64,-168,212,139,-139,7,127,-134,-190,77,136,237,-268,121,-92,114,-75,112,57,-136,-224,-333,-136,-138,-72,-160,-123,110,14,-188,-122,54,-127,29,-196,-104,-56,27,-24,-141,-22,164,7,-62,-41,83,-41,-28,-10,-71,3,-142,73,-19,-96,-89,64,91,161,190,189,-188,-122,-25,143,-171,-113,-106,-96,-145,-27,129,6,-11,-47,452,151,71,2,41,-34,217,-36,-91,-193,156,62,-86,153,130,-140,6,123,-85,-74,156,-85,-6,47,-189,-24,-63,-152,-26,68,64,82,142,136,-54,97,130,54,-146,12,22,-159,-91,-79,-62,-18,117,-95,-132,46,-7,-107,-210,-97,-62,-30,122,139,-33,85,119,-52,-7,66,34,111,-93,-89,-51,145,139,85,78,192,28,-165,-25,-17,113,-65,-187,31,-80,-178,-58,-40,-32,-148,-10,90,-68,-160,-59,69,-238,12,149,47,157,-89,-204,7,-68,125,144,122,-155,-26,-60,67,130,-30,-35,178,-2,-92,127,-21,99,-50,-21,-8,184,201,43,142,284,66,-115,-95,-244,-73,-41,15,8,-49,109,69,150,16,4,-6,-103,-122,-73,-146,64,-182,43,-40,-93,-78,-24,-198,52,71,115,95,71,96,18,111,-82,91,-119,45,-33,22,46,157,90,-7,-62,-118,-28,-86,-63,-149,117,202,-80,-78,-132,154,-138,84,216,-5,-82,16,85,143,379,-94,-59,9,16,-14,-101,109,37,22,237,-124,99,157,-27,-15,-4,9,-213,-125,112,159,95,96,108,-12,-116,103,169,22,138,62,106,-88,-117,26,-22,156,-59,-22,39,140,21,-52,-42,113,20,-76,-90,40,20,135,-31,20,171,-2,-26,-13,-299,169,133,44,-72,23,-74,-17,132,-144,-46,-30,78,131,-120,110,-4,35,207,-93,-9,-84,-155,37,-154,14,103,213,-290,9,-44,0,-132,-30,-147,-27,-110,140,67,-92,-51,-14,117,-212,30,-83,-200,259,-91,3,53,96,-87,-109,-221,44,-35,-233,-134,-20,-51,24,36,-45,-123,106,8,205,-25,86,-50,-204,-62,-128,-33,-74,74,34,-49,89,-73,-165,-61,-125,-9,-17,-157,-223,-56,-4,30,45,57,-106,-158,-19,-52,10,69,-41,-23,-113,-230,25,133,19,139,64,168,-91,24,-37,-113,166,59,193,-57,152,180,-3,129,-82,-42,-163,-155,-38,-57,-204,-140,117,-102,-100,26,67,-93,4,-6,-46,-266,77,91,242,24,204,106,-16,-116,-262,-30,74,164,-13,232,-44,26,-33,-240,-247,79,83,50,-106,148,148,-11,-116,-79,105,166,20,-169,-148,-344,-99,57,-302,82,-240,65,-66,18,-23,197,42,135,-200,-63,187,118,96,97,130,41,-19,-19,-134,4,8,-14,88,104,82,110,23,-20,-93,-29,-100,138,76,72,-74,-106,-272,-269,-71,-22,2,-139,15,3,-74,-39,4,-121,-177,51,19,-66,-14,92,108,81,123,-66,-200,99,-109,-15,37,103,-61,48,115,21,35,-1,-49,-103,64,-87,-74,-20,-84,48,-110,1,55,-62,-132,54,51,69,75,-42,-8,-115,-27,128,-54,-175,-100,-265,-120,-49,-92,-62,143,-141,77,220,46,-31,48,-229,-279,62,211,245,-206,96,13,-50,-175,-167,42,-13,-117,8,-60,160,-17,42,-43,-60,-20,164,-138,15,-157,-22,82,-1,-80,-71,115,-40,-54,80,59,-93,30,-93,-95,2,36,16,-100,-33,34,-65,-104,17,116,-94,-122,-108,-7,75,82,-110,-35,-32,-4,83,91,151,-21,106,94,-28,-23,-551,218,-275,169,44,9,156,-24,-138,232,20,-7,115,78,80,-33,52,-112,124,71,53,-78,-4,62,-203,89,61,-20,-23,37,-14,39,-77,88,-88,87,-151,-79,100,-115,148,-125,-259,-73,8,81,7,-43,-131,46,128,-30,-7,-200,-296,84,12,9,126,145,5,-11,155,224,154,28,87,166,-20,-186,-217,-109,-125,-88,60,6,115,133,136,66,-55,-71,66,-94,99,110,-30,-14,-2,-39,-62,-56,43,-51,-17,88,35,-121,8,124,32,26,63,-122,-68,-1,-133,-289,-12,122,-57,156,125,-70,-207,-98,-68,-10,-140,-182,-254,-126,-4,183,-64,57,-93,46,145,-2,110,-64,11,-22,-236,-148,43,95,124,-123,18,-13,-146,-18,-155,-126,-53,-22,-202,40,-73,-77,-53,-110,-81,-98,54,142,121,109,-86,-150,91,1,61,9,185,-9,42,124,242,240,57,267,76,162,-153,-131,50,54,0,12,-143,121,23,-98,16,141,226,-8,-143,-141,-26,72,-117,68,119,44,-147,-46,153,202,58,-161,-183,22,22,191,139,-48,74,73,-118,70,-51,-121,-24,161,202,88,56,39,35,297,114,3,20,-141,-137,-153,-72,-78,-88,74,-253,-44,-218,36,-234,-194,-130,9,-73,-5,-70,-136,98,2,137,-54,-49,-2,153,-57,-22,7,172,-8,115,-9,105,143,125,-26,-180,125,-60,-151,-20,67,-305,68,-277,39,118,-81,120,-36,-77,-4,141,123,-46,226,-41,26,66,98,-295,-136,-36,85,119,22,68,105,-493,75,12,129,28,-244,-33,11,110,-22,-41,-23,-54,180,-198,141,312,124,73,-33,-198,-234,-243,-132,-26,-41,92,-18,-5,-129,-18,171,-195,-100,-114,-101,-194,2,-146,-73,-230,-241,-40,-267,37,-32,161,-19,173,67,89,93,250,153,133,-17,157,60,94,52,6,-3,-28,-20,24,-301,12,-73,-22,-4,93,123,72,-15,-56,189,-49,25,-246,-419,-26,-2,78,25,31,-228,104,201,-199,-92,23,-89,-118,17,189,122,31,230,-44,122,-181,79,-5,-13,131,162,32,-111,-194,-62,-253,-55,-52,183,304,173,205,111,149,143,151,-30,277,126,-44,54,-67,-73,-32,-132,-221,-103,-43,-45,-172,-28,23,50,94,-7,-20,-15,-44,28,-98,-108,-22,330,-6,198,-81,-9,28,6,-56,-148,77,170,-102,154,-90,13,-104,-33,31,-19,50,24,-6,-11,-108,-2,92,-51,127,167,-137,-3,-17,-139,-55,86,-123,5,-84,171,345,2,-158,51,-36,-90,78,8,6,-10,-43,-137,-24,-1,-30,-85,77,-42,-38,67,-5,107,91,124,-51,-23,-64,-37,-85,100,-54,-9,-14,24,-153,-58,-45,-67,70,42,52,-92,-103,-44,-69,128,-114,8,-170,7,71,-80,-221,-92,60,-10,-89,11,45,206,-82,-125,117,-63,71,-28,51,123,60,24,-74,-105,54,-46,73,-42,-16,18,70,12,27,-122,-82,-52,-78,28,-120,6,18,-139,8,19,-155,122,30,-32,86,27,-80,64,73,59,-53,34,-59,-40,-95,-60,-67,-6,-42,20,19,19,-5,-120,-27,38,12,-103,-20,-40,33,-49,16,-104,-92,5,105,-14,99,-50,-98,10,69,19,53,146,68,12,102,14,-32,-59,-1,172,135,-27,37,-47,64,88,37,-96,-96,-107,95,131,-91,34,-1,-25,115,-93,22,103,-76,-31,38,92,50,-99,139,71,-178,43,27,-30,130,-15,-102,16,-158,16,77,179,180,90,-114,-99,90,120,85,263,309,86,256,201,79,153,-127,-146,-57,-184,40,68,-21,-105,-64,-81,-64,69,-102,-123,86,-211,-109,-11,-107,59,28,77,54,119,-35,-67,0,109,144,-46,138,-146,70,-9,-78,-54,-166,-230,30,58,-253,-58,88,-29,-31,348,-218,-124,-128,-98,28,94,64,-92,-45,110,100,-24,49,48,148,-82,82,-151,163,15,-71,-67,118,-205,32,-96,-29,75,92,62,67,117,54,64,71,-146,-61,23,23,-68,-108,-157,2,134,45,146,-71,32,-117,69,46,-43,55,75,168,85,55,44,59,30,159,170,-18,76,52,203,155,-123,-111,8,105,39,287,-108,68,-205,46,76,-117,20,55,137,15,-65,-29,-140,-115,-88,148,101,118,-96,8,26,-218,117,-10,-173,-73,-106,-178,-38,-137,53,-4,129,-73,3,181,95,137,188,-69,-58,99,95,243,186,97,69,-27,-42,9,-49,15,83,-190,-143,-194,-203,67,-76,117,20,64,-114,-122,14,6,-56,127,71,-127,-20,-25,13,148,-16,167,89,42,232,-329,73,-13,44,98,62,73,-95,83,-11,88,181,-158,27,-118,45,-29,65,-15,9,-152,35,165,128,77,-322,-175,30,52,42,57,-129,-89,29,177,207,147,-187,-17,153,43,155,166,21,142,-65,59,7,6,-63,-101,-16,108,21,31,51,124,-29,-73,164,23,-68,177,37,-8,-87,-35,139,33,-15,-32,123,84,-143,94,11,6,-67,-73,-64,-93,-51,-132,-119,-31,-99,-57,35,203,-150,163,-33,-41,-163,45,-144,-53,32,-12,74,40,-47,78,167,4,106,64,-110,-272,87,43,53,162,-252,42,-4,109,52,-257,-104,5,-158,-81,-32,145,123,123,-109,-9,-53,280,-46,-121,42,-86,-99,163,-35,-7,43,45,18,-106,-43,-60,-109,54,19,76,-56,45,1,24,-143,88,76,-117,-65,78,33,-101,-64,-96,90,-5,69,-13,-47,88,-18,-20,-99,-70,-88,-75,-99,14,-309,-94,-75,-11,56,-126,79,190,-41,242,-154,-44,-184,36,38,-180,138,-153,-72,99,156,-20,-102,-60,-48,-117,-272,-114,-45,3,-47,-121,-34,74,-7,-47,-31,87,173,-330,67,-106,221,-148,-166,66,-107,65,-53,68,-38,-157,-184,-171,-141,-101,74,237,21,169,21,-120,105,-105,-73,67,-89,7,181,69,34,91,-139,92,-84,-44,24,142,90,74,-49,-8,78,-71,-33,67,4,-226,-107,39,52,-42,59,61,-97,-80,254,-94,29,38,-30,-63,56,44,65,144,-22,304,274,49,-25,-57,-4,88,-56,45,73,99,77,-109,-81,194,-29,-34,-13,-19,-24,83,56,-7,260,-8,-76,-193,92,85,307,52,-166,-79,-146,-172,-22,-112,-2,-68,31,171,-25,36,133,107,46,92,121,42,-1,-155,-38,-111,-101,45,37,-23,-45,-26,-162,-48,10,121,75,19,0,-23,-28,93,-156,-4,239,-407,54,53,99,-95,82,164,-314,77,26,-103,100,21,-165,-20,48,186,-20,-125,-217,-18,-104,-101,173,64,-93,-39,233,-101,73,53,-78,-53,42,-83,6,36,36,-39,97,-150,46,-98,211,207,169,19,47,-27,-37,122,-69,-217,-227,-64,-209,-39,-70,-159,-87,-88,-132,69,-21,173,153,-70,92,64,69,51,-23,-179,-89,94,66,125,79,126,-97,103,37,29,123,292,34,-22,-243,80,17,10,157,-122,-39,47,19,-51,-11,147,222,69,84,-66,149,57,-90,-42,-117,159,-47,-100,195,-16,-130,5,-40,-127,73,-115,100,126,-41,-25,-27,7,48,217,32,204,-79,-109,367,68,-87,45,188,236,99,-84,-84,35,-6,-66,-111,98,-52,36,-113,-82,-167,75,-17,-63,-101,-67,50,22,30,94,-41,-32,35,36,68,-73,-86,-55,5,60,192,32,-19,-208,-47,25,-19,95,86,31,97,8,50,-68,320,-26,128,-92,-70,291,-4,27,67,107,28,-64,5,154,-53,232,3,200,242,-51,56,75,-29,82,50,-220,138,-87,11,-206,-211,-101,-33,-65,-67,54,-201,32,63,-133,0,144,27,-104,-59,-90,7,-98,-205,-149,-35,-3,-11,-77,0,23,-28,83,202,139,60,-91,-21,114,72,30,-46,114,-25,-65,100,-59,4,-181,-42,-209,-38,94,137,-113,192,-162,-19,290,184,-180,-35,-92,-149,18,0,11,104,-200,-83,12,-109,-34,20,-85,-151,-167,101,19,-23,-111,3,-36,31,14,-78,83,2,-5,-54,-162,-53,147,1,59,137,-50,-178,-30,-48,210,211,53,-122,-106,-18,-154,-125,61,85,-53,120,8,205,1,134,166,206,-29,-139,-64,-172,-249,-131,-232,-32,121,2,56,-103,89,49,63,-106,-216,-176,-116,-25,-130,3,-43,-23,18,68,-162,-96,196,-20,278,-91,-89,37,25,-32,1,-37,18,27,46,163,173,-81,-207,94,-52,18,-129,-83,-80,71,3,-29,-250,-33,-96,-8,11,-23,-29,-228,46,-73,46,-201,-103,6,143,43,-147,75,2,-18,-87,-84,84,91,-149,-37,-209,-38,-138,51,-27,-150,10,-26,72,18,23,54,-137,-181,-36,-120,-28,-109,-48,-10,76,83,35,-29,44,71,135,134,48,35,-58,103,-181,203,23,161,-242,-4,-167,74,22,-21,17,-54,78,-83,19,236,11,-46,-38,-25,301,157,97,-47,-9,22,38,-88,190,-45,29,68,-131,195,-230,60,-224,26,74,233,-5,55,-79,72,-45,-82,157,27,-43,20,-121,-86,108,27,185,27,-152,-42,103,138,9,27,-69,-91,-73,-41,-38,165,245,319,277,255,86,204,49,-21,49,-38,-47,-163,20,-191,-106,-104,108,-233,-235,5,68,5,-132,7,-51,-271,2,93,-64,-5,-38,116,39,-16,262,-183,42,-60,27,85,141,151,59,119,-198,81,100,96,-49,4,164,57,13,138,-62,126,-2,-151,-214,-135,258,193,64,-72,-41,-116,121,103,-86,-14,-243,-289,-169,-69,-113,-164,11,-10,11,72,-127,-28,70,-71,195,285,174,141,20,-55,-42,26,-125,-34,129,-93,176,121,94,33,-62,-105,70,-149,-143,25,-27,-73,-188,142,-91,49,15,-53,-59,-92,-168,-206,79,111,109,48,103,-160,45,-173,-54,46,-35,-53,-75,226,77,-184,113,60,-119,-133,-51,199,53,14,-30,15,103,30,-167,119,66,-6,-28,113,9,-6,107,-91,-156,-2,-83,-204,-63,-18,-140,-58,-146,-50,-112,-148,-64,-199,-218,-19,-84,-24,31,74,-57,36,-20,-64,131,-37,63,0,-30,-40,173,166,175,-35,52,-42,-13,134,-153,85,-122,256,-83,-59,111,-109,29,3,-32,229,-114,-112,-323,-82,92,-15,183,14,113,45,-48,-86,-272,91,56,-52,73,26,-43,-60,137,75,-103,-90,89,177,-23,37,-94,19,-175,122,-49,-7,71,62,3,-127,43,-73,169,17,-118,-80,104,70,244,145,33,236,187,-49,29,190,-14,79,-125,76,137,-116,74,68,-14,95,-88,-120,-118,65,-72,-89,-29,54,-88,-27,-22,-64,329,-337,24,176,-224,-53,-250,154,-116,150,140,-5,-226,-9,97,-1,-153,-35,-273,-141,-94,283,-147,-147,116,1,-80,-210,153,-137,231,-47,-69,36,-95,-84,157,-117,-80,-60,-52,69,189,48,-148,-153,7,77,-166,-115,117,79,27,60,-9,202,24,-80,-36,-3,-13,23,107,-1,-130,-22,64,-62,131,6,52,113,-96,-82,-63,-97,112,-100,-82,-183,-86,-52,-87,-185,-36,-140,29,-182,111,80,121,-59,29,-80,-30,138,-45,79,13,-120,-128,-148,250,94,-120,-88,-291,117,-224,-69,280,212,46,-85,128,-3,-49,-78,-76,74,-199,37,-67,20,219,-174,-153,24,52,-134,142,-89,128,89,-309,230,92,82,189,186,57,119,229,99,120,298,147,-118,56,87,-114,-32,135,-89,126,170,131,-1,112,-44,179,136,157,-62,-82,-46,-76,-36,32,34,74,143,-85,43,136,292,-112,179,199,-251,101,60,-126,-67,-56,6,154,-86,107,-220,55,192,73,-58,-63,-71,-21,99,-2,-80,-78,-45,23,-54,-215,-74,18,95,-63,6,-80,-126,-44,-231,-77,-66,16,-104,96,-7,183,95,43,272,-44,122,283,-51,-102,2,-12,15,-58,182,164,245,126,183,174,151,188,184,269,90,115,-163,-51,-52,116,134,167,167,-56,-74,-45,139,-192,-78,-17,-235,-175,-192,-244,-421,-26,112,-13,61,-23,150,95,-290,-9,-90,-137,-114,-52,47,-57,70,171,38,-135,-100,12,84,188,210,-77,-190,-192,-151,-132,-57,-3,-156,-47,81,65,-12,-91,206,62,-215,33,-367,-100,-196,-63,110,-20,33,264,181,-2,-210,11,-120,-23,58,-157,-85,-77,15,25,-36,-118,73,4,133,-64,-12,-118,-142,93,118,21,84,-12,-28,23,93,172,-77,-30,-41,131,-98,-64,174,-118,-261,213,-129,-86,76,-159,-59,-195,-32,72,49,-43,-29,97,-59,4,94,-94,157,-46,134,138,153,-160,-373,51,209,-94,109,137,8,72,80,-14,-27,249,-73,121,-17,-167,191,-221,-146,379,-27,-227,51,-85,179,-43,84,27,106,-63,-2,59,-45,19,58,-200,-28,-188,-157,-95,-77,-62,47,27,25,31,-21,-137,107,-114,-147,-35,-41,-35,91,162,72,38,76,52,101,167,69,141,146,-44,-31,-20,43,226,199,-108,14,97,3,-90,17,-6,55,-45,122,163,-88,38,98,21,-127,-99,84,-126,30,85,114,-30,-136,-95,-17,-48,-75,61,119,-34,-56,-23,23,237,-155,277,108,50,65,-197,125,-49,-115,39,130,165,-111,124,158,-55,-160,-169,64,-126,-40,-130,-151,-111,41,-52,60,151,25,39,90,121,-119,23,77,113,-50,31,-52,64,-72,-92,-28,172,80,-74,68,-7,24,91,-78,92,54,226,-136,-238,23,166,35,108,-122,103,63,-32,-101,-142,-64,-219,-5,64,4,62,-86,125,-14,33,-62,50,46,-191,221,-62,-18,64,-44,-274,134,251,119,14,-143,-64,-29,20,155,-85,66,-34,65,59,-28,-57,21,76,-173,-43,-60,78,-69,-2,-69,42,75,-107,12,-124,-41,-83,74,-114,-27,52,-26,-69,-134,-38,38,83,104,27,3,69,80,26,42,-66,-17,-222,85,96,74,55,1,347,-261,-19,114,31,81,-155,-194,-77,-27,28,-162,76,9,84,-186,78,10,92,-134,-108,140,179,133,186,-5,-138,119,6,18,165,-143,-83,-42,-184,61,122,-92,-42,-182,-219,29,33,277,33,128,18,231,-50,30,-143,-157,-108,-63,-119,-9,-100,77,60,103,-91,61,51,-91,132,-19,-101,-73,-56,5,69,-31,-64,-81,115,-11,-68,-23,163,26,-8,38,300,-40,14,-122,-177,-153,24,-5,100,-290,106,1,-28,141,129,93,-47,189,-151,-28,77,72,71,-34,132,-87,-245,-136,-207,13,-89,59,-134,142,28,-176,-50,80,78,35,184,-123,334,4,-143,130};
const static uint32_t LSTM_01_weights_cell_dims[4] = {1,1,48,88};
const static ConstTensor_t LSTM_01_weights_cell = {&LSTM_01_weights_cell_x[0],&LSTM_01_weights_cell_dims[0],-1};

const static Weight_t LSTM_01_biases_cell_x[48] = {382,-47,-383,181,-98,547,-72,-820,-240,314,2,-467,-434,667,53,479,216,84,-309,798,741,103,-204,-531,-327,-674,-264,217,-272,-45,553,700,-86,-121,597,245,-356,-22,-75,-550,250,-337,445,-10,246,206,423,415};
const static uint32_t LSTM_01_biases_cell_dims[4] = {1,1,1,48};
const static ConstTensor_t LSTM_01_biases_cell = {&LSTM_01_biases_cell_x[0],&LSTM_01_biases_cell_dims[0],0};

const static Weight_t LSTM_01_weights_forget_gate_x[4224] = {-177,-32,-104,121,-162,38,-225,186,-176,74,-20,-211,84,-110,-90,-172,-35,-254,112,-95,87,73,256,-226,-164,264,-105,-291,-225,-238,-150,-189,160,-162,252,-201,177,-352,-127,425,-355,50,139,124,-39,-31,133,45,-23,15,-62,69,47,280,-75,75,134,-393,88,-1,-115,-282,-45,371,99,52,326,-73,-279,-88,200,-145,162,155,51,10,-127,199,10,-74,-47,-125,-199,6,176,126,-233,126,40,121,-205,-420,-98,-151,203,53,85,6,178,-307,-89,30,145,279,166,59,223,-286,-131,-307,-40,-141,-182,-308,-316,203,-5,-13,96,-101,-362,-116,-300,-43,2,107,-299,-304,59,-108,269,-24,-48,-288,90,-84,-276,-617,-94,-243,114,-48,397,85,100,194,29,152,-151,10,-22,-429,195,41,-229,-167,60,-320,170,138,-235,-81,216,-200,-25,-224,-61,13,-358,255,-101,-90,48,57,-29,122,215,40,-45,105,-71,131,-110,-124,-118,-185,-193,-296,-4,-209,-64,-108,-29,220,-163,-373,195,213,160,11,244,300,-250,-157,-99,41,89,94,-43,-287,-255,-334,-50,91,-315,-217,228,111,116,57,26,-97,289,-57,95,-110,269,-126,-231,336,-61,156,-190,-283,-125,137,-137,-386,-376,185,48,226,-39,-110,-175,-338,164,112,-382,423,214,-302,373,-30,-41,56,25,-198,238,206,-122,-184,-187,202,-98,-41,-112,260,148,157,124,211,285,180,142,-194,-402,-107,-128,-197,257,72,120,-73,-105,214,-159,349,169,168,-229,-208,-78,-99,-102,99,-332,-206,-201,156,-198,197,168,-34,198,48,-189,-329,248,152,-70,-140,-72,-184,-141,-40,-21,-51,260,194,-46,-229,286,-250,149,-20,141,285,57,39,189,-235,-157,-153,-199,-99,332,277,114,250,157,59,143,33,-409,185,281,-378,283,-141,-304,13,132,-162,-65,-188,-64,188,-22,-45,-191,300,-228,-67,-149,-80,71,103,265,83,-47,-291,-288,-19,148,6,-190,124,-11,245,-2,-34,-199,-258,295,213,66,5,271,260,-177,-152,203,-164,97,17,307,-243,-60,-115,-199,-175,239,-544,132,-538,229,71,-542,228,-123,-80,144,20,8,-253,-33,203,-174,-43,5,-31,228,6,-178,-14,-28,160,-334,-71,-105,93,43,-55,123,-115,-268,-252,-251,306,166,-106,138,-96,100,171,224,-266,-1,109,-45,200,123,2,-155,-41,253,207,4,201,81,343,-56,216,-125,319,0,427,164,146,139,-232,-198,-95,291,-261,-114,-25,226,93,-6,-186,12,-301,-237,-128,-268,-86,-269,132,-167,356,206,-232,-139,291,10,-104,107,-12,-490,-206,8,-47,-109,-2,133,325,-56,285,38,133,-126,-46,-6,-174,253,159,401,99,43,-75,326,-154,-91,60,-161,-264,100,31,189,261,338,237,43,-9,119,128,215,98,-188,139,-146,-199,148,-277,122,293,81,-174,312,153,33,-113,-114,-173,143,123,221,-212,63,-99,-175,6,-265,13,178,181,133,149,383,254,-206,251,158,271,77,208,-86,-247,258,115,63,-91,343,-365,-169,166,-186,-302,-266,-394,-438,91,328,273,-493,100,-87,-285,270,204,-37,-278,9,144,262,-102,-355,218,201,-360,-273,79,154,176,219,155,209,432,209,-39,144,65,-54,-13,-86,174,-119,206,-152,226,-69,-68,10,123,446,430,400,-11,124,282,-192,-29,210,-82,-75,-31,368,125,361,133,241,255,75,268,-64,-211,-456,260,-113,220,92,310,325,-141,-67,-50,-62,-26,-252,-139,-40,19,62,-109,405,-50,-119,-116,-25,285,19,-39,-90,400,18,99,33,138,-140,-328,-208,288,55,253,-47,216,-729,156,166,-57,256,186,-39,-181,-293,-209,-460,-235,-423,-119,75,112,-77,-244,-265,140,-233,136,141,237,112,-148,-56,-236,-173,153,165,311,-18,168,-35,399,315,7,-19,-187,196,-86,-58,108,113,-107,-678,-72,-315,105,-154,60,126,-2,-67,280,133,29,-126,33,177,123,-205,-31,255,262,65,101,-344,-133,-353,-87,288,-115,301,278,65,337,-334,-163,116,-93,-188,-437,-26,157,-250,73,-289,-123,-188,-239,80,75,25,-296,-102,25,-290,168,-266,-135,264,131,-220,-252,48,183,105,284,-39,-75,-23,185,242,-171,-201,-72,-148,124,268,257,-164,28,203,113,-198,101,96,36,-177,211,-61,-89,-340,-338,-510,242,104,145,106,-105,-83,139,72,-113,173,-1,-94,-220,207,19,-239,275,176,229,11,-85,293,76,57,-272,154,259,-123,-87,-24,-111,-74,96,294,76,98,-124,2,-105,12,-95,-45,-79,-151,-113,64,144,-92,73,52,41,190,262,183,-124,234,256,177,251,-121,-183,-16,80,-49,-21,248,-52,124,-95,15,-259,-197,165,-245,106,-42,137,-34,242,-68,159,48,34,-203,-6,208,96,72,-81,-90,136,-3,85,-7,-183,-134,370,-40,25,102,-98,-111,-108,-384,66,-230,206,-109,-354,123,133,158,91,296,-203,67,-1,35,204,101,131,90,-103,-44,238,409,71,344,-159,207,-187,-122,140,-287,-123,325,150,-181,-203,-132,-273,-295,-61,-260,7,137,-207,-12,-392,132,96,-248,-245,137,-156,135,-51,280,-242,-7,-34,-86,186,207,-15,-49,136,-158,154,-18,19,21,190,-183,69,85,-54,340,132,59,-132,-115,77,110,15,-200,126,204,189,72,378,-81,-54,-291,-124,352,-179,138,157,146,162,-274,-4,-297,-264,-131,-419,85,1,-89,24,56,211,-26,-158,41,126,135,-86,39,-249,16,206,-235,107,-156,129,203,-246,-58,120,312,29,-66,-10,-162,229,-139,-194,294,96,-165,-78,145,71,44,230,218,285,197,-173,-51,-87,110,20,-47,-33,-60,209,230,15,368,-56,-57,-235,-112,95,-164,-2,109,226,4,-12,-226,208,233,419,-32,200,-118,18,227,164,-71,0,469,-333,64,290,161,137,193,385,255,-259,44,109,207,-308,84,188,1,68,271,-32,-105,43,84,-52,-21,90,-264,86,54,-77,336,207,151,-39,230,39,-37,-162,-105,129,135,72,227,124,-216,-87,7,156,-35,150,302,197,-153,258,-116,-327,52,-127,-238,271,256,2,-193,181,83,139,-72,254,0,-50,140,80,-129,-57,-9,60,49,-220,356,27,77,-5,-126,-34,10,-196,-126,140,-18,-230,-133,-190,190,-135,326,-279,16,304,-82,-111,-115,24,-182,70,-35,106,198,-26,-28,6,45,-353,279,-209,-407,-18,-124,-395,-444,-161,0,14,-342,-23,-82,-1,163,-80,-288,-225,108,-18,-85,-192,-48,-174,82,-125,-58,216,-124,60,52,129,-128,-224,-175,158,167,49,-24,124,-66,-168,165,-214,-39,36,75,97,-62,241,252,-105,-239,4,375,454,-56,-118,-162,16,225,-122,-122,-293,-281,258,-363,32,330,-347,-165,352,47,79,-30,-2,112,-206,82,103,-98,-200,12,129,102,-32,-146,-321,-345,82,44,72,-263,-322,-127,109,139,27,372,298,140,131,-87,162,127,133,-176,-270,-250,-131,197,-45,135,-223,58,-52,342,-108,20,-77,-14,-60,-90,408,-14,377,157,2,-361,68,-181,-46,-166,-102,-171,271,-160,147,-187,-396,-169,-351,15,49,-18,127,72,-20,-8,350,158,-11,11,-109,-107,-102,259,-80,70,-199,-178,-22,456,-100,-149,-410,-39,-99,-154,-131,-147,-65,-197,106,76,213,-59,32,124,-35,143,178,191,214,181,295,-91,-117,361,28,148,102,-242,-101,-4,-104,98,235,-161,220,94,301,-136,32,-63,-42,67,302,96,52,-31,253,181,-66,-175,172,128,223,-282,90,592,226,180,345,28,114,-193,141,64,338,-538,-5,349,-97,12,-53,-253,-93,-481,-169,7,-56,-164,-147,-189,-59,190,-45,416,76,42,-28,7,283,235,-116,57,-110,-17,-441,-114,-71,231,-309,68,-155,97,-417,-276,-231,138,-323,-122,48,231,132,-39,-14,-72,-220,-53,-210,-140,-266,23,89,-64,-119,-98,-92,224,-52,403,364,19,139,13,12,8,-140,-86,-214,-46,167,-108,121,238,-15,204,241,106,161,112,-58,253,-127,-156,233,-624,-347,366,-15,-94,-46,-122,55,24,313,-394,-69,-27,-255,-77,317,227,-310,-10,183,-417,142,-67,-22,398,157,8,239,124,-549,172,175,34,172,221,-150,36,66,-326,19,-99,-230,-412,-290,-184,-331,-187,-6,-60,56,-118,-4,-233,-321,18,-79,-295,53,-192,-186,-173,131,113,-106,146,77,-24,-33,70,-45,123,-126,146,93,-227,-53,-145,203,-39,-101,121,130,182,-153,177,-314,302,-189,-29,18,162,419,96,130,-4,-176,-10,142,-298,108,168,129,-38,-77,24,-13,492,153,109,-200,-206,-165,-76,-7,-25,12,-44,64,357,-131,96,77,-51,-125,194,101,-84,-34,251,-171,171,97,22,-317,175,124,-226,-47,-115,260,-214,-69,-199,-81,28,-156,37,133,70,51,250,113,-128,-13,130,11,-98,222,-5,16,-225,-261,-388,-207,-353,184,-318,-156,633,237,319,342,-368,-5,-205,-3,38,-193,-46,30,188,-68,404,9,-415,-242,-232,322,-31,-170,-155,169,211,-225,254,-140,-89,-386,-214,-106,-34,-6,229,276,-202,169,-90,15,83,242,229,337,210,-255,-207,-4,-164,-324,-80,132,-277,-43,-207,57,-199,138,14,152,-143,-328,-85,-15,-156,-132,58,32,332,110,199,204,25,-283,95,26,78,-195,-259,199,-127,-323,-81,195,20,102,-203,69,186,93,18,40,19,-77,-54,-142,-277,91,222,134,-279,95,-139,144,-175,110,18,-101,254,132,-261,43,81,19,150,-159,10,118,-65,-77,176,-126,-97,62,-137,12,-12,-248,-536,-152,-123,-61,138,205,-95,-276,-258,-61,4,-236,21,-549,-164,-264,18,-167,49,27,-155,-222,70,65,-239,-167,-6,-384,-20,-146,97,-336,49,80,-273,-242,79,33,-3,-228,-85,3,453,20,-146,65,-342,295,277,-141,-23,83,181,-280,-46,169,-215,275,123,-508,-41,-30,6,-476,2,-177,-208,-310,-63,-154,-11,-319,-9,-143,-161,-83,56,-18,-374,-135,7,338,107,-56,-70,-163,-28,-40,30,75,-175,196,-125,305,247,271,240,-11,379,161,-68,46,-61,-46,325,-11,-140,-115,-10,51,-124,132,90,334,110,37,317,50,178,219,-10,-177,156,103,207,23,213,254,92,140,136,48,-33,5,30,-197,211,-80,119,44,162,-176,-113,-123,208,-37,183,-50,322,118,-9,-120,-298,-322,141,-60,-197,255,-234,89,-155,84,35,218,-10,90,183,-364,-212,175,80,338,-73,-19,-104,354,-214,187,47,215,-94,300,-60,177,-69,91,80,170,-46,270,-151,-149,142,44,60,288,-95,-51,255,-37,282,281,-45,162,157,86,-93,133,177,10,218,178,16,137,63,-225,14,263,122,-210,-80,-220,-102,172,105,-294,-203,-83,33,-255,243,120,152,222,27,109,-66,253,151,162,-51,113,13,63,-280,309,-156,-46,93,36,-34,208,-127,307,-64,38,-145,-62,67,-135,-233,-151,-199,51,233,76,-6,135,-107,-105,27,246,-95,200,316,139,311,311,-163,156,-19,331,-57,253,-141,-257,-4,8,-59,-186,-249,-55,114,33,121,225,-19,106,174,-116,-260,30,3,-242,-253,118,289,-170,409,-99,252,44,-198,342,-174,-192,-108,-344,-5,-67,66,456,74,-29,-115,145,-238,111,22,53,39,-22,78,-194,91,0,-148,-222,-552,59,-83,303,354,-183,-349,-266,-192,61,139,216,-73,-193,-257,261,-134,-220,-75,18,-59,44,-9,-35,-159,138,49,-93,-240,-46,163,-193,270,-231,-242,88,360,138,134,84,254,178,-154,243,300,-181,350,121,131,110,170,65,4,-175,64,323,-73,-22,224,-196,78,210,249,157,161,-142,-204,-19,498,53,-55,-67,51,154,189,-32,-80,-4,-338,125,12,329,-117,-345,33,73,-386,-15,-36,1,237,90,-104,-58,-258,323,-112,73,-134,69,-115,156,-29,-135,-181,87,-104,-154,-76,-99,-117,-108,240,119,-70,-185,345,45,-36,122,103,296,-13,-139,285,267,210,-72,-99,114,150,144,90,227,174,-87,-149,217,331,-33,182,183,178,204,-114,-115,63,-36,51,204,189,67,477,-195,-224,128,53,109,-320,-171,79,-362,285,155,-40,22,310,171,56,-77,-24,130,-211,111,259,7,58,-1,48,-275,10,29,-144,-79,168,-105,240,-235,-91,-76,-102,-152,-229,378,329,-40,370,33,178,-20,360,325,14,-117,112,-13,232,-67,94,-126,103,292,110,151,244,159,50,123,36,-82,193,196,123,109,-204,-146,178,157,-140,198,118,-98,170,-379,47,-114,-149,74,-292,292,67,-63,-20,-351,64,-245,230,85,-289,9,-15,67,-183,158,-42,-330,340,-141,76,-146,-350,-317,-163,266,193,-97,-338,51,166,82,-551,244,-392,129,283,-360,81,-9,157,-409,-298,150,-153,315,171,244,70,-3,386,-74,51,299,18,-78,55,125,157,-17,16,135,214,-17,145,76,156,60,-123,230,82,-189,-184,26,279,105,148,156,-4,40,-99,201,416,-133,-335,-294,-244,-7,-68,224,202,-11,108,-172,-15,-92,-165,-247,79,-65,161,-70,737,63,-181,-402,393,345,38,184,104,4,265,169,-6,261,431,130,-643,102,-180,-52,-127,110,291,-84,-95,-22,285,160,-142,247,-20,293,-120,241,-181,-193,23,17,-111,-124,262,8,24,-224,-166,-186,-173,-98,-230,-61,186,108,-139,-173,60,227,383,37,-102,372,-15,-112,-38,23,229,188,35,-101,199,-143,-36,-38,133,-143,118,18,-108,82,248,197,-150,-170,-91,-203,287,-10,58,-69,164,351,-364,130,-396,-168,181,70,68,-51,125,298,-68,-242,-225,-13,-98,-98,-196,-46,-265,-89,288,-122,164,176,211,69,-327,-108,-190,590,282,246,159,141,203,128,-139,-227,50,83,83,41,-20,277,-272,99,17,149,68,-245,-88,-403,95,-182,6,-61,-85,-229,-131,-232,74,-263,60,-241,-128,-192,262,244,-487,-351,-111,180,-358,-210,121,-273,208,70,418,25,193,123,-49,-501,-86,-110,352,-155,7,-158,46,-11,-252,350,-291,-389,-35,231,-246,-322,-116,-151,191,-356,234,-78,-268,-107,109,-17,-69,-52,135,201,-316,-312,-373,48,-191,133,114,115,292,-23,194,-140,67,-303,-270,82,-319,154,282,103,112,-195,-36,8,-44,255,225,3,171,309,-3,-101,138,329,230,422,-107,-132,215,234,462,261,70,91,-178,273,-1,-333,525,369,-223,-502,123,-8,260,-229,103,-200,-162,12,-99,45,-365,-319,-224,187,272,186,-44,75,-70,94,-231,88,-216,-386,-268,21,-280,-75,213,78,129,101,134,503,18,171,-88,-93,39,162,200,114,-270,-217,152,-147,277,175,-59,369,329,102,86,311,-66,-150,-212,138,-71,-151,-142,-17,-55,297,-77,112,-147,46,-87,-214,-112,140,36,-286,-246,-90,801,70,-70,-183,-79,45,265,-32,-158,-513,-13,-132,-19,218,257,-40,-158,-254,223,397,15,167,-269,-21,244,-29,134,-92,-140,342,26,-40,67,234,199,-65,-125,65,-86,-141,-115,-164,267,231,65,134,156,113,-277,-321,-173,-88,72,-230,-146,-258,20,-56,70,-267,160,-4,-109,122,-233,-195,197,-262,52,-190,-221,-145,-38,107,94,-166,-257,-55,214,-253,-270,-148,47,-113,162,-256,17,-116,62,-22,-181,-307,208,-97,-176,337,138,57,39,-218,120,212,315,-439,257,-213,-385,-58,-181,-74,-26,-180,-109,-369,-176,61,85,-106,0,158,-137,218,117,138,8,157,-9,102,-293,-190,263,174,-47,-14,45,234,337,263,186,130,-90,80,-35,3,-135,-96,-109,177,-63,-92,-205,-296,-24,116,37,116,183,167,-194,123,-54,-185,250,-45,172,-71,61,-116,-193,171,-199,-29,-285,-54,138,164,-180,-180,-61,41,-167,-52,-205,281,-194,99,198,91,158,-19,301,30,353,-372,-56,-27,30,145,77,2,-231,181,20,-275,-81,371,117,432,62,441,431,59,-287,-340,1,131,406,242,33,171,-188,-83,-226,-128,-178,-8,-258,211,57,276,-79,-185,212,79,139,-12,-162,1,45,11,-235,153,-166,-108,139,-111,288,295,184,-158,12,52,205,-105,271,-120,-133,216,91,72,124,254,279,239,-432,141,-246,-163,-119,-178,494,47,158,63,-63,-218,-207,267,-146,240,-22,-343,-153,-144,8,223,-91,-159,222,238,114,317,90,235,161,256,9,110,-273,-609,-192,-118,-104,141,-13,34,268,105,-275,295,48,-169,113,-182,-242,-52,-27,25,134,-52,25,180,-245,227,-110,3,-130,-153,-188,72,34,-52,-127,7,-83,14,366,224,50,121,137,162,-7,-245,-38,39,218,-104,101,-189,28,186,-567,432,596,366,251,-165,413,-262,87,274,48,-18,174,-6,-656,-33,-213,-724,-45,58,271,-51,-305,203,-339,255,147,54,-203,55,354,-52,176,-36,-44,102,-139,-303,130,-129,12,473,-446,-5,257,16,-5,-50,-442,56,-57,-213,-182,-45,-211,23,-111,-146,-24,-242,-104,-231,-168,98,134,-76,127,-131,-180,-34,174,-269,-195,148,19,82,131,240,284,134,169,213,47,-273,-83,-28,-264,-166,621,-159,-272,276,-309,-54,235,-106,26,-11,126,-173,210,208,-196,697,-628,311,-136,-102,103,-162,-169,-535,-159,84,-342,-50,149,16,-354,256,-357,259,171,-42,-30,-431,-220,-107,-333,126,200,262,-141,46,-344,461,-158,-239,246,64,276,152,106,61,-213,95,296,-1,52,8,-153,83,-140,179,-125,137,-225,243,-117,221,-219,48,-222,-124,196,-143,39,-182,264,-161,-225,35,197,-148,-110,70,-8,-215,-57,325,-326,-29,56,141,-40,-164,35,-322,54,19,144,101,75,-95,-106,-269,134,25,-412,-460,28,-51,-30,260,-54,172,259,-71,-398,214,95,12,245,195,192,46,13,-57,-151,-118,147,-96,140,-249,119,168,-210,17,44,-124,351,-245,-61,224,26,11,331,-51,-92,177,206,-143,-148,263,-117,-88,249,316,9,180,321,350,192,292,460,38,-37,245,-155,353,316,348,193,-128,270,134,-163,157,-95,-179,401,492,267,42,83,148,15,174,-123,-208,299,39,385,213,-316,-172,33,-27,409,316,-382,-155,45,344,12,318,-105,120,-187,95,265,271,302,-347,44,-30,56,182,133,-337,198,133,34,55,-164,72,319,214,30,245,113,-7,135,-111,268,28,-75,84,0,223,163,214,239,228,156,-82,170,149,308,-23,72,-54,63,-96,195,-12,337,263,-147,249,176,-121,28,357,284,-123,-3,-186,-162,-114,194,188,-65,31,359,-59,151,214,129,-169,60,318,31,-120,-125,-79,-171,-9,181,131,67,87,-381,-388,-80,15,42,-313,-295,185,157,-98,-268,66,270,-481,42,-227,-38,477,-68,-132,-25,35,-112,4,-58,77,117,214,56,-19,320,273,32,301,333,228,-168,-37,296,231,-87,151,-60,-76,23,-21,96,184,76,-104,-314,9,47,171,307,90,-212,173,311,-17,-258,-184,-352,-36,-218,-6,131,450,69,94,355,-71,45,294,211,-2,292,74,-366,70,-64,-509,-310,225,-204,300,-285,-178,122,-211,-268,67,-150,101,200,-290,-182,-51,-314,-221,89,184,43,-199,205,241,19,21,168,195,-222,-45,-440,14,-217,256,-171,218,293,-98,144,43,77,1,67,252,88,-21,-137,-35,212,-44,2,-65,-307,46,-4,37,-134,-21,53,96,-329,-189,138,164,29,-205,188,46,315,-114,9,180,198,18,15,247,16,-199,57,38,50,17,-118,-11,-233,210,210,150,444,-439,-211,-97,6,-356,-27,-272,-512,15,260,259,3,296,235,-305,285,321,440,255,-40,33,-81,-137,-77,-26,7,223,158,111,166,52,-170,-69,-3,-72,-142,124,-245,-209,90,-257,153,-15,105,225,56,71,-196,-158,170,-40,48,221,-152,-62,-173,-56,304,18,67,213,186,352,-264,-97,-136,258,-71,-189,-183,-225,105,-107,-293,-122,-17,165,-264,-50,-32,384,108,-217,392,-233,-139,-292,235,-162,74,145,146,-3,-213,-272,-11,145,-12,119,-491,190,346,-10,230,-76,345,23,99,-191,-80,-203,162,18,177,-207,-35,0,-272,-45,348,354,196,170,-93,94,33,54,303,226,227,-21,-146,254,299,72,237,91,-14,277,278,-19,247,318,24,313,101,-236,-30,11,253,13,-272,-151,213,-234,-22,107,123,-67,-298,247,103,36,-321,-387,15,200,-132,1,-21,-308,-6,124,-114,-303,492,-160,81,38,-8,54,-97,-187,68,-242,-196,-166,31,3,6,218,-176,-113,-46,356,-157,-76,50,148,172,92,198,-93,353,-16,187,-209,27,393,425,-30,171,-58,179,174,75,-123,50,-286,-135,-254,123,266,-158,-231,38,-54,-23,-45,-131,122,240,90,197,-171,-10,116,284,316,113,-50,56,110,-163,350,-91,66,-385,81,-24,-159,100,160,171,-404,-179,62,227,-42,-13,331,-7,-211,387,-59,-23,307,180,-350,-276,15,-324,67,18,-221,-268,-140,63,-46,44,207,297,92,-183,102,-341,126,-148,41,-59,-39,100,318,-49,-327,-234,-151,-101,79,-223,208,-73,-43,-92,52,210,73,-79,331,-107,303,372,365,392,396,122,204,425,307,208,-130,39,231,310,166,31,-270,-76,112,-179,68,-153,-348,339,-321,161,458,-44,298,48,107,-177,-149,-174,307,-52,-9,131,-108,250,-337,-54,-252,365,13,-131,10,304,61,224,233,-248,-18,232,174,456,307,88,-358,-350,201,-312,68,132,-315,69,-51,93,-55,-237,-150,-152,-170,-145,198,49,214,-236,-113,162,-106,54,158,-10,204,-87,-10,-86,175,21,-176,-61,-158,99,0,-170,210,-278,159,35,-266,-188,-27,52,80,96,155,335,247,162,-37,-226,-158,59,-93,-321,60,-2,-405,-221,202,-171,239,-24,92,281,276,-104,-90,-213,205,-315,295,-46,-50,57,475,-286,95,92,135,186,-143,-43,179,-152,37,331,300,-97,-119,26,147};
const static uint32_t LSTM_01_weights_forget_gate_dims[4] = {1,1,48,88};
const static ConstTensor_t LSTM_01_weights_forget_gate = {&LSTM_01_weights_forget_gate_x[0],&LSTM_01_weights_forget_gate_dims[0],0};

const static Weight_t LSTM_01_biases_forget_gate_x[48] = {318,437,534,317,389,452,600,507,610,550,463,479,655,445,467,394,521,419,488,532,415,503,534,622,403,478,479,473,445,464,455,575,592,421,408,424,326,554,541,425,374,385,497,499,507,439,686,630};
const static uint32_t LSTM_01_biases_forget_gate_dims[4] = {1,1,1,48};
const static ConstTensor_t LSTM_01_biases_forget_gate = {&LSTM_01_biases_forget_gate_x[0],&LSTM_01_biases_forget_gate_dims[0],-1};

const static Weight_t LSTM_01_weights_output_gate_x[4224] = {-152,122,24,168,175,41,163,297,179,154,270,156,138,52,305,193,47,404,158,286,118,76,138,173,436,-31,332,427,270,127,113,169,211,273,349,157,464,101,432,101,159,21,37,-9,-144,37,425,402,405,8,10,-269,-28,-172,253,-134,44,228,79,-112,137,234,-151,-507,139,12,-117,191,-48,118,33,506,-240,-30,-116,-229,-105,-354,-102,180,-94,-42,-121,39,-156,-70,307,149,-166,268,-75,-163,54,-106,227,-108,-65,93,-233,71,-124,-30,244,219,98,-143,30,-62,-315,25,73,-104,-239,163,-122,79,-156,198,152,136,13,-26,-274,-95,159,-71,154,56,87,-354,506,10,-73,-363,-167,-139,4,59,346,-195,218,-91,93,333,-183,-35,-26,64,-106,-160,-209,-94,313,51,-124,-38,-108,85,-174,266,-452,29,258,-90,-31,22,-227,326,-78,-134,-135,310,206,-182,148,139,183,-56,24,152,-119,35,83,-102,365,348,125,143,144,143,190,-80,207,298,-20,-96,-106,236,134,-89,259,126,-40,184,220,-25,-139,-195,259,-6,268,206,-154,-9,256,-64,241,13,342,-230,148,-61,24,-245,225,-69,273,-458,-73,-236,50,44,-143,-238,200,-141,-168,-6,-357,-9,-14,27,-97,295,-10,307,94,-144,-14,-96,-240,99,-121,-4,12,-421,227,-103,-329,19,34,61,-180,122,-38,-241,-162,386,234,4,58,167,300,155,334,90,148,-61,63,68,-110,14,164,41,240,-110,304,54,95,314,284,100,201,208,110,328,-199,235,122,316,-23,256,-124,275,-54,-31,-137,-374,-130,-74,159,-70,263,111,115,-183,235,109,-198,2,335,-123,108,219,195,-227,7,164,26,104,-182,199,-48,267,-27,203,-1,-215,178,-29,164,17,398,-174,-409,162,162,-417,-237,-52,135,-292,163,-87,383,57,-118,314,59,-163,408,177,360,47,129,101,310,210,428,491,152,450,80,185,385,199,19,292,-13,19,-31,50,11,302,20,-14,164,62,309,163,260,-86,507,-114,-175,-360,-230,-17,-163,-80,51,-99,-46,-11,161,-247,359,269,-14,628,44,219,127,-52,-384,13,-113,18,-21,-103,-82,1,-237,160,-116,291,-64,82,-96,-73,-205,-4,-149,-59,45,86,-254,82,-238,-241,150,-186,203,-42,227,149,82,158,169,403,-111,-60,325,274,182,-113,224,85,55,15,146,391,243,59,88,15,416,299,307,369,198,187,272,69,434,103,197,105,404,240,-181,-64,-29,-4,28,-45,-31,-1,18,-197,105,-259,-17,289,-73,-54,-127,184,131,-36,255,24,-199,-18,115,-229,42,-312,256,336,-89,-380,-145,-207,156,-353,-64,202,175,-141,32,196,194,-89,-138,-67,-112,110,300,21,113,410,179,321,229,331,499,244,128,139,108,-100,187,343,-191,2,341,110,283,246,405,-82,169,94,0,245,132,-84,-112,208,-178,178,-73,347,304,108,192,195,338,177,289,-92,131,331,28,72,44,-24,25,8,109,424,217,-117,267,-434,-218,-177,328,-346,-205,-142,51,368,102,254,14,114,-70,417,-44,-195,-310,-275,52,-62,-6,-25,164,-74,159,-20,-72,12,147,-327,65,273,12,23,-266,-153,-276,-259,120,-376,-136,142,-76,-60,-60,-226,-193,-138,255,-160,-60,-68,-193,-227,-361,-9,142,162,-43,184,90,-204,-54,-75,433,114,392,-39,-2,-3,-23,-149,48,221,-217,182,165,453,108,-58,-98,-64,293,133,-91,32,-93,273,84,50,839,383,-53,-320,-21,13,-273,-67,-192,236,81,204,-247,37,-58,-149,-252,55,-358,-64,-71,88,-96,-100,-165,280,175,160,40,-195,-5,-75,-391,-96,-162,-279,-111,164,102,185,10,-254,-71,12,91,19,-133,-111,188,302,6,157,282,77,285,103,241,5,137,134,-75,183,308,243,284,249,220,243,-371,111,-310,109,-397,-66,-82,-309,71,384,21,-188,-49,148,83,306,165,-18,29,250,201,-80,-181,-470,497,228,74,274,-39,220,-322,482,5,-64,62,-215,200,-89,-94,45,-61,375,-34,-25,114,-299,-150,-257,73,177,36,-114,179,207,130,182,230,-30,217,175,131,38,-124,-184,6,-154,178,148,-175,-73,-185,-153,53,20,132,72,254,-199,-143,-26,294,310,131,238,-139,-176,296,-134,-146,-198,-400,156,-194,-81,55,-39,141,80,-373,45,-233,513,-308,-27,74,60,226,282,436,122,-337,-47,59,-179,-95,-117,-25,331,1,-114,252,-35,-117,124,25,-152,145,13,523,30,-20,-145,-152,126,86,-194,122,53,253,252,298,294,-7,241,114,182,-112,99,-189,-52,230,153,-12,-26,264,179,-40,57,-188,-263,-53,-63,-86,-1,-22,25,192,316,-18,-6,140,248,-132,-65,1,65,438,-200,-77,131,63,104,-241,-375,312,-159,-33,-52,-110,21,-30,77,72,-172,160,-204,266,103,-399,-146,152,208,197,-237,10,-269,-141,143,58,40,187,-150,-250,33,14,123,-68,398,112,-551,1,-237,248,-130,-209,131,-21,325,28,86,-55,365,92,-139,44,132,215,-49,-145,-50,113,145,-27,75,332,254,368,-5,391,-67,-111,313,143,161,175,193,-123,31,32,27,-214,58,174,166,73,-56,144,-98,61,-146,-51,-38,-263,30,175,174,105,-253,-10,198,201,64,197,-277,-310,57,-276,217,30,-153,-84,-16,70,-121,-103,255,71,-275,-259,-126,-224,-246,78,129,-6,160,-147,279,-355,-163,-212,149,-35,57,-64,-5,-257,95,-97,-168,-17,-132,-234,138,-106,-232,-69,167,-149,-169,116,-145,3,-289,133,173,-178,-104,231,-61,-111,-247,-78,-187,-160,-313,-119,-9,-318,-284,-82,-196,207,98,-289,-120,-161,146,289,-161,133,-4,76,93,-233,137,-103,-38,89,-37,180,32,41,-225,-90,-138,249,254,78,-105,-212,373,277,-159,-212,246,197,-5,289,1,-139,57,9,-441,77,63,-200,-187,-109,13,85,317,98,206,-11,147,-68,-213,-133,227,188,-92,-21,68,200,-55,-221,-63,-104,136,226,297,-117,155,20,-51,-105,-12,-38,-296,-283,94,-291,150,97,-56,89,323,-11,-50,154,-26,149,190,-137,330,251,-7,23,20,183,-201,127,-139,-246,269,-71,-149,259,141,-132,-258,-211,45,-371,-24,229,225,133,78,188,3,260,96,-208,146,82,-48,-20,2,-476,97,210,-120,413,91,144,261,17,154,-142,166,-69,372,-116,-82,338,290,187,-46,-133,14,342,283,307,85,-107,169,158,39,-195,158,177,-154,246,39,-40,353,200,6,334,-13,217,431,340,251,412,103,-6,-101,46,-88,-22,89,311,297,-195,-38,40,44,-183,-341,299,473,91,-315,138,337,262,-104,9,-380,288,-102,14,225,-167,55,-41,219,-1,48,81,59,-221,-308,-498,-164,-114,324,115,-71,-226,-209,24,76,-309,-152,-21,-346,34,170,-182,-72,174,-126,50,-88,339,39,4,-180,-88,166,226,-97,-53,210,152,-117,-109,-230,-11,-130,17,31,313,274,242,84,153,314,200,17,269,155,-245,261,-9,-41,-221,-137,184,272,-267,138,331,-187,-27,-124,117,-45,-317,107,-180,8,522,16,-120,103,79,-119,374,-185,-299,-9,19,24,-208,-98,425,-85,-595,-355,-226,-23,-243,207,-94,-95,-130,-204,-50,41,-36,112,61,300,179,270,-227,-146,-299,-2,-43,-33,233,-64,348,-155,198,-178,-147,-146,-76,314,13,-170,19,-63,-64,-168,126,-138,119,270,-150,355,341,-119,-58,-33,-202,71,19,480,-278,326,-173,287,303,109,39,227,97,10,24,40,-394,-196,-142,3,9,209,-70,-169,-9,57,-192,215,215,-218,61,385,168,390,-44,183,-139,-196,-189,-327,-145,-429,253,358,37,-3,-225,163,170,215,-155,-62,-96,-7,17,-74,-35,240,202,151,-139,-34,124,167,284,-18,26,220,15,-65,-104,177,-107,345,175,151,111,-227,157,237,258,270,-150,185,74,308,-18,261,110,361,263,218,-18,12,159,254,148,-150,-243,-36,-395,-332,-73,34,-344,-236,-19,-174,126,-82,-441,-180,51,118,-95,-304,257,162,-243,100,-444,-43,120,-134,6,219,-7,299,522,24,-108,17,40,-321,47,-235,-14,83,-35,-392,106,-6,-218,-73,4,-320,-252,-74,-57,-330,258,162,-57,206,-128,265,260,52,-260,57,-189,31,-175,15,-5,190,356,105,156,157,-51,370,64,14,191,58,347,198,-378,118,-421,-60,-29,-173,-197,-101,-69,-162,215,-87,-143,127,-36,7,511,470,7,-294,306,-160,-81,60,-18,14,76,182,-177,25,74,59,385,86,146,171,-320,-65,-42,20,-136,-59,-309,-79,-7,104,336,78,-89,-187,203,44,-308,70,-141,-14,-100,-133,-316,-248,-76,-3,238,107,235,148,79,64,-150,-33,154,-79,237,260,-63,-19,137,401,110,195,264,169,-5,427,135,-31,332,311,-293,-84,291,100,-99,7,261,-200,461,-343,-137,-4,-212,73,-269,103,-201,197,-21,-21,68,253,60,249,-223,121,-46,41,72,85,257,74,-104,0,-277,-159,21,-57,-49,115,175,441,-281,180,-66,-199,-271,-141,325,51,219,-276,7,-59,111,259,-62,-143,-98,-74,62,49,-98,-139,139,-50,-50,231,240,235,189,185,309,168,123,65,285,103,352,359,381,402,278,489,133,251,343,100,-258,40,-256,278,108,-89,-526,-127,109,-93,134,-153,54,-337,-305,296,11,-121,-61,-237,-27,153,181,-49,-364,-188,22,30,124,244,-327,-282,-224,-85,-414,30,356,85,9,221,-24,32,-211,-51,-21,-13,145,-72,148,-95,145,-90,269,-71,-78,73,250,105,148,125,183,18,60,83,-192,58,261,212,179,-45,364,-28,96,112,266,119,156,190,-120,-162,-155,-38,-120,13,164,-100,72,-132,130,-89,-12,21,135,52,143,28,75,-51,-162,-146,10,-89,129,174,-322,-274,-153,-112,174,-627,-131,-215,-140,306,85,138,179,-14,206,409,18,65,-75,65,254,-286,-95,-197,7,4,-55,118,-108,179,-390,238,-6,239,-75,-61,-406,-144,-165,-206,-176,-256,-74,-299,-104,-133,183,-108,-30,104,-259,-413,-140,5,-265,-281,-505,-292,85,60,-132,11,-181,-143,29,-120,240,375,341,175,-73,-153,-59,-92,264,304,18,70,23,209,222,-93,420,-367,-185,-351,13,-138,-16,11,-229,461,-20,29,-70,-369,71,110,133,-234,-93,-187,-50,62,-23,-176,120,140,61,104,40,169,356,95,50,-323,-86,300,-182,-72,-341,-372,23,-5,-151,-214,-88,-186,-55,-219,-326,-625,-290,73,-257,-399,-49,-153,-300,-132,-150,-195,-149,-113,-16,21,-395,82,21,-243,113,-136,-105,-312,-328,-168,296,130,-170,-286,287,-25,-205,-155,-100,-199,41,135,38,-492,2,198,-175,-217,453,348,-91,389,-143,-7,-325,-19,-322,-418,95,8,5,-142,178,-194,5,10,-32,-305,164,-6,74,76,33,193,0,275,-140,46,306,127,-45,32,73,-172,174,70,237,-53,419,-42,-154,259,-62,197,122,150,-8,227,302,-73,187,213,-109,172,147,237,-74,81,16,150,-102,130,-130,-49,156,-136,111,-14,-79,26,319,-182,178,-8,176,60,-6,162,-459,217,-76,-32,3,108,-336,128,72,247,-92,-53,393,-2,-49,168,-141,386,358,37,-51,141,237,141,-203,12,-7,229,156,133,-187,80,424,6,-153,-267,499,-354,88,-48,146,-31,226,72,-240,-181,-378,-52,214,27,-439,-149,-310,-498,84,46,52,-325,-77,98,-207,21,-53,-91,322,-91,79,-247,130,290,-237,50,280,-21,180,77,-83,-201,165,252,121,-149,9,-322,67,153,-289,221,-13,392,-146,-8,222,45,-81,-59,-259,-21,226,262,-127,177,91,-13,-222,-299,-383,272,-36,5,-1,244,-183,416,-193,264,162,316,-211,78,-712,-393,305,493,-343,-140,50,39,-319,281,-163,-268,148,-199,-120,220,18,130,-219,34,-262,-270,-297,-291,-225,75,58,87,49,-183,-173,149,-161,199,199,-226,192,202,293,19,141,16,259,261,-139,-59,48,41,321,250,236,3,180,-325,99,-117,24,-264,118,313,135,294,-324,12,-81,-226,-116,109,-147,-77,213,-137,-89,-304,-11,-344,33,-120,131,93,351,109,-95,92,-275,-120,34,115,-37,40,-174,72,42,-41,-93,72,66,-134,321,-12,233,-183,-9,306,112,-137,226,-264,37,105,242,-147,-59,79,271,-120,48,-34,-77,176,273,-60,340,100,143,-40,370,275,131,-242,111,-40,-85,-195,229,112,-152,-68,-157,-81,-38,147,81,-30,-21,-54,108,-176,-328,192,313,-38,-96,-325,106,90,230,-378,-313,-137,29,-97,293,59,-281,-277,-18,-4,253,-175,153,-26,169,57,-277,2,-98,-99,-199,-67,164,-250,171,-112,175,-308,128,91,-154,-385,-28,-350,-244,-423,-288,-99,54,-381,131,166,-95,-84,-181,12,266,-124,-5,-298,253,-125,-316,-62,46,-246,-178,88,33,16,67,114,185,-138,275,5,-146,178,-133,-269,-157,30,-208,38,-441,-1,-214,-246,327,198,135,-206,-246,313,44,325,154,-7,587,126,-16,-254,283,270,-96,242,188,188,255,-155,35,85,-452,-145,-306,152,327,339,208,266,-526,-48,-123,-341,-90,-202,297,-60,339,201,-112,61,-131,322,96,-179,20,7,32,226,212,-161,12,244,-228,148,137,91,106,191,-112,-44,375,173,76,265,-16,344,62,62,182,226,156,-45,252,221,338,-328,-344,-37,-40,6,-14,-14,252,86,182,53,-95,329,97,-286,117,-74,27,-200,140,107,22,96,207,21,284,251,-41,203,182,-36,-78,-231,74,227,-86,238,78,204,26,111,75,-34,-20,249,50,-132,-7,155,-20,-31,276,204,412,330,330,94,58,-65,140,-165,179,-34,108,-78,331,-54,-13,265,369,391,100,319,399,-12,57,379,302,375,-86,-14,26,-100,-46,-122,-66,296,339,236,-121,-537,52,68,6,281,-45,356,51,-298,-188,-194,258,272,138,-83,160,-156,40,-63,93,-215,-149,239,-135,214,-85,203,170,187,-67,205,145,-83,17,-110,-111,158,233,438,29,216,-135,145,154,-22,-126,86,11,97,-28,-164,53,-25,123,67,129,29,237,-334,-128,84,22,-104,-131,100,-26,-95,-38,-309,-276,-199,75,-296,-61,-146,344,214,132,-37,305,83,148,292,236,246,-296,-161,-144,132,247,9,-343,57,312,312,-44,184,46,54,155,-180,-26,494,347,-361,-264,271,26,214,507,-3,306,93,46,105,-412,-291,47,-454,-379,9,90,380,-352,141,78,131,-128,-212,-120,-215,-7,-95,173,116,-118,73,-207,70,178,232,278,352,-51,222,-187,217,-157,269,-160,-162,82,-46,30,-136,117,-223,-222,-190,205,49,-197,111,140,-117,-94,-134,-66,-221,-155,198,-38,243,392,-216,88,140,-1,-115,-432,86,28,-97,-238,-220,185,-50,268,-93,104,70,63,25,164,-25,112,29,149,-97,450,108,95,-257,151,-90,-238,23,307,42,-139,-132,132,-318,-79,158,295,-166,-77,-90,446,73,-15,326,-138,-3,339,131,62,282,391,419,105,338,375,193,230,92,7,-68,-187,15,-40,-218,78,-59,33,-136,126,-117,-2,-154,-147,-121,195,90,-143,280,53,120,273,-110,475,-26,-198,-180,-75,-196,27,60,-289,81,92,-331,69,-56,347,-70,146,118,91,5,333,26,66,2,16,-221,-205,138,212,-94,160,-67,11,-47,-50,-130,-83,61,-367,225,205,-311,283,-95,269,-213,168,24,276,105,406,-51,267,-201,-38,342,23,278,100,253,240,-123,152,200,115,-14,-178,-117,86,157,294,16,347,87,11,241,271,-159,0,222,-141,172,255,-95,227,169,-28,-147,48,-296,-13,-88,-362,-126,86,-1,-211,166,-84,-169,-149,-128,-157,312,83,-369,132,64,206,-173,213,-115,-126,189,26,-71,-118,-35,154,244,-279,-55,-252,-391,35,-135,10,-323,8,-194,-217,223,-156,-59,-62,307,240,-200,111,-24,-231,-282,-497,-100,-202,-70,141,-25,-260,98,-355,95,65,-116,141,-53,-146,-355,-265,-223,-354,-227,-266,-301,-181,-91,-159,-133,24,-61,267,-84,217,261,-246,-49,-310,39,-348,-15,48,103,266,198,314,26,-26,143,-76,-83,-394,4,-107,-161,227,-118,180,121,-90,-111,180,-172,296,263,247,-68,61,319,18,-157,-165,-696,-209,441,-55,-78,36,-173,1,100,4,23,-29,-103,49,39,-112,-88,2,81,165,65,253,318,170,468,86,267,107,165,20,-59,14,-129,-28,248,-2,370,289,-72,113,362,224,57,337,119,-22,95,246,185,396,518,144,449,-212,48,41,22,-566,-23,-214,-46,-152,213,-201,-100,-92,-485,-54,-58,106,-52,3,-127,58,122,-225,111,-46,-28,202,200,-118,404,13,269,29,-31,-133,-192,134,-25,-211,242,-60,168,-201,-37,-101,213,23,36,465,357,56,43,-88,275,20,177,-145,284,200,-95,156,176,125,-164,94,-124,295,133,8,-115,257,47,-254,245,134,215,180,49,214,-65,331,308,-105,-206,159,217,-111,-104,308,50,53,63,85,-462,-377,-316,65,99,-177,-314,-116,315,36,394,-131,-12,128,232,174,-153,69,-249,-374,-217,341,426,59,16,-188,-92,-40,153,317,-405,-180,-180,353,266,-348,-42,-109,-310,-255,-279,-137,354,-2,26,-152,194,-218,-273,-231,-365,-60,-482,-358,-239,226,219,70,-130,204,203,240,-273,-116,-176,-156,-251,51,-39,-340,-26,68,-119,-174,-68,366,305,55,122,-27,-126,-176,290,-276,92,-311,524,-330,-400,101,-177,-120,-125,33,-50,-36,164,12,-29,340,157,12,57,305,-94,-314,-268,61,216,96,274,-62,73,-210,133,-42,7,-417,-16,-363,488,20,-162,-105,230,447,-359,-449,94,401,300,-68,146,297,207,94,182,148,38,185,115,155,-156,71,-28,-53,34,-239,136,-244,-128,92,226,-16,90,62,305,-44,226,-175,200,-13,26,-198,149,-98,-69,47,-240,-49,134,163,-186,-73,68,43,212,-38,-208,45,-28,36,108,-71,-27,-244,186,54,68,-218,-227,-78,-374,22,25,118,46,-322,216,59,-134,195,15,53,-143,-64,-203,20,206,184,256,311,12,82,-128,-19,-12,257,91,83,-238,-340,-158,225,92,345,389,380,-126,-142,-71,248,166,115,65,-40,258,124,201,-34,-220,-94,-47,110,129,85,-63,-257,-192,9,74,-203,-94,-32,-113,-83,-1,-294,-328,604,-118,-236,-378,-254,-141,-316,-199,151,-201,-27,108,183,-133,332,-38,-475,58,-231,194,171,-50,19,-216,404,219,-499,68,-45,-199,-45,-27,-304,33,135,139,-398,-303,-328,-183,-324,-109,79,4,160,15,309,126,-417,-291,71,46,-55,92,59,-70,42,-230,-143,-213,-15,21,-69,-257,-346,-236,-240,154,-201,56,143,-241,-294,-230,0,-154,-293,-69,-59,146,383,73,154,427,576,510,290,381,-65,15,-343,107,-298,329,-136,59,342,91,106,285,-228,207,-105,-422,370,248,414,-80,120,-193,-63,-401,-195,368,-182,-104,-319,162,-279,-167,121,-226,-62,-121,-506,-42,-178,-147,-133,98,117,-142,-16,198,-57,40,-187,303,76,257,-18,376,190,2,65,495,3,109,352,73,-115,292,-64,339,10,105,75,66,-86,89,347,86,199,202,-34,-57,-102,303,360,378,27,51,-78,69,153,17,3,-302,157,-140,136,-128,423,227,4,1,-221,-170,-132,-146,51,-175,329,49,-361,28,-10,70,-409,1,80,338,307,6,147,324,-75,-167,46,74,-33,-292,-3,-117,-110,53,17,15,-208,-77,-54,-188,122,-126,-273,-126,-77,-118,119,-21,141,4,17,-17,-51,295,-28,46,-35,-146,166,350,101,272,247,156,396,215,142,230,42,244,34,-51,249,28,98,-68,-17,-30,66,420,58,452,-22,-131,-97,404,-76,141,-66,533,233,141,150,-389,-162,-150,-314,-237,-307,215,74,-30,278,172,-424,-137,119,235,-280,50,-232,142,480,216,107,-100,109,-404,-117,244,-286,11,-58,256,-104,134,-112,261,71,-432,71,16,-192,-121,-309,-482,-296,-350,-98,-272,72,178,-102,79,58,56,-159,-58,-203,-247,-270,-169,-472,-237,-245,-400,65,-370,157,23,66,-57,-148,-223,5,-228,-327,-182,32,-310,-313,-233,-137,132,132,-62,111,-259,-450,-194,52,155,-15,-141,-263,-54,-239,345,256,158,-46,-11,-304,-128,-266,-69,271,61,144,94,-60,-75,-480,-152,80,-115,-150,-219,136,166,37,72,75,-77,-585,-93,72,-303,281,-286,-147,202,425,19,90,347,178,37,-19,89,307,-74,189,-168,-109,332,-223,-27,-199,-330,-187,254,66,41,78,239,-187,-4,-161,-1,169,207,164,-235,212,301,-52,-46,-115,-256,-89,-189,134,51,-265,59,175,47,97,122,116,-226,197,-92,194,-106,232,149,264,99,-106,240,229,-50,-42,128,-257,-161,-92,-253,-297,-1,-3,-332,140,-174,164,-202,-81,88,230,-22,356,-168,132,368,97,78,-143,492,63,159,416,293,84,183,-109,108,-172,-41,-11,333,-262,-127,272,74,-109,-35,-14,335,38,266,-163,-10,24,255,-37,-124,304,231,-209,286,275,146,-26,-267,98,-289,-54,-353,-334,313,-425,48,158,84,207,-233,405,90,110,302,-131,-340,-99,253,-276,-344,-127,-210,-147,-198,134,108,-43,147,-18,17,101,-123,-72,-86,-16,-224,269,110,85,-261,132,-67,-43,-491,-126,178,283,316,195,-263,-33,276,223,101,265,55,-164,50,61,399,196,-89,2,142,-81,-375,-120,89,-39,100,-61,-62,278,386,409,24,99,122,-171,72,-85,-221,87,-143,90,204,-21,123,-286,-49,285,178,95,-67,407,165,-144,389,-103,-281,-182,30,-326,151,-234,4,182,119,-127,-33,-127,90,-167,-138,-84,85,256,27,-41,75,152,96,-404,132,234,-7,-164,-22,-124,295,3,-275,122,-214};
const static uint32_t LSTM_01_weights_output_gate_dims[4] = {1,1,48,88};
const static ConstTensor_t LSTM_01_weights_output_gate = {&LSTM_01_weights_output_gate_x[0],&LSTM_01_weights_output_gate_dims[0],0};

const static Weight_t LSTM_01_biases_output_gate_x[48] = {118,35,331,88,520,-16,516,105,199,473,-103,109,-563,-556,286,-445,-339,-134,-252,211,530,207,-314,-70,242,-837,273,-378,-226,-49,-71,193,2,-7,-370,196,-261,-281,-153,-256,-235,-151,295,216,-258,-412,0,-246};
const static uint32_t LSTM_01_biases_output_gate_dims[4] = {1,1,1,48};
const static ConstTensor_t LSTM_01_biases_output_gate = {&LSTM_01_biases_output_gate_x[0],&LSTM_01_biases_output_gate_dims[0],1};

const static LstmLayer_t lstm_01 = {&LSTM_01_weights_input_gate,&LSTM_01_biases_input_gate,&LSTM_01_weights_cell,&LSTM_01_biases_cell,&LSTM_01_weights_forget_gate,&LSTM_01_biases_forget_gate,&LSTM_01_weights_output_gate,&LSTM_01_biases_output_gate,LSTM_01_output_dims,LSTM_01_input_dims,TOFIX(0.000000),tinytensor_tanh};


const static uint32_t LSTM_02_input_dims[4] = {1,1,1,48};
const static uint32_t LSTM_02_output_dims[4] = {1,1,1,48};
const static Weight_t LSTM_02_weights_input_gate_x[4608] = {71,-72,-210,-65,179,93,-104,-131,253,-69,195,-138,190,-160,176,3,-131,-215,-142,-185,-184,-269,-227,-46,75,223,-108,-147,-165,277,-42,-13,45,140,-168,-93,-232,93,84,63,208,-214,-17,209,-87,-202,-156,72,155,131,-253,25,112,80,272,88,-276,-188,35,-41,66,22,-67,-31,-30,402,143,-127,-197,-35,122,-133,51,-91,294,-180,324,277,129,-268,-139,-89,-73,-54,28,-168,67,261,150,246,163,140,26,-207,-43,70,-656,-54,60,-276,-241,-57,169,259,250,255,-201,221,199,-288,-59,55,-80,-10,226,-228,10,28,43,207,-136,-91,204,200,116,-25,-183,36,-20,-28,-50,-285,-102,-260,-257,166,-60,82,-348,-132,-63,9,-51,-209,49,125,-308,-273,47,210,64,39,492,-20,40,179,-363,-378,-167,-419,159,122,-104,384,-117,-98,-181,-46,119,-103,-254,-40,-105,347,-122,323,-82,-108,-64,372,11,64,15,98,-115,88,291,130,-11,-98,-429,-48,-420,-27,-165,188,151,43,-283,-362,27,317,42,203,192,-163,333,-69,39,16,-80,31,138,76,-1,-82,162,-38,259,34,21,-264,-297,-58,100,-315,-56,-2,-15,-200,-58,-202,51,-88,211,-443,-258,-109,-139,32,-116,382,93,-112,50,-96,-28,-222,-148,71,141,-448,411,310,-150,-2,-148,220,-241,279,-22,39,-70,-205,-30,163,-708,-61,-324,-146,98,136,-7,221,-250,220,-92,-250,106,-26,78,91,208,-111,-58,-50,-22,-285,159,-125,77,1,217,-12,-20,-42,-200,74,217,-231,179,-217,-84,-39,10,-49,2,54,47,7,-209,-160,-155,-145,-138,220,-73,-35,-24,109,-109,46,-164,30,121,-134,143,-1,-134,-184,237,-260,-287,133,172,-173,32,269,-121,299,271,83,-57,-57,-12,254,-8,88,-98,205,110,-138,165,-206,-23,132,43,11,-213,-178,17,65,153,107,437,224,-143,73,151,-83,11,46,-256,97,210,125,-229,70,-144,-301,-300,-47,-206,339,15,-106,-294,-120,-222,-207,-2,-237,-49,-5,200,222,61,-193,340,207,-230,10,61,-151,-121,-8,275,-211,-22,-285,85,-181,148,114,-75,-108,-158,293,-36,221,-143,-269,116,280,75,-108,199,193,136,236,212,-177,-44,-135,261,-14,-227,92,-350,-270,125,-58,319,268,-232,29,-134,349,-204,-71,81,246,-106,-7,94,-39,-23,143,167,-126,-61,448,265,259,95,-535,365,89,-174,-40,310,84,66,-57,-132,323,-17,167,77,127,227,-107,-123,13,-329,-213,108,278,-31,276,-172,-157,-270,53,159,-125,170,-243,-59,264,-123,-39,140,144,208,-96,225,113,-82,-198,-165,30,168,94,-361,-22,-119,9,105,278,10,142,-9,248,138,-84,-60,42,-164,463,312,272,-174,-152,-304,-65,296,-134,-292,26,-14,-250,108,-237,68,26,11,139,-153,98,142,-197,172,-290,119,186,-53,-1,-34,38,-3,-68,131,139,326,-126,256,-101,301,189,64,-122,-369,-401,-155,-414,189,64,262,-63,-134,34,-76,-182,87,-147,13,-207,147,54,74,305,179,144,-56,106,-16,95,64,223,76,126,211,78,232,198,-227,-57,136,-141,-4,68,182,-228,29,-201,143,-42,-170,-182,156,-196,-103,99,-226,-114,88,-79,68,243,-111,-40,-111,-184,118,-290,0,-210,89,-97,293,138,-154,-20,-115,42,-208,122,213,-45,71,-19,57,-298,253,-231,-183,146,298,34,-324,193,90,-236,26,-225,122,-69,-10,-192,-181,-10,167,-224,167,-180,95,203,-444,121,-175,-95,-280,28,13,94,381,340,31,178,215,90,-386,39,124,10,217,-126,41,143,-13,62,-155,-271,136,-348,-177,296,191,-4,-16,-318,-50,-344,-15,-210,417,-231,-156,113,73,-202,-221,-339,238,-260,-5,-310,-261,131,-203,-461,211,5,82,-137,-134,-372,345,-3,-233,196,306,-105,-144,-30,-18,251,-214,-219,172,45,-243,-188,-415,-82,30,-301,-16,-256,50,-206,357,-68,87,-70,-355,-127,-296,-163,194,150,-194,-88,-53,94,210,192,29,132,190,31,49,-238,139,312,-87,223,-212,149,-249,-139,-172,-69,-147,209,-153,-197,-327,90,122,-237,294,56,183,-228,-108,-192,-120,166,46,21,122,-86,-11,-32,9,227,1,127,-52,111,-100,115,-144,-193,-131,226,255,14,-30,334,13,-117,-28,-50,28,137,-19,7,102,-483,197,94,-342,125,296,-47,29,155,-232,-88,-61,205,153,164,-95,82,270,-35,-13,-11,-444,-123,-178,65,28,90,-198,-142,203,-198,184,-234,84,-59,-203,15,138,-147,-4,-278,142,236,254,-130,-284,41,-6,-183,-76,-171,94,143,331,171,39,241,130,162,-169,-274,-145,-163,-53,75,124,113,-254,258,-84,-70,110,-451,280,125,280,-1,74,65,-36,151,-6,83,-49,5,-69,-91,-334,-156,131,114,109,165,-304,-60,221,-32,206,-75,-140,112,-76,-112,-253,117,-135,56,-195,44,-21,39,178,95,-160,15,-326,-269,257,10,-234,-168,-279,-86,137,75,-40,287,101,194,-28,174,138,-236,161,-195,-110,16,39,227,140,211,-129,230,-202,160,79,238,-163,208,-9,125,296,159,153,-278,-202,-117,-214,55,-93,-67,-58,-158,-199,-236,-121,-178,188,186,-201,44,77,29,441,-210,-27,243,-49,219,-97,-13,-483,75,334,50,-121,160,-137,-419,-402,306,-83,15,-40,-75,-203,141,268,36,132,-162,-214,161,-125,75,-186,30,-144,-98,-325,-214,-9,-217,-23,-300,23,-236,60,-5,295,223,126,34,-205,-9,-81,-64,14,73,93,-126,131,-209,219,21,161,-248,150,-242,-35,168,-28,149,271,262,12,62,81,292,174,-115,9,104,166,-265,12,219,11,177,-193,-81,236,88,396,194,213,82,34,66,262,-18,66,49,-234,97,-58,225,-56,103,21,-13,315,-208,-327,-72,-64,-180,268,175,20,22,24,-180,-251,50,2,-255,53,-165,-126,268,-103,-106,289,-250,79,140,-60,472,-186,175,-453,350,-157,375,320,88,428,-73,230,242,-9,256,-262,205,-273,136,-70,-143,-4,3,-35,-109,-67,245,-396,4,272,-5,57,298,-263,121,-66,63,184,-325,-159,138,80,-20,358,-17,-438,-41,-218,220,-4,-7,42,526,-79,129,-128,334,-76,134,-214,159,-87,369,252,24,132,30,173,-211,-209,90,-358,-131,-69,-83,87,224,-118,136,-78,-69,-337,246,-254,-51,3,-161,84,-438,12,-265,236,123,24,113,-58,19,76,16,105,-178,-180,93,-177,-101,-1,174,188,-71,-34,-84,246,142,-82,241,-195,-132,72,-117,-119,-139,-47,215,-242,75,92,73,113,39,108,7,-292,-275,137,54,-93,-261,-199,51,-66,18,73,-185,191,-43,-11,357,-25,160,294,-77,156,274,-25,247,28,-44,210,-170,250,-59,72,-151,-249,116,-88,-82,-20,-318,172,18,-103,-88,-103,254,-11,-31,-153,265,68,-195,-66,-374,-13,236,12,-135,-132,143,-121,47,-138,-274,-28,2,-27,-359,-135,-146,-34,53,-11,176,-132,153,244,-55,-124,215,-197,-54,151,172,-293,-214,132,307,-273,192,78,-225,-192,193,-60,87,188,-160,180,-85,63,-57,259,130,-183,149,-271,18,81,-177,21,-24,53,137,277,232,-57,67,152,-99,-68,-312,-170,260,-133,-271,5,-166,265,40,-175,9,-258,-40,-63,-172,-265,193,-34,-35,117,-300,166,96,-270,161,55,277,-61,-80,-181,52,-60,161,-34,-262,-33,-196,241,98,-104,-487,-145,-10,-192,-71,-216,94,177,-131,-157,-153,220,-293,-93,92,85,336,278,-213,-294,-75,24,73,74,204,-172,188,-62,70,-29,-40,35,63,-57,175,-5,-24,-42,-266,-172,-78,96,29,81,-75,-211,-100,-15,200,-331,-267,110,196,164,-38,119,-298,116,283,119,221,-199,111,356,52,20,226,-67,145,-73,-224,-243,-58,260,-393,-55,-132,-23,-355,-75,-190,130,-23,275,-287,-66,-8,105,-70,-252,151,42,363,212,-250,-224,164,-125,-217,-7,136,96,51,-37,-103,-7,76,177,-68,152,-203,87,132,-216,171,53,-158,-82,324,87,125,131,-35,-56,74,168,-91,-209,-19,168,-200,-5,-19,-120,-146,-72,-264,11,284,60,165,136,168,203,55,125,253,-284,-454,-139,-64,58,-96,-61,250,259,-32,157,-22,105,215,187,76,384,-236,218,227,-211,73,164,154,-384,-450,118,-21,86,-9,24,144,132,-59,-42,32,13,-36,-263,10,-181,-24,-229,-191,-49,-350,-201,-214,-169,78,17,149,-187,194,-71,52,161,-186,-71,-237,-213,148,73,266,53,-136,-183,426,86,-142,250,-10,-104,-236,-148,238,113,235,425,-161,-176,-165,399,172,104,-10,108,-250,264,-129,-184,-201,377,-5,-48,-58,-21,17,96,-168,-24,120,80,456,287,41,-119,-292,-133,-96,209,-54,143,-301,-206,18,223,253,-111,180,-3,-316,-200,-120,118,8,409,82,-101,1,-352,-228,-112,287,238,27,-34,-129,-19,-30,-188,-30,-156,104,-19,-7,-60,-34,-336,32,-172,-39,6,21,58,-10,-53,-90,216,-42,-133,147,143,-66,-53,148,-20,-191,252,51,-42,233,191,-147,117,-91,48,-94,-27,-12,-36,-34,-88,-57,199,-171,45,-39,93,279,-280,-141,238,102,88,-266,-143,-161,-215,-79,127,-142,-65,53,218,45,-24,203,636,-225,-129,-5,4,168,103,14,-230,-50,-165,274,-16,71,-252,-134,-290,-19,282,48,177,-141,-59,-272,180,-436,73,171,-43,92,-111,-114,77,19,-198,-41,155,-165,-245,36,177,-239,-122,32,180,178,-35,210,-22,212,-320,-268,-59,130,281,9,193,150,284,34,0,129,-123,-43,-83,-91,-156,50,-19,-90,-165,99,23,-141,211,-171,-257,402,-126,343,161,78,173,-80,197,236,58,-34,-321,63,114,-454,209,-15,-77,192,86,339,56,37,157,-130,-55,-392,-264,-12,-157,-230,293,59,-149,251,-238,195,-3,200,247,25,-63,61,-89,-31,-20,65,132,89,-80,-231,152,16,-113,21,10,318,88,-1,-81,56,-21,-123,422,364,-262,46,11,114,-255,100,243,-122,-16,133,-181,75,153,-240,-166,-54,-92,58,-330,-107,123,48,121,181,-14,-251,319,-199,-64,-39,-121,151,-197,84,-3,-162,177,157,-55,-233,157,-94,210,147,-45,-233,225,-85,-168,-126,324,227,-35,184,-11,-140,-140,-106,-327,413,-164,-157,220,-283,174,229,229,232,311,53,-2,63,104,34,-176,-34,177,20,-61,7,-199,170,-162,-42,169,-98,109,-172,255,46,247,-106,-12,-164,130,149,-300,285,-20,15,156,100,-101,78,44,-89,-112,11,182,249,109,-325,-166,-2,-390,-288,-30,-30,26,-87,-47,-98,63,-145,-1,76,188,-25,167,69,-268,360,-186,-191,114,-110,89,29,59,186,-195,-92,-213,-165,-258,96,10,-204,-53,-106,-98,40,-356,170,79,-109,-155,-61,-53,45,-7,-48,320,-48,-73,31,-29,39,-75,208,-39,178,-585,143,-26,-174,61,-21,10,41,146,74,235,22,183,-86,194,175,206,-150,236,128,255,-25,150,236,-74,-88,169,-177,19,256,18,-177,-202,39,-105,-215,116,-193,130,-140,-5,-247,-58,-231,-254,-144,-212,192,-248,-204,-55,191,72,76,-88,33,168,-16,-215,-123,276,53,-315,-77,235,-93,-5,-47,112,17,224,153,204,-138,-28,-44,-90,437,-79,136,-220,221,233,-85,-115,234,21,-311,-104,209,-170,100,16,12,376,154,147,-174,211,-33,345,-98,59,-233,40,-20,-25,62,-20,26,5,158,140,-265,350,-274,-36,-100,-176,48,-312,82,140,141,-49,-90,71,-12,-121,-202,309,69,-356,194,-26,23,141,-333,-86,-218,-139,-232,-57,224,99,113,-66,-210,-64,-102,-126,-7,-185,-65,237,-266,32,-113,427,135,-104,3,102,-207,-153,-368,122,-28,121,-179,177,65,286,47,-128,41,-103,42,205,469,263,180,78,80,236,34,343,18,549,-53,154,-92,144,-248,-78,144,94,-275,107,-327,-153,-128,-46,-236,-46,74,86,112,-206,-311,245,110,127,-4,-93,51,-187,-132,-120,-137,47,32,77,-172,251,-46,-121,-70,19,204,180,240,92,-298,-119,80,-6,-155,84,-9,16,246,-309,-27,173,-217,104,-104,-53,-140,-519,23,-184,-54,9,22,-98,-164,426,-122,36,110,289,174,400,-310,-59,-340,-73,55,-6,29,-282,-280,174,56,217,-161,-50,350,253,-18,76,74,181,56,-77,194,131,-312,31,273,-235,153,147,52,263,168,-106,-17,161,-46,173,43,128,-158,115,-194,259,-116,47,65,-468,-577,-14,201,205,-45,8,-210,-216,-25,-3,51,274,-167,-56,301,286,-129,103,99,-223,-294,-78,103,412,92,106,-42,11,57,189,-429,166,-616,102,-52,-95,28,-62,-349,138,296,270,-72,150,-19,47,-33,-94,17,67,0,-123,-366,-136,402,-231,-54,-110,-5,18,583,-11,-237,-9,-177,105,50,68,-255,116,259,18,167,8,272,-80,-153,169,244,-265,-152,281,-207,125,168,-232,80,55,7,148,72,311,77,210,10,-79,188,-177,161,123,188,287,-112,-258,207,-134,-28,228,92,91,99,-98,72,380,228,66,-266,-142,-216,127,-236,169,-257,-210,223,1,-86,257,303,-1,-213,102,-87,-291,-179,302,269,242,-222,-33,-75,43,185,111,88,169,103,-160,-323,58,-451,-350,-102,210,241,44,6,88,-107,217,-143,-102,-165,331,-31,-83,27,-4,135,58,285,-95,413,-136,-86,-64,173,-27,-128,16,-148,47,-116,-207,-84,7,281,-196,113,39,-112,-21,13,-73,100,-480,96,217,105,62,-82,-53,184,94,-99,-259,41,195,-313,-82,263,-60,-126,-49,128,-63,314,36,-33,51,18,285,46,70,-45,11,-479,147,-380,-108,234,434,-300,305,-194,-79,43,-107,-279,-58,210,-138,-394,217,109,126,34,-73,-67,364,161,24,38,-221,-218,-21,-346,100,-161,-308,138,-3,110,87,79,114,147,180,81,-139,-171,232,90,-215,-244,-209,149,-8,226,137,150,365,-133,70,-52,167,-14,-184,-269,-6,8,90,-189,-62,-6,-14,148,-13,-58,-164,96,-120,-38,-20,132,171,37,-48,-66,-59,-11,-35,-179,-104,90,209,61,141,-251,306,228,-215,-364,-20,-427,215,17,150,268,169,-21,187,186,86,359,-120,143,128,-55,26,128,-257,-246,-156,-189,-216,45,54,438,-384,37,253,69,184,49,-25,-117,-30,-157,160,-392,-175,-375,-44,-185,-28,153,-264,-154,-183,-304,-216,-91,-211,-191,152,-10,-40,8,-203,112,152,-39,-181,-320,-80,-199,-392,13,169,161,-27,-293,-328,60,-174,-289,-76,305,105,-105,-106,-59,-3,-282,-389,-305,95,-162,-106,-245,-245,-84,24,-82,68,94,-62,5,12,-125,-241,147,-15,46,168,10,-62,-208,-9,-175,-178,-262,-14,-426,-261,-35,-226,-99,-64,84,-130,-122,333,105,-93,112,-357,-62,-77,-138,240,-246,154,137,-305,-97,360,86,116,71,-57,-272,-18,-297,-167,178,173,138,37,13,284,273,290,375,6,86,-40,168,-296,169,-181,216,-62,169,141,-120,-41,-171,-120,26,260,-24,-132,4,-20,-40,-152,31,159,187,170,-130,-34,-263,43,-10,-20,-40,42,-68,37,-68,97,30,139,35,-100,58,235,125,409,-11,-237,115,-367,116,-127,135,190,305,367,41,-135,-59,-342,-178,98,-404,-132,39,172,236,195,192,95,312,-138,-24,208,-408,-41,-217,-99,35,-410,185,-5,306,-69,-109,293,118,-189,291,65,284,182,-23,191,-164,-6,-24,-203,-210,-23,-202,-57,-34,63,-81,-125,241,-22,272,441,47,-418,345,22,-59,-173,0,237,134,-65,39,-133,310,-226,171,-6,179,54,85,202,250,-160,-4,-160,-234,197,19,-77,110,97,9,-408,72,36,-148,17,370,-222,-34,85,35,15,-162,-178,-135,277,-108,-217,24,66,-250,209,-71,-60,9,181,-77,103,392,-28,-169,155,26,-36,357,175,16,38,206,-145,-41,74,157,-148,-145,-82,-142,-182,-148,93,213,64,107,-177,71,158,150,-189,-142,-273,-98,48,-106,154,-22,-187,-14,-115,-71,-215,131,99,26,117,-162,-205,-102,-59,-184,-37,66,-20,235,351,-137,125,409,-3,149,-57,127,340,50,-117,-255,-52,87,171,160,130,138,93,-330,-43,186,-247,215,-5,-188,-100,97,61,159,69,147,11,-45,122,82,-222,-276,-244,-21,20,201,-74,-51,83,-179,-70,-165,140,-82,-73,-188,117,-30,152,4,56,-215,-77,-302,1,451,-15,-179,239,29,99,-265,-140,-334,77,-107,411,-203,32,-118,-153,288,-25,-76,422,-111,-16,-86,95,111,360,-49,-86,-262,-131,-444,-184,-163,39,-155,49,393,-34,-360,-14,275,-107,-86,-283,-74,-457,-3,42,-93,-343,180,-283,80,59,-73,-26,-103,-138,272,83,-33,-117,175,-251,-67,-339,224,-78,198,-38,3,22,-307,-275,29,-2,-177,47,-86,13,4,79,381,-297,-57,-83,-97,-171,-188,73,-252,-44,-21,153,86,-71,146,-304,-309,58,248,83,-301,22,-87,238,228,-120,77,323,17,63,135,-40,92,27,23,-146,-8,-33,-104,163,-21,217,-167,140,-75,121,-70,255,-161,-95,-36,35,-170,-164,203,-27,-143,254,331,-179,-73,-288,-112,-179,192,97,-234,-11,-32,14,-362,210,-159,211,-14,-18,-153,-24,154,-33,39,-97,-62,-170,-107,110,-21,-176,39,163,399,-306,59,-225,122,-107,-112,250,17,-45,-162,-189,-234,252,290,241,202,177,11,155,7,-117,-143,9,-39,-125,142,-31,21,16,105,-157,80,71,212,134,30,207,-204,-9,-28,31,-40,-15,-217,26,-189,-179,-189,132,-53,45,-215,-91,57,-163,-15,-375,340,-45,107,24,152,-39,-105,188,-386,24,-165,-257,231,27,-64,105,96,1,205,-80,-107,225,150,156,-11,-280,-39,-202,67,246,-92,-55,-179,133,-22,-18,167,-91,-234,-243,185,39,24,77,138,-290,-79,39,212,29,-76,-234,96,112,-180,161,-4,172,111,79,-48,-7,116,166,52,-129,-104,-22,216,68,-14,-46,-199,-97,-173,-218,13,90,111,149,-219,21,-146,90,134,177,160,214,54,-253,-97,-61,303,-99,389,-56,-260,-478,191,132,-320,-46,82,11,20,-246,-66,123,50,-26,32,-58,141,7,287,192,-44,-185,-4,0,69,-331,63,-394,-4,-67,63,-240,13,-112,97,-289,-397,84,12,-95,-91,-171,-271,-188,-34,135,-232,-129,31,66,-179,-63,-170,104,265,79,108,61,-40,151,-153,-346,-27,114,-225,-95,116,249,130,49,-91,172,-159,117,-266,-22,190,-405,337,-202,267,7,-121,-111,183,-83,-173,121,-37,-99,104,-217,147,75,-24,55,151,-22,-137,-218,-237,-166,-42,250,61,-375,91,24,-89,140,-17,7,124,-258,84,297,-188,192,-21,-282,-220,-219,32,361,523,118,235,160,-45,246,-45,-227,-129,-70,32,60,146,-71,-115,241,173,281,-346,209,163,278,127,115,146,-55,-63,-150,-32,86,-234,254,314,318,-134,-82,142,-255,129,342,-155,209,166,-92,-10,-148,-347,-472,-172,-176,-367,-29,270,280,116,-56,-93,17,5,228,-30,129,-130,118,-55,-295,57,-18,-240,90,-22,-69,-141,-320,127,-198,-167,-66,39,-201,-206,122,-89,-1,-436,45,165,-166,-222,-324,-52,42,51,-487,-42,-211,121,92,-46,125,81,193,304,346,42,161,304,135,-173,298,-3,-21,148,-217,-229,24,-106,-117,48,-54,194,154,29,-239,-114,-179,202,169,114,169,231,92,-131,272,307,-166,217,-99,-56,23,-186,-147,-147,-226,222,-190,260,41,-84,16,-139,300,132,-53,-23,234,-54,191,-36,-89,-44,92,363,102,118,-106,323,-100,1,103,16,-85,-155,45,61,24,-162,-304,-240,68,-217,135,0,208,-81,78,-151,-78,-212,-372,-53,89,-153,-150,194,-72,70,117,-161,508,-446,-202,-139,-118,292,325,-101,242,278,190,193,-69,14,196,-103,264,-285,102,-125,-186,166,-64,185,149,-225,-163,-202,209,301,-96,149,-46,249,-166,211,-224,44,-64,-168,-166,236,70,29,-24,157,13,-123,-184,86,-131,110,-99,120,265,216,-162,-158,-107,229,-227,-289,-222,305,-178,-51,210,-154,-132,-16,232,264,136,-308,-99,117,297,145,-573,-217,-193,14,120,-122,229,121,-209,-210,111,222,-104,353,-251,-53,-33,-153,193,192,-269,8,-1,-202,156,35,184,-67,165,74,-121,14,-18,24,158,166,-186,20,-165,-218,223,10,-85,256,82,324,-233,49,6,-26,-197,144,-113,30,-28,207,-68,-70,129,100,-63,-89,-144,-66,-164,-98,-81,-178,-140,190,260,75,86,68,173,46,226,66,-162,20,169,-171,-114,56,124,117,421,189,27,31,-231,-30,-11,6,111,-91,109,-86,218,-316,164,-220,199,4,-43,-6,-50,10,-71,-164,302,197,-268,111,-220,-130,-72,-113,169,-274,126,66,202,-168,-421,-35,-23,246,192,-342,-35,141,-77,-25,-83,217,-143,-173,-449,4,201,-76,-226,-162,159,-357,-203,35,-241,-168,-222,134,138,-33,-155,39,-37,-247,129,164,-365,109,80,-127,-105,-179,27,28,48,14,-23,-63,97,223,252,-102,-223,308,53,-13,-163,96,84,-227,47,-40,78,-134,6,-342,15,131,134,-178,-150,-105,-93,-162,5,-5,-129,52,109,75,331,-144,-181,34,270,21,-334,35,-74,58,434,297,-296,182,185,138,-38,105,131,-68,238,-41,293,133,-335,-153,75,-184,-255,-293,17,250,-276,-180,-294,142,-374,-147,-92,234,9,-150,175,-38,99,-309,-281,149,194,203,-282,277,318,-291,88,33,-15,53,125,-35,-208,-146,-224,293,-215,-25,191,214,-157,-54,-67,-76,127,-111,303,122,-48,66,34,-321,182,-400,-160,-61,134,-126,-72,-167,-41,-247,-118,-46,61,-112,-111,22,-480,-184,40,-37,-182,161,-179,332,123,-23,-157,518,43,94,-104,228,-410,-45,127,-40,169,-59,281,255,223,-275,-193,-205,-101,163,-2,162,188,-61,39,137,-259,-60,18,120,63,244,111,146,-193,-114,50,-1,-258,59,-98,176,46,221,-13,-9,-199,135,200,-70,146,-13,120,-126,-312,162,139,161,137,62,84,101,-262,27,-309,44,172,79,-142,-120,-47,-174,169,-110,29,-146,174,283,156,223,114,102,-15,67,-251,41,39,62,92,477,-170,-5,-283,39,-225,155,-41,419,225,138,-143,-3,-191,-138,-13,196,159,-152,47,317,284,60,153,294,232,275,39,24,-7,24,82,267,117,48,77,258,84,112,-245,5,-245,-100,203,-100,-352,172,56,-47,-332,-73,-109,-307,113,-136,56,-35,146,160,-53,185,-186,451,30,-151,286,-119,-156,53,114,-248,219,-45,-261,246,78,277,-302,-228,-7,90,-32,169,-197,189,22,158,-18,-140,107,-331,103,54,-50,17,-260,66,147,133,25,-78,165,95,227,33,157,182,137,241,529,-220,425,-311,-119,-32,151,165,-127,238,305,129,78,154,246,-34,-229,-245,-60,-5,-349,42,2,-296,77,101,-56,158,261,-172,27,166,-148,-71,89,179,265,27,-73,-21,256,-198,69,407,-152,-11,12,44,-71,-293,498,186,79,-145,215,251,99,-372,284,21,-398,-106,50,-66,157,15,59,470,-34,-107,81,-44,199,99,117,-3,-124,-51,1,-1,142,-95,357,-47,-90,-157,266,-77,-120,367,76,-94,66,83,149,-23,-129,-214,35,191,294,-174,-126,247,-263,98,175,-17,216,-265,-119,199,268,-65,-1,-123,-183,175,-11,-155,222,100,214,-127,93,170,-26,170,51,13,-116,-135,-56,115,-164,-43,38,150,-139,185,-264,-237,-33,-55,-99,134,329,-47,-40,-109,192,40,288,307,-303,117,111,126,-278,125,-47,-56,-37,-253,-151,120,28,-189,-191,201,186,-150,167,-78,122,199,-170,245,96,5,258,-141,-3,104,-43,-485,166,-238,91,-310,-383,83};
const static uint32_t LSTM_02_weights_input_gate_dims[4] = {1,1,48,96};
const static ConstTensor_t LSTM_02_weights_input_gate = {&LSTM_02_weights_input_gate_x[0],&LSTM_02_weights_input_gate_dims[0],0};

const static Weight_t LSTM_02_biases_input_gate_x[48] = {229,256,334,84,-321,-138,-9,-166,264,353,473,-118,-63,-2,416,292,422,138,-66,-183,-54,513,248,-537,-45,-250,7,272,-159,158,159,-4,271,258,373,258,254,-31,-227,-12,-79,200,97,271,131,-86,-109,120};
const static uint32_t LSTM_02_biases_input_gate_dims[4] = {1,1,1,48};
const static ConstTensor_t LSTM_02_biases_input_gate = {&LSTM_02_biases_input_gate_x[0],&LSTM_02_biases_input_gate_dims[0],1};

