#include "tinytensor_lstm_layer.h"
#include "tinytensor_conv_layer.h"
#include "tinytensor_fullyconnected_layer.h"
#include "tinytensor_math.h"
#include "tinytensor_net.h"
const static uint32_t LSTM_01_input_dims[4] = {1,1,1,40};
const static uint32_t LSTM_01_output_dims[4] = {1,1,1,24};
const static Weight_t LSTM_01_weights_input_gate_x[1536] = {-753,31,123,-570,-175,-732,996,-766,-948,621,-743,-678,749,-727,-645,70,-177,-399,-279,-1608,-268,-19,783,959,-72,378,-1312,-381,-423,-976,372,496,-1012,626,-1444,-861,-1567,-1626,-1171,384,270,335,1093,-1156,-477,351,1149,-289,1221,-1414,1846,-326,1894,1455,-435,499,-677,-208,-618,539,-121,-395,1152,-634,114,-1354,-1568,537,-1378,-580,-909,-752,80,291,352,153,-504,-709,-58,-975,-67,-1504,-618,366,-1269,62,-737,113,-251,-986,-1132,-1303,790,754,-697,-490,485,22,-178,466,1320,1720,97,303,51,-94,-2910,-869,274,-73,1291,429,2241,-961,783,806,-512,201,910,-952,-1016,-764,-606,-2139,-794,-436,-3156,-1271,1140,-382,888,-686,-262,442,-278,-136,1031,613,1189,757,-229,-573,778,-760,30,1204,-679,-133,701,1732,373,771,1302,-85,-311,-459,1351,-452,1164,-161,770,-351,-887,-318,586,656,-935,1348,27,-1574,-455,-758,-1265,-93,1802,-599,-109,696,31,-162,-1156,-807,-1857,-579,530,87,1041,341,548,1053,-835,-622,-971,-702,493,896,-311,469,-1140,949,-176,1016,344,149,305,765,-857,-722,1015,810,-179,987,-880,837,-632,-506,144,654,787,936,-393,1324,-645,972,316,476,-247,-744,-339,437,750,302,-1664,480,-1305,636,-409,417,226,-785,-1024,-2323,171,-39,-1500,729,-660,143,-141,107,799,-496,-283,63,20,2084,-849,-341,-548,-1093,31,1027,1011,439,41,-213,815,-1637,863,-1612,213,301,-628,-352,262,-72,-1708,-504,-775,-73,-724,-1028,-207,135,-994,570,-873,-191,483,-612,187,1053,152,996,754,1426,1068,99,-826,1230,1243,-124,1284,2035,428,1020,1976,-1330,1430,-676,-1574,89,-292,356,21,-808,969,357,390,1204,-338,211,-961,453,-245,1064,93,376,-754,472,-1188,-901,205,-13,81,300,1124,-965,1032,883,-1068,275,-544,-715,1089,1167,-961,-494,864,1068,-553,864,661,-1132,640,-919,-723,-956,1426,-236,789,819,719,-401,209,-1282,-647,-432,-1515,-352,521,-589,-797,-1013,398,1708,-1350,1314,1651,-429,410,-353,-851,-1132,-288,-919,-967,-1693,-1438,-448,-1564,-90,-1217,-676,-1571,449,-614,-393,-1483,-1238,-1254,-1217,-1251,-498,575,186,946,516,-117,-1245,-1225,-984,-279,-886,-911,26,142,272,777,885,80,1113,1658,2134,12,1027,292,-187,-1316,1095,284,1029,474,1365,953,198,-417,-972,1323,2191,1106,-492,589,121,-1507,-753,-553,486,1157,-831,809,1129,-902,596,-1157,604,-876,589,-712,472,430,-938,571,-486,432,654,-603,955,990,-930,-731,-7,394,514,50,197,1269,-1060,1264,917,296,100,-56,351,-645,904,371,-1107,18,729,-1080,-964,632,983,-1621,-754,761,1294,-74,-1166,-814,2112,-551,1405,123,613,-506,86,-264,-499,-1183,248,531,-1057,1465,959,-972,-370,1069,-95,546,1205,309,608,-308,1713,231,-293,-342,593,1175,245,-56,16,-317,-352,664,-1000,-57,-324,539,280,-486,-619,-269,-322,-380,-190,-832,1143,-604,335,-691,418,-444,-1608,-61,-2215,-1382,-986,601,1060,431,267,825,-728,-1181,347,-763,-968,734,-288,-1101,234,1718,1164,-751,222,-940,-668,912,815,990,88,323,597,1013,594,-427,733,-585,-1159,727,-356,-424,-867,1025,1122,-796,141,-898,1335,-999,-31,-700,1211,-700,-139,-935,-830,718,-357,1049,-262,-747,232,-533,718,959,801,-1067,899,-644,-768,100,686,53,345,630,-1214,-789,-1137,-1714,756,-857,28,-1560,886,-1483,1031,1155,336,524,-805,127,-1647,-131,-164,-996,-1556,-673,-1349,-902,-320,-180,248,1116,-971,-1092,1086,371,-1034,-213,703,314,780,-87,-290,-106,189,780,-238,-180,-714,1130,-475,416,360,1066,784,-538,686,470,-1435,356,1482,-279,929,499,-288,-514,-1044,-1618,289,342,-2307,-119,1104,1988,-529,-1450,1119,317,-492,-1439,-722,950,505,-238,-773,810,-99,-907,-1232,-182,-1182,-554,172,387,-1297,822,993,1006,-1221,780,-1434,830,238,383,374,-395,362,-1011,-352,-832,-921,925,-1530,569,209,-778,-844,359,643,167,323,2265,251,1031,-706,1316,-985,-603,1537,1079,1259,-951,1656,-204,-742,322,-337,-637,-908,353,-1252,30,564,787,71,-972,-328,568,949,-826,1131,708,-152,1312,-432,-250,511,815,1020,339,-873,-948,164,-297,-973,1012,547,232,-424,512,906,-850,1162,-993,-572,-549,-67,-387,-680,164,820,41,-356,-2125,298,-936,-1114,1530,890,1487,-352,-1903,425,-31,-398,675,-540,41,-320,-802,287,-111,386,-409,-314,233,-589,1658,-755,-169,-268,1087,818,931,632,169,1973,-476,58,-357,1702,1440,-99,33,752,415,1433,924,589,1191,423,-663,475,-474,1428,-95,950,82,-462,-1029,868,-1118,-1246,-1362,809,-935,954,-702,61,-853,494,-396,766,-279,556,-281,468,806,1286,716,381,272,-1269,-600,55,2549,1206,1330,-686,-100,-7,-417,-399,293,1159,-832,-1082,-764,828,-812,-917,865,926,657,683,-297,-1210,8,-1055,-1183,-967,892,172,-756,881,-371,175,230,-676,-150,878,770,-1312,-1324,977,-1359,1061,807,895,-1167,-761,-921,-72,129,1051,-486,1398,366,-723,1010,814,-1113,-598,-470,-852,493,514,-270,-166,987,-2256,1172,-314,1543,72,-833,-1059,-514,943,-433,-234,-918,-1004,-385,-405,-236,-1019,-1548,190,-732,-301,1018,-17,-479,-1002,321,111,-1477,62,-749,1034,-1000,126,-712,1174,364,-341,656,-973,1273,881,-511,730,1101,-150,39,-265,338,525,929,-316,257,-1215,1894,-309,-446,-212,581,-499,716,562,909,1431,1630,1179,-539,-1003,-1036,955,397,308,-403,335,318,27,-550,431,-596,1124,-277,-441,1012,1385,1048,-8,-191,-472,474,1509,806,-653,459,1634,887,82,426,217,1092,1213,426,1677,30,1063,912,69,1579,1279,1586,-60,678,567,-735,735,1046,261,-8,-1678,144,281,785,1397,-650,-8,-181,673,-5,805,121,912,312,2842,1693,-907,-589,-891,141,422,-665,1070,-158,-849,36,-212,-20,697,1375,-138,1339,1744,1321,761,1544,-992,-751,-253,-1300,-231,-593,-781,443,761,-719,-979,-653,-993,-1120,-446,647,-653,-812,-861,442,-1051,-397,893,1169,-481,963,-76,533,1961,1088,-379,-1228,1867,-1252,-144,-1137,1289,-220,725,67,531,-205,-508,351,799,-169,-323,392,1705,973,1028,1648,860,-636,-715,-118,1094,529,-200,-452,-131,780,-485,-175,-791,74,-1058,142,566,-483,-745,-864,567,-124,941,-1241,-746,-766,-813,-1092,335,-1418,639,380,-278,-1451,-1444,-254,45,-1787,-360,775,327,142,1000,255,-484,-394,1299,246,-714,-2360,2511,-1180,-169,2358,-15,188,69,823,-648,1190,317,204,-110,-146,833,758,563,655,1361,-437,-867,561,-144,-803,-564,-686,-593,928,272,-826,1033,1329,354,1158,-351,1412,-282,574,591,482,-15,390,-927,-1109,859,506,-650,189,-2144,345,-667,1142,1204,491,320,118,6,-385,-116,-114,205,1497,366,-2304,-1157,397,216,280,1756,-933,1206,319,679,383,-823,397,269,296,609,1445,-758,912,-662,-105,197,-1316,-405,-504,72,434,-206,732,694,-47,155,-204,1496,483,-656,1263,-307,515,40,-304,-661,-1435,-1478,-403,700,192,931,-512,-1549,932,2423,1149,-391,-385,641,440,590,1155,-114,-769,98,-1628,663,-1172,-674,-852,1729,-1742,-1102,2277,-1155,340,-446,-1173,-52,869,305,570,1061,-1331,-691,410,975,228,-310,-362,113,-982,674,521,-376,-413,759,759,-509,-1197,513,-1118,-143,-1118,780,627,-1122,-431,-509,864,-814,215,197,-46,-265,-1644,-897,1389,-1351,199,581,-1377,233,490,-602,2193,162,-298,-1172,297,302,1451,613,-672,-295,923,311,-119,174,971,-233,441,-136,-593,949,705,1168,-352,209,-482,-260,-323,229,-631,331,1304,1443,-7,1091,697,79,829,1333,559,395,1122,60,1846,1746,137,1568,589,2146,107,-100,-68,416,1460,913,-1313,1679,153,834,-132,-2159,738,88,970,-421,-485,-717,-316,735,965,126,235,-111,-317,315,-312,1730,-787,-939,293,116,-487,1093,452,-153,1035,-744,-992,-69,-818,-153,151,-710,-152,-1081,-1224,1016,-1058,1178,-1014,28,417,695,-495,-1077,-33,1044,-794,-500,529,705,1314,-312,660,-830,-676,776,1249,664,450,1375,-178,-210,459,253,180,-662,840,438,424,-1773,-993,-1826,39,-768,-445,-1632,-369,1586,1661,-568,-291,416};
const static uint32_t LSTM_01_weights_input_gate_dims[4] = {1,1,24,64};
const static ConstTensor_t LSTM_01_weights_input_gate = {&LSTM_01_weights_input_gate_x[0],&LSTM_01_weights_input_gate_dims[0],0};

const static Weight_t LSTM_01_biases_input_gate_x[24] = {-2395,-3260,843,2047,-2590,28,-2108,363,1046,-470,1203,155,-1320,-209,-1569,-1906,-732,382,-1435,153,-1677,1318,2127,377};
const static uint32_t LSTM_01_biases_input_gate_dims[4] = {1,1,1,24};
const static ConstTensor_t LSTM_01_biases_input_gate = {&LSTM_01_biases_input_gate_x[0],&LSTM_01_biases_input_gate_dims[0],2};

const static Weight_t LSTM_01_weights_cell_x[1536] = {604,727,-821,70,461,-1237,-629,697,1084,-411,1243,-1587,-481,740,-782,1008,-488,-154,-779,530,-109,238,314,-697,-266,-760,333,579,-808,-1043,994,-1099,617,-1225,823,-136,-1021,339,-650,1136,236,1257,783,853,-673,-628,-785,904,-2061,-709,-689,-1246,-421,324,-460,-1020,1,1158,-2506,959,-59,22,-323,-737,848,-1285,304,982,-1,1059,141,734,-646,827,-1037,582,-932,-199,-824,-272,3,-989,280,-732,600,-281,-687,-1330,294,-1463,-1255,-239,1469,771,-605,-191,1016,874,-577,1469,2037,83,945,732,1167,-1195,723,2568,-565,972,-448,-175,1238,454,13,-470,214,-202,-482,192,-126,-427,-827,-403,888,1022,39,-1638,-621,-209,985,-265,-376,383,407,-765,1149,-367,1432,1273,1364,-206,1178,-203,618,1253,703,-1106,314,89,-976,-1098,-1428,-564,417,143,-701,-262,878,-89,686,-1019,-1268,-892,-1106,-387,326,716,-815,982,-532,37,-934,417,-67,-136,-1443,426,512,517,-2610,643,-529,1683,989,925,587,-1266,151,1959,-934,1064,-811,569,-569,-1662,-225,959,246,-886,334,-360,-1165,-1213,370,1129,744,796,-958,416,-10,322,-1121,-378,-317,936,-286,-345,-380,337,-230,-1161,953,-13,1342,-683,676,-549,-1197,251,256,921,-436,2358,-751,748,-663,-426,1433,1091,1331,-597,1746,582,1958,-1162,1099,-1337,58,-341,-962,-411,-283,-50,-888,312,1028,-203,378,-606,465,-945,688,-950,1146,-966,-402,-73,-817,645,940,631,-173,-370,1104,-737,1213,-713,-615,-444,1170,-526,209,738,176,-635,1185,382,-941,1232,-111,1287,1308,585,1165,640,599,-346,1250,-1,-39,-845,-1221,741,1581,792,1851,-2,417,1575,-1026,-71,1690,1957,-128,594,-1667,-134,270,-119,-793,531,-532,1053,506,133,-609,962,-100,-1641,379,-164,201,-962,-14,-704,-28,773,960,-776,1135,-1004,180,-1306,-1061,-1499,-1357,214,983,34,-800,524,988,-789,156,958,250,694,1197,-468,-316,129,719,-1919,394,1099,-1868,622,-505,600,229,574,730,-2195,53,191,-237,1481,1164,-511,171,918,-287,202,1729,1329,1546,-332,-80,73,-159,-305,-951,497,-104,-687,877,-1123,938,16,-952,-348,-780,-950,334,440,320,-781,-75,1081,-363,1013,827,-125,151,-405,-60,863,-502,-1133,-1253,85,-991,-1422,-191,-1084,-1014,-1439,-1847,1145,-560,1091,161,218,-819,-55,-552,1425,916,-446,17,-360,-1320,-1507,-737,672,111,-1175,-1232,439,-565,858,-496,-76,-509,1228,-9,285,-15,311,-885,-1214,-741,151,-767,-225,992,1049,-854,-320,-857,-1242,-490,-151,327,-1169,16,313,527,-466,-376,363,-1138,158,-434,908,-606,916,-2,-289,1505,641,1071,751,1769,1660,-1135,611,523,1724,361,564,-67,330,-188,139,-217,1757,722,1544,-77,-157,-94,937,-1202,-918,-527,-30,48,275,-182,-460,-1324,-308,-1255,-269,-520,-1661,231,564,-249,951,-530,18,-133,-1000,-1308,108,-606,-1355,226,-649,865,-655,862,789,37,342,-277,1694,1034,837,695,68,725,483,1183,1057,-200,-154,-212,1156,19,234,-919,-231,-525,-2096,1111,-628,62,736,-2991,103,-150,-122,-513,627,679,-196,-470,-1231,259,482,65,-262,-66,-96,127,-750,-1395,-697,-1382,388,-759,560,-1174,890,1151,294,251,-700,-892,736,540,-141,-197,-341,412,-126,693,674,-646,315,-856,787,375,1067,205,788,-142,-121,-439,-426,-1817,1363,1786,392,1272,1341,150,940,-65,-1361,-1501,-757,80,-1189,939,1149,918,-924,599,592,673,1208,1670,1440,268,-393,51,-1168,-1459,403,619,95,-745,-269,-740,-623,1167,-918,-240,710,-303,52,932,-1003,-901,-131,1049,1411,401,0,98,-755,-497,754,-216,-1,527,134,-333,2582,778,36,-409,1839,59,-194,-683,1381,196,-270,-523,611,690,432,-934,-313,562,-1755,630,2765,-1116,618,-114,-591,939,-914,272,-292,1310,-807,951,-636,-358,-409,832,501,-178,495,-1133,1031,116,-838,-921,1185,-1171,497,-809,-159,846,-1103,-310,-92,829,1121,-902,1118,-457,758,-851,512,-912,947,1994,-97,433,-575,-624,808,429,564,-1697,-756,461,34,2224,1623,668,-96,-135,-169,-1297,593,1884,934,-1201,-1009,571,-25,385,863,107,592,-1257,452,-365,-604,356,-256,-1245,1034,-1122,200,829,691,-1186,-181,337,-286,-45,-54,1441,-816,-805,109,-434,188,1342,-469,581,-681,70,299,-828,729,478,-78,14,-1565,-14,1347,1374,23,436,-716,-463,-1487,-1303,-1217,-683,1218,1160,472,-920,217,-1098,-1250,360,-894,860,-609,1994,-120,1139,584,2,338,0,530,-10,254,-228,1459,1540,-531,825,-139,1044,-576,454,-1243,-797,-268,-902,-909,-1209,-587,1072,990,-256,-707,601,198,236,-34,-845,-112,-1006,-1145,-640,-990,939,26,-1661,119,362,-588,-1037,-1350,-731,-1337,869,391,-426,-612,1328,-365,231,-333,219,1306,-922,1507,-495,334,-74,236,-962,-797,-358,-699,-21,-71,571,894,1463,906,1364,120,-651,1039,-44,798,-295,860,452,-475,-832,1183,-58,-505,-4,-258,-559,620,955,-576,-351,-970,70,1070,464,-229,-2711,-868,-130,1293,396,-931,802,979,-236,580,-500,-395,39,236,-569,-96,-1298,-13,723,-505,-1400,-1226,-1176,-1064,-1132,877,-1130,1008,-1012,541,-743,1052,-1086,845,147,-901,-590,850,-9,1047,122,270,551,355,-926,-722,615,1075,-817,631,-958,-199,590,-137,-656,-1089,-553,-672,333,705,1113,369,-196,1289,-1309,695,1545,-237,-1941,195,-786,-770,309,995,-704,2154,-1000,17,-241,-430,1173,-811,169,1026,1794,-1363,929,255,-378,1080,862,-446,-483,-753,507,-224,-1509,-589,703,34,1176,-236,1165,1213,191,17,-188,1107,96,40,-958,-1067,-1500,-1141,-414,889,-821,-1252,716,-1169,-379,-545,-232,547,243,424,1101,-629,1773,1848,167,-2056,-1344,-216,-607,752,66,-297,-1843,660,-480,458,-2751,533,-769,-854,234,364,-351,1347,830,-764,-154,1224,615,-595,972,591,1141,-148,386,911,361,1150,-272,-95,172,1293,1147,139,512,279,958,204,597,748,971,-1011,603,1169,-507,-572,-897,604,730,297,-982,-1311,358,-954,285,-743,-1315,-744,144,432,108,-1748,469,-1605,338,-51,181,519,620,-304,-224,350,-1249,417,-2872,541,-280,734,-275,878,65,233,1087,1589,391,1113,-545,-721,1127,-228,1044,-763,-428,149,-651,-874,-699,-749,1185,1149,1681,1801,350,-9,-565,1238,1032,152,-1000,-925,-507,497,-124,447,-654,555,1681,69,-955,-883,880,783,-1265,-486,-55,-585,-990,-72,-443,1620,-1009,426,411,-556,737,877,1316,-877,-616,1203,757,324,-1465,-945,1097,1267,-1229,128,604,133,-1197,723,-830,-404,-534,-66,654,378,716,-125,772,-892,644,-72,233,983,343,-804,398,761,-303,140,-582,1011,211,76,-758,426,-15,-112,-1210,465,-601,-684,1049,-1443,193,258,-126,-2856,1458,1151,-934,889,474,341,79,-1799,-320,-543,779,-636,-1193,-1571,218,-371,1202,-90,-349,637,582,-305,53,451,1236,607,373,42,445,-457,-799,1130,24,1034,-487,472,-1020,-797,962,711,585,-603,503,1450,1087,-627,-1067,-881,-549,646,-1243,-1172,-1136,-1239,-788,151,438,-1521,-505,-1000,-1707,1473,-1829,-423,654,-232,-250,632,-43,805,839,-881,182,1246,-411,1082,248,1013,-1503,-272,1514,637,1015,893,1484,-146,1972,-255,-80,1254,-1197,863,61,-1220,661,1215,577,703,918,-720,781,534,1179,-741,419,885,-510,920,485,-1007,-326,286,-67,873,-343,-892,-783,484,753,-1004,-979,-686,1197,768,259,-395,-415,369,1882,-154,681,2620,-480,-691,232,5,-91,-1200,-1347,1424,201,-686,1037,-562,-605,1019,-1203,-638,-805,839,176,339,1093,-213,412,1604,21,-634,-465,869,-703,-1475,-1366,400,-1554,913,706,-519,1613,1587,886,-34,1647,715,1296,1185,1047,-847,-1198,-1211,-1263,470,-36,-1253,-425,311,1620,-867,1495,-41,-1007,-436,0,280,-698,-623,571,914,244,142,300,429,-783,-994,-210,-81,-1400,-1312,-1525,1703,119,725,142,-915,-556,931,928,-568,834,-1025,-849,626,643,524,925,135,-989,1077,-14,-1233,-76,-20,845,634,-766,-903,633,-203,187,-671,38,1171,-830,464,-977,-763,-1223,-659,-557,339,-512,-428,129,51,-24,-138,-769,1610,886,469,1326,-1305,-1265,-221,513,-13,-1255,-1141,169,1490,430,136,-514,1828};
const static uint32_t LSTM_01_weights_cell_dims[4] = {1,1,24,64};
const static ConstTensor_t LSTM_01_weights_cell = {&LSTM_01_weights_cell_x[0],&LSTM_01_weights_cell_dims[0],0};

const static Weight_t LSTM_01_biases_cell_x[24] = {24,-489,-1473,-689,324,113,1540,-1133,-827,-1314,-1320,-2502,1387,805,311,-881,186,1803,560,-319,-96,828,-1383,-1895};
const static uint32_t LSTM_01_biases_cell_dims[4] = {1,1,1,24};
const static ConstTensor_t LSTM_01_biases_cell = {&LSTM_01_biases_cell_x[0],&LSTM_01_biases_cell_dims[0],1};

const static Weight_t LSTM_01_weights_forget_gate_x[1536] = {474,178,-1235,653,-852,129,238,-454,1111,-987,1120,-1481,704,532,203,566,992,517,-1375,-49,599,231,-854,950,887,1275,519,525,-109,214,-41,1017,589,-655,438,773,731,550,376,251,-981,-385,-806,-510,81,-866,308,903,-560,158,905,-1172,56,296,944,407,-718,2604,-370,2029,1069,262,2560,871,-730,-230,-690,1175,290,928,-116,803,-933,1727,560,925,-439,-787,944,605,-499,1014,896,1476,568,-229,-804,-328,738,139,-295,-48,603,285,-354,39,896,194,434,680,-342,656,821,533,161,477,56,-1543,-999,412,-471,953,-769,506,435,-106,215,865,-506,1963,-171,402,979,1501,-1171,955,-988,-804,186,549,124,1418,1086,-570,-1103,-938,-1124,442,754,-282,-610,785,502,1151,-879,152,526,416,-667,1211,1109,1384,-547,1314,1016,1111,-574,35,427,1184,266,-783,-820,-172,-1208,929,-895,423,823,627,-459,-84,-53,-264,323,562,1231,1557,1328,839,879,945,1556,736,1119,47,1330,-557,-118,-324,943,1424,-410,449,851,407,439,726,1140,62,-596,-484,882,576,-921,-1086,-149,-428,-214,-142,151,-110,-494,-24,-766,-945,535,148,738,-845,-872,-1040,85,602,-542,221,-778,1399,223,-256,680,1365,-1524,537,1547,-627,1316,-505,1238,628,-795,-235,-370,-327,350,156,390,885,-197,-144,802,-589,506,239,-2824,1098,1500,555,171,-1356,-309,-562,1055,684,1274,-416,-946,-668,-487,845,-1304,454,-703,-52,-17,-744,-414,1055,495,-88,677,257,502,-692,370,1113,444,599,65,-322,488,689,179,551,639,275,299,-151,869,-1991,591,1437,-955,-319,1910,-99,-3093,-588,-378,-1010,601,-159,-1464,67,2239,-959,437,719,-896,-609,-805,795,-158,556,-194,-65,516,496,-1038,763,-1006,77,-209,-1261,861,109,-1259,497,400,-262,-108,555,-1010,723,292,1107,-1236,418,-1129,-1122,249,1113,681,347,-828,101,-241,773,-658,-853,-595,-125,-1040,96,663,580,-294,1233,1149,844,895,526,301,-1864,-1052,1502,-1756,-1131,120,-235,378,230,942,905,531,1095,342,-118,296,860,385,289,-849,108,421,665,1034,487,1075,-145,659,959,717,-141,736,980,-1021,1197,965,-818,979,543,-901,336,-778,231,-168,-826,-411,1207,654,61,633,526,1515,2385,-193,-977,1356,-749,-1295,-383,754,-298,122,-1173,1532,-527,-1025,72,-240,1367,-274,-1402,174,868,-305,-465,-274,-323,-193,1133,1102,-904,-563,1130,610,-96,-785,431,536,359,578,953,282,152,409,1337,-360,-280,345,-663,1557,271,893,-263,-854,1005,557,750,498,652,1430,407,1034,565,-507,-224,360,181,-1359,-1305,1144,-968,123,1202,-1681,-300,-1364,503,354,-10,-1462,-924,370,-176,1608,-504,-1206,-24,542,705,-158,370,-365,444,-570,-723,1601,-700,-934,1302,1265,-667,-965,428,795,1191,-32,750,-731,-917,-1396,-523,132,139,656,376,1012,668,-1059,291,480,-891,-986,44,-267,-1116,-1105,-748,-1274,-389,-539,-493,215,-676,250,1488,612,-624,404,-792,979,-206,1857,1113,-2313,50,406,1242,901,-340,859,-1209,-321,-546,939,-466,587,231,-1004,-559,-954,-843,1197,-21,1156,-340,497,239,1290,-198,510,833,771,465,-996,-662,-569,105,1373,-420,820,734,1117,715,-578,-923,-421,-369,747,971,281,-72,-376,5,-453,-51,-609,26,-1737,-1331,409,920,169,-471,358,-410,-1533,803,549,-1381,-2350,-523,1516,-716,879,-383,-636,-1150,-881,1443,-895,849,806,-1329,-779,-678,-1725,-806,38,-773,-996,423,126,-387,100,-1168,962,789,-1095,499,-604,487,-693,335,234,-1266,-308,235,59,-572,-1304,-1048,-979,-1,924,374,-53,-919,-1035,-573,250,605,-24,841,-1113,423,-179,1455,-1764,-1362,-1095,706,-1083,580,313,1109,-500,-2366,-417,-390,-359,-459,-418,-397,729,-510,-573,-435,601,555,519,-435,552,-611,837,914,-258,238,-557,199,-52,720,478,-1410,-609,888,370,-1238,-1194,556,-1406,824,55,-338,-1356,-353,-1155,-588,-964,-113,-714,105,-1166,-580,102,-814,887,-722,-806,1965,1740,-341,862,-384,-150,-666,74,208,1392,-178,-836,209,-946,-1118,-1060,-1449,-1146,551,995,1098,1330,882,523,-779,1294,799,1056,896,-36,1421,933,1447,75,1036,51,831,-416,714,394,-300,732,1099,-933,1271,-550,-372,376,-386,-594,655,-952,-196,-969,-1164,-1092,-1129,-1288,-1214,-1410,-816,-1101,480,109,-976,-2005,-183,770,-1769,489,-999,1143,238,-141,201,1090,-1917,-168,798,-615,-373,-947,-696,78,622,1147,-246,-514,1304,1343,-1008,-1149,-469,-533,-552,-551,-1077,-175,-368,-659,-1272,746,-384,-734,-460,149,663,1163,618,1192,-293,-791,-1202,-368,-585,-8,-1205,-164,291,1047,781,-207,-1069,-1265,131,-94,-2636,669,-1898,981,523,-532,-498,647,-215,-1088,1023,-770,-664,1207,1172,474,-636,88,160,-705,930,-376,-343,326,-144,991,407,638,538,438,765,1104,414,799,409,1036,1101,283,324,448,1076,722,-327,1205,761,-456,285,503,815,901,-134,1408,918,658,422,-8,1352,1954,1480,1422,331,-842,-695,1006,521,669,-280,-834,871,-281,-1284,-985,-1547,409,558,532,-434,1309,734,1256,-1936,390,-1289,-776,600,442,1378,-247,237,-170,1178,-860,-135,117,482,434,-275,340,308,-1153,269,-525,-632,776,114,-961,1179,1128,-697,-98,-204,1070,1393,-587,14,-605,1111,1068,1052,-180,1196,-600,1384,1089,365,2837,-134,867,343,-132,-431,-37,308,1521,-435,-497,735,-307,481,-284,-47,616,-669,-3180,-657,402,211,-295,-977,1050,-806,430,-759,575,-1066,253,436,594,-637,-735,-829,1339,39,1362,-388,-751,90,268,-610,1051,1236,-519,-706,1458,1192,350,1173,-695,-463,-182,1071,-759,968,-1178,-722,1277,-175,962,-1051,-1551,470,713,342,762,17,392,351,-777,815,-827,-10,-311,59,-1069,1779,-11,743,-1737,103,-1568,-183,-404,-445,-555,1083,-1171,1184,1202,124,563,782,298,-363,-1194,291,1487,1162,455,138,-682,-1099,455,-1329,-1349,-1370,879,-1588,311,-180,-444,231,556,-124,682,-808,596,-659,-145,-1405,-514,-83,-1030,-324,-43,193,2533,165,-1010,-347,-513,1415,1012,270,-73,2464,448,-771,-477,-750,960,472,138,1038,-226,-1063,-654,-303,214,-378,1521,1116,1054,-633,35,603,591,-1091,931,1283,225,1245,947,695,229,807,411,879,-665,-209,8,365,-1065,-683,-330,1161,129,1443,663,-995,1113,1010,-173,-1016,791,527,960,901,-856,800,1553,640,216,-80,-36,-2367,256,-1737,-1240,1854,-338,800,100,-605,-910,114,-177,405,530,537,-908,-463,-229,-697,-342,117,818,1621,-270,327,-717,-46,-766,236,-316,1061,-497,679,1152,-457,-101,-749,-68,1206,-158,1315,-394,-576,-105,-309,-222,1250,390,1061,228,-192,-709,506,-322,-858,719,-1377,-533,-494,174,294,-1544,373,-641,-218,-371,-310,1692,257,1298,-706,-1687,-213,-1013,685,-29,-1804,-276,850,-32,174,-297,-1228,565,-784,-353,-321,1133,84,143,-147,-1099,-485,269,-1001,-952,958,701,-141,-659,427,938,358,-370,544,-101,429,384,985,901,1476,-523,1849,1061,1597,84,443,37,520,1514,-1681,-1169,-421,-1046,20,-12,389,510,707,-543,-2100,-81,-882,-848,-1361,678,-1280,1485,1312,1566,1720,-950,405,-493,-799,105,-693,1004,204,-877,-1320,-491,-352,274,865,-673,-229,-609,1034,672,-1282,870,-330,-175,-901,699,135,-276,-1503,-22,607,525,486,931,231,685,-28,-1019,-1196,-695,820,-911,521,607,-724,396,2493,272,-304,590,1532,-184,-472,-256,250,2034,-289,745,820,-271,596,1075,92,149,698,142,-1348,850,-608,-342,-1503,299,-1029,1287,1101,582,940,-285,-1328,-936,1279,-658,-130,-238,-1120,40,853,322,-805,637,146,1442,384,386,1381,-334,-512,-885,1028,458,1252,-1031,-748,-1376,0,44,1092,-555,1883,-1240,1518,49,-50,669,22,748,852,-535,-1737,1333,-327,-395,-1501,-89,-283,159,1502,-1531,-612,-389,237,829,96,1150,-797,460,915,847,616,-186,1217,-113,761,-725,-528,776,304,-217,-593,348,1305,-876,367,1012,-185,854,-485,-306,151,1143,-172,417,-379,682,542,-948,1374,-63,1413,-432,652,-159,193,482,1105,348,128,-2405,-304,-115,-208,874,744,-1095,-1664,-431,-709,522,1401,1437,218,1019,-508,-644,1063};
const static uint32_t LSTM_01_weights_forget_gate_dims[4] = {1,1,24,64};
const static ConstTensor_t LSTM_01_weights_forget_gate = {&LSTM_01_weights_forget_gate_x[0],&LSTM_01_weights_forget_gate_dims[0],0};

const static Weight_t LSTM_01_biases_forget_gate_x[24] = {1846,1901,2024,2254,2220,1988,1988,2209,2186,2130,2335,2073,1840,1813,2153,2047,1885,1869,1910,1948,2138,2099,1934,2145};
const static uint32_t LSTM_01_biases_forget_gate_dims[4] = {1,1,1,24};
const static ConstTensor_t LSTM_01_biases_forget_gate = {&LSTM_01_biases_forget_gate_x[0],&LSTM_01_biases_forget_gate_dims[0],-1};

const static Weight_t LSTM_01_weights_output_gate_x[1536] = {-138,627,-846,-613,-600,704,312,719,82,1497,1342,-722,214,-224,-967,-714,107,1263,-561,-672,1381,-540,1032,-631,827,1468,1287,700,1274,-718,-754,1138,-22,1297,407,73,1319,720,732,-587,-176,802,-2648,-1167,-629,-900,-894,-51,-131,730,-361,-2620,-709,556,-652,-1519,7,1005,854,1178,5,887,169,271,-61,-689,1302,1095,1466,1398,1260,1549,-464,1763,1766,-134,441,59,582,941,587,1418,-469,500,-348,-421,-446,164,-452,-234,355,-478,295,1427,84,60,1241,-116,1523,-64,106,1061,1323,439,1183,725,531,921,-222,1057,-1656,106,-783,-206,-1040,-456,-1211,-369,-570,-1182,-707,1303,-429,-94,-447,-787,-848,205,1022,388,-218,1322,926,1174,-381,-887,1364,-317,-45,-473,1074,-70,-944,-887,932,971,480,-751,1456,-28,1310,435,675,-477,1087,1614,-654,68,1394,-430,301,1428,93,1119,341,729,648,1742,1158,1962,1025,-320,-686,445,153,-581,950,587,-936,-100,1447,-1754,-194,-1320,-1751,744,1204,277,-819,-35,1807,-1162,-599,337,-963,-668,872,-1308,-278,-1446,-1673,-1509,-894,-104,779,273,-1038,772,-225,-1174,264,-111,-487,-1267,-1327,903,-405,-332,-676,-840,-1627,-1245,-263,-703,-1709,-1493,-15,-384,988,-63,-287,-119,-1377,360,-801,211,1637,1732,338,-18,1052,491,-814,134,876,1768,-912,-52,-888,-1444,1837,-1004,-125,-1116,-678,454,-703,565,349,213,-771,245,369,-1209,-137,-1380,757,-1358,-57,821,-634,-899,530,672,-1185,1160,971,-430,-907,-58,666,983,-631,-996,704,-516,705,192,-929,-772,-897,209,52,163,1088,1707,-670,265,108,606,1253,-7,-635,777,-2244,417,-800,-379,-167,-2363,-428,-170,-360,-879,1547,-1016,557,484,436,-662,522,-52,-1101,943,-1035,-819,317,-1299,-1378,-453,-761,-813,1209,544,-49,-173,1074,-864,772,-548,800,317,-871,-690,1102,-83,-348,-241,1290,822,-1040,1181,-1316,-410,440,149,1194,1419,-186,-440,-560,-788,385,-351,1102,-1326,287,889,604,168,1052,-500,593,-971,-344,-246,-1229,-1297,-1280,1232,-1767,1091,340,-187,-432,-388,-1128,46,394,711,1091,619,1397,100,1911,-466,1325,1686,-272,-130,-34,1292,825,223,1181,1405,460,-673,1305,-235,-398,-451,42,260,1730,-559,-405,752,518,-45,49,274,1529,1924,1793,434,387,346,-621,-1066,105,-545,-1301,39,-2013,-912,-208,859,-2271,1149,465,-168,596,-147,-117,1338,-1225,-1633,641,991,571,-384,534,-1018,-736,1054,8,1014,-187,931,658,-331,761,-305,-934,539,-1162,-235,-1052,-527,152,-461,-824,185,162,-306,1218,1244,1037,679,1303,1263,501,-615,-351,748,1325,1048,800,441,556,-1410,1225,-282,-935,1227,-179,1483,669,353,323,497,663,476,-1701,553,1416,1032,1584,263,-881,55,-498,1235,391,756,692,-601,-117,1241,-11,1608,559,449,1111,45,-283,223,-480,1649,871,1201,903,-441,-145,-912,566,-169,777,-950,1161,1268,1327,-797,1031,777,-232,824,671,-1314,-1365,-428,163,1017,1704,1286,745,-798,-623,-1775,-132,-281,-482,-962,-1454,1006,1335,511,-229,-279,-570,-695,-425,321,1993,-268,155,-730,-367,1070,-994,-83,-179,785,781,423,234,644,1142,-530,863,644,1562,-386,-99,-424,194,-1129,1240,-534,-516,-227,-1050,-460,274,-633,-790,889,-347,85,-370,-70,-1061,-607,979,-1068,-1274,-1689,705,-537,1457,-378,254,-322,1293,-646,-1972,170,-355,-268,-401,180,458,1654,562,549,-806,1401,-429,1972,175,615,816,-745,-1202,494,-934,-1313,-1432,-698,-137,54,1290,-93,817,42,1279,1364,936,-684,-862,-109,-327,945,920,225,27,-262,-741,1196,-692,1333,1316,107,-157,882,-444,941,515,1451,526,-133,-368,-1282,998,160,49,-3060,-725,130,400,-1000,900,-1006,-379,103,-290,633,-168,-1488,-576,-409,-506,903,-529,-216,190,811,-92,-982,-775,-1196,-103,-582,-1047,949,-950,184,784,126,88,-1132,995,77,-932,404,-898,-1566,-753,150,-169,-889,-865,-1410,264,121,721,-1351,-842,463,-1475,-17,-329,-1286,573,1851,204,875,-941,-227,1568,864,426,618,-422,57,-385,-468,942,882,-23,-1189,-699,619,1308,265,-388,2167,-957,1065,744,-413,-494,-380,201,1246,1259,-651,1532,-175,-794,-367,-318,739,402,-649,1380,1309,110,-132,-375,-161,161,1183,743,-366,-97,-362,1629,288,107,998,-617,1691,384,-590,236,680,-247,-477,-1385,-383,-115,-41,-174,604,271,594,-1102,-621,-636,119,1179,1802,-1241,1786,357,-1755,-1576,237,-1503,-310,254,-382,1522,-82,170,1929,-269,-123,1323,1049,258,-865,-985,-253,-270,-67,506,99,1265,-255,969,-3,133,528,543,-116,662,10,1572,1180,295,171,-844,1309,375,2,699,-156,102,421,689,-1202,-1680,2165,-385,-34,534,343,-456,-231,443,-581,1857,308,190,-599,-929,2227,-890,591,1583,1696,2012,-499,-384,572,-594,-999,-1217,-466,-303,-781,-945,-1483,-1298,487,26,-353,-1506,-1484,-1689,475,-1486,290,-47,-262,-1563,-1005,247,-1148,-1136,-1403,-1297,-1355,116,454,-294,-1361,274,-779,252,-542,-687,793,-22,-184,-1175,559,1087,-2429,-1703,433,2886,-1526,356,298,849,-365,-478,-317,-433,-1219,-453,-320,389,-935,-912,-330,-259,-880,528,-1197,1250,901,816,-991,926,832,-503,-158,-641,-270,1180,977,552,273,519,-194,816,-734,-997,-969,-620,546,20,1131,153,336,980,-47,220,351,-970,-657,899,-1092,-969,1169,318,928,405,1628,889,1445,-548,-1142,319,413,813,-600,188,-379,673,1251,717,-355,919,2050,-176,544,-1296,-299,247,1418,-819,95,1095,-532,1391,736,1624,1931,973,-863,1355,1019,330,152,1353,-846,644,630,1449,-669,279,-65,1594,1694,1832,-336,317,66,798,-160,-87,1282,263,662,-419,108,491,2037,-737,936,1047,872,573,-611,791,45,944,-136,1812,-267,-160,-709,-558,-331,721,1295,1382,-1617,140,783,-693,32,-13,200,196,-82,279,130,655,681,1506,1514,1507,432,-505,1628,151,-239,1551,623,1660,789,777,-120,-1098,-738,905,-274,708,1001,1137,-89,-348,-363,738,-505,809,247,35,927,-407,611,955,-1277,450,137,-7,-1249,1345,1113,-461,-909,699,-2037,166,927,877,-372,1081,182,1539,845,-727,-1874,1098,146,-447,277,806,936,-80,114,-110,-739,1251,885,344,1211,1449,-45,-126,699,6,-47,383,861,240,1263,181,1367,-562,867,1239,1552,-279,-110,1232,178,1500,979,1589,1656,-399,344,1444,603,864,-1702,-99,-1661,-454,1114,1460,-961,677,-593,-370,-1043,-1562,235,383,-1305,-674,1110,807,-703,595,2461,402,-1128,832,38,-490,417,-111,-405,1432,1201,-296,78,287,-470,1104,414,1367,-556,1039,1239,-828,1250,-362,-396,727,510,-420,-63,1727,455,1492,1490,1518,-327,779,536,-621,-48,-793,-124,-200,821,-1226,-1910,1097,-321,-1292,989,-569,-273,10,-162,-671,-2451,790,-744,256,28,-1736,196,42,-249,1132,106,-812,444,714,443,191,753,-614,834,-656,1062,-37,-367,904,-766,1197,574,-583,330,4,1480,330,1,430,1750,802,-88,414,-104,-720,1271,244,-76,1188,-548,953,345,2019,1048,2185,549,2075,903,-380,-290,-194,515,-1343,-808,77,-1900,-411,542,-51,803,-1833,-706,-1100,818,-873,1146,1301,1723,698,-878,572,-1177,725,-54,-690,510,-500,7,-212,372,-1116,-248,-696,227,-925,1292,-848,1177,886,-511,760,-1303,73,-1540,-1593,-670,-1822,-1967,-1713,-985,287,-785,-674,-765,-1462,481,-305,-344,-94,735,-915,-135,-826,754,922,-1170,1385,750,1200,682,561,-653,-405,-819,-466,-279,-677,1232,388,1200,-1708,119,1332,-952,-51,-1467,984,3,1077,962,745,502,-123,-922,1081,938,443,-18,1052,113,-512,332,420,-699,1210,-622,1103,-470,317,693,1769,-116,1009,459,264,540,1505,1660,1827,345,-41,53,165,117,1903,1700,1967,-460,-912,316,-587,717,-1092,170,1556,1275,285,-236,-1047,-1099,-1219,1101,638,-1385,93,-577,-151,-39,982,-389,360,279,-1519,-1346,-322,-440,-2019,-952,221,-1979,-1911,-227,-612,-1063,-72,-414,-1837,418,416,-1040,-923,-1341,-1442,323,-1523,-1026,-1060,-177,-1480,320,519,-811,-1028,-1056,-1293,-847,946,1379,1277,1434,977,408,-379,2,-113,898,223,366,-244,-2842,1080,246,-327,524,-1133,949,-1083,-33,92,91,-1361,49,899,1051};
const static uint32_t LSTM_01_weights_output_gate_dims[4] = {1,1,24,64};
const static ConstTensor_t LSTM_01_weights_output_gate = {&LSTM_01_weights_output_gate_x[0],&LSTM_01_weights_output_gate_dims[0],0};

const static Weight_t LSTM_01_biases_output_gate_x[24] = {670,1588,1136,1054,-449,-130,1138,255,1876,582,2481,567,-77,-63,-2339,-1221,386,0,1694,290,3084,1092,2098,88};
const static uint32_t LSTM_01_biases_output_gate_dims[4] = {1,1,1,24};
const static ConstTensor_t LSTM_01_biases_output_gate = {&LSTM_01_biases_output_gate_x[0],&LSTM_01_biases_output_gate_dims[0],2};

const static LstmLayer_t lstm_01 = {&LSTM_01_weights_input_gate,&LSTM_01_biases_input_gate,&LSTM_01_weights_cell,&LSTM_01_biases_cell,&LSTM_01_weights_forget_gate,&LSTM_01_biases_forget_gate,&LSTM_01_weights_output_gate,&LSTM_01_biases_output_gate,LSTM_01_output_dims,LSTM_01_input_dims,TOFIX(0.000000),tinytensor_tanh};


const static uint32_t LSTM_02_input_dims[4] = {1,1,1,24};
const static uint32_t LSTM_02_output_dims[4] = {1,1,1,24};
const static Weight_t LSTM_02_weights_input_gate_x[1152] = {-1090,1716,741,946,-96,-666,-934,31,315,954,-925,-684,-1196,1050,-1538,-807,-793,-1376,291,-208,-1255,625,761,-444,-1599,-936,458,-632,2004,-412,512,151,-398,439,-984,1115,-1047,-1798,1180,318,-229,-309,507,934,478,-84,969,901,406,-807,1264,236,-154,167,1505,-319,-1384,221,339,-676,-302,17,796,-665,366,-230,-1534,-1099,-324,105,-401,-1145,-718,-498,-846,-1,-1878,-315,1061,-2229,-1252,189,-286,109,-160,1016,117,249,1677,-143,-768,824,1552,678,-48,1044,-825,1187,-739,683,-816,-930,1625,-600,-1472,915,-30,-581,209,-1062,-882,-593,-1514,1320,376,1571,1760,767,-183,1551,669,-358,763,622,-766,-2344,-701,1058,496,-119,234,176,65,-46,1660,347,478,2205,-638,1253,66,524,-1645,266,-906,949,-1546,1246,74,294,226,335,487,1343,280,318,507,1010,860,-1068,1263,224,-2049,1158,1215,603,-1307,-41,-669,1360,1089,860,496,-203,-228,-1126,-944,-347,-1832,-1708,-482,-126,-553,-578,478,-85,693,1621,-1481,1884,-1277,1219,1826,-978,363,178,-618,-1629,-423,282,-850,268,677,-879,931,-588,-765,-54,-938,566,383,986,1058,741,-1026,36,-682,-113,-493,654,694,327,-507,-1010,-338,-69,1738,-1149,-4,-706,1195,-1215,-159,1088,1599,96,496,1086,507,-1446,835,-430,-1179,-644,722,-830,-492,1172,-874,-230,-1256,-301,560,-176,-201,-1153,599,-448,-499,-840,1106,501,-677,-1265,-157,-154,60,-906,650,-1133,445,-791,172,-1765,1291,-579,-189,-1006,-1272,906,48,-364,-2184,405,-992,-817,590,-603,-186,1227,-247,-244,-598,215,540,1060,-1004,835,-142,-925,1047,502,-930,755,-337,36,61,516,-51,-1029,488,131,-1054,1396,574,901,-109,-917,-352,-699,248,682,-1555,546,92,-361,1375,-815,1323,328,-572,-1286,-807,-1505,-189,-1359,-1293,-980,173,67,918,459,-1083,-446,1280,-610,1103,-467,-442,524,708,-1471,-535,-196,168,-229,1211,177,960,783,778,1596,1166,-2283,20,1477,409,-353,-1510,223,-363,-766,-1183,26,1402,687,8,1086,-143,-56,413,130,-1215,-486,1277,-375,1281,-978,832,-767,-628,365,342,-386,151,429,-803,-1129,-860,1420,-530,-340,-138,147,-202,200,740,-1244,434,-974,1160,-38,3,1749,-1708,-534,-1073,-274,-472,1700,2269,-820,-846,198,182,1160,-228,230,-99,-735,584,-140,132,-461,844,-1451,443,789,173,937,-779,548,108,1248,-965,-617,369,-491,1070,685,-1023,-733,-49,-429,-1365,-306,-139,889,-1398,238,297,429,2167,533,-749,196,-75,193,1698,-386,398,-965,-1410,885,-1682,-49,-941,1052,804,412,-1047,727,-55,253,-715,762,-81,-500,-278,-396,-798,1209,-1085,111,-1239,-493,-947,1116,-677,572,274,-1148,947,350,-315,574,-928,1893,1336,417,-912,-163,-403,-1461,-518,-500,225,-439,44,1683,-597,220,-536,-1035,1983,-141,-1002,-564,717,-904,-555,139,266,-952,-1041,-441,865,-76,-228,498,845,751,1303,-706,1323,-1266,1122,218,-1532,568,-611,-340,-1167,-238,433,66,-1746,1023,280,374,2048,750,-986,-887,-534,-1641,-1137,582,-381,814,-894,-532,698,1149,613,-186,41,1387,-56,1184,-748,-515,-225,717,-393,-1508,-60,740,-1390,-314,1512,947,-417,-1508,-1309,-683,-389,-1236,1113,1417,-10,-223,1765,261,1401,134,696,-4,984,-146,482,1612,-15,971,-250,-434,454,-1051,-1033,151,448,2167,-367,-1798,-631,-39,-1478,1313,-901,-706,-281,-1777,1182,-1222,-1382,-766,1121,-1531,862,533,292,1157,-1173,-529,-547,1231,1253,194,-377,1662,528,928,0,799,-1592,705,225,-560,1364,400,-710,694,953,435,1111,859,-188,-516,183,-177,2277,1916,-1477,-1099,-221,1122,-1274,-1461,198,-640,-1226,833,1277,464,-13,1405,461,753,150,-1357,1091,888,-1317,-369,-36,178,-1343,583,-149,-368,-841,1006,1544,1483,-43,-2055,7,199,1170,4,2,918,1404,-187,1166,506,236,-911,278,-951,121,-594,-933,-1204,-1159,440,-1040,1419,1346,-108,-570,272,96,-789,258,-96,-1294,860,-982,938,1459,-1363,-1000,1247,-1183,-27,-1012,320,-741,314,-1523,1731,-1659,1370,411,128,-317,-102,23,603,205,-1675,-1188,365,-668,767,-74,-1063,612,-890,-265,-848,-890,210,-654,17,1014,1105,718,324,-845,396,469,1019,599,534,441,-711,1588,997,-834,-990,-1369,796,1773,-244,-54,-905,-66,-496,219,1213,893,-1095,2328,656,750,1167,-870,-803,641,-400,533,-142,-290,864,370,-306,-538,38,553,-1483,155,427,850,1261,-861,176,-953,-850,-96,-1559,-713,817,-884,658,-1048,1189,-820,1046,-512,1686,-1158,-1801,-686,-1746,-993,-1347,-265,3,-1165,775,-112,905,-211,1052,-950,935,1145,-494,-47,1436,731,-135,-155,-1043,24,123,1109,364,1701,-138,112,478,-26,-1287,989,1180,-1225,-1763,-1499,-79,267,1202,-1459,1169,1379,562,-1430,-727,-393,-484,35,-582,831,407,-621,-309,364,899,-624,74,-1126,-237,377,697,687,-2196,-999,1140,-2213,1229,-726,-1385,-938,969,-43,697,1059,-1037,1105,-1090,-375,-839,-438,626,113,-1463,-394,374,-1044,-1284,1122,851,-7,788,-701,-460,208,-1623,611,-777,-1538,1162,-234,-1086,-733,-1169,799,135,29,-2247,410,19,-492,72,1327,455,178,-52,-462,-568,898,918,-972,778,390,1841,1122,1328,-911,-672,-1229,-66,-514,-1486,1072,-1579,332,435,-44,-570,-63,-519,-2318,-386,-400,-183,1162,371,-778,-718,823,887,-110,-329,-765,2434,-118,-547,-529,1627,-426,1653,-420,-964,-1481,-111,572,392,1772,1447,646,1359,-754,1271,1134,163,-62,938,-124,470,-529,641,1251,-767,-410,502,1234,1434,-1007,882,41,1820,-876,-759,697,932,-524,-219,1377,653,1188,1037,761,-1872,-186,-831,1014,-640,-390,711,1024,-290,-1475,537,180,1377,865,-745,189,74,1173,-662,889,-273,400,-126,973,662,-1308,981,-350,1337,-1068,-351,-484,1120,1275,-884,530,62,-8,341,1766,-1066,363,743,-559,2085,-200,-785,498,352,-1212,723,2162,1671,509,540,686,-77,217,-770,401,-535,853,475,742,101,569,52,-367,-1282,-78,-130,-226,235,-326,850,-819,-764,1309,-1748,-82,12,-218,-1540,454,-1716,-1196,-741,1130,1127,-649,-488,1494,-278,-127,-508,1065,-330,1671,1155,1406,-371,-266,-481,-1517,897,295,-475};
const static uint32_t LSTM_02_weights_input_gate_dims[4] = {1,1,24,48};
const static ConstTensor_t LSTM_02_weights_input_gate = {&LSTM_02_weights_input_gate_x[0],&LSTM_02_weights_input_gate_dims[0],0};

const static Weight_t LSTM_02_biases_input_gate_x[24] = {-75,1472,-1359,-298,1252,1520,878,1011,1840,1254,976,306,423,2863,118,-317,960,-367,-485,796,-1320,-280,239,1275};
const static uint32_t LSTM_02_biases_input_gate_dims[4] = {1,1,1,24};
const static ConstTensor_t LSTM_02_biases_input_gate = {&LSTM_02_biases_input_gate_x[0],&LSTM_02_biases_input_gate_dims[0],2};

const static Weight_t LSTM_02_weights_cell_x[1152] = {-576,-1493,-428,1746,-1174,-1829,236,246,-782,1121,-694,-1036,-66,-742,95,640,-889,1007,-255,-775,446,1891,404,-596,-1225,450,-788,-395,-1551,-757,1755,2928,1664,3,-702,168,-1090,-605,339,693,-1009,168,200,-805,1185,-648,494,306,-164,-118,-642,1278,-865,-1385,-735,-1308,-925,-954,632,-6,-233,-558,-1394,59,-455,692,944,400,797,1087,-149,116,-170,2269,620,39,959,242,952,-670,797,186,-956,-800,-141,113,1835,-1941,-240,-610,315,1994,313,725,-317,1512,-685,-643,-488,-536,259,-362,-1077,362,-360,224,-1411,439,-956,-2224,-1258,403,-461,288,-617,896,1423,-363,318,-376,-296,-196,509,-669,1098,1130,-320,-361,-755,2156,-1072,747,-1374,1137,-107,-208,-926,1022,993,56,1536,37,870,-87,-1053,189,-1179,-394,-1251,477,591,-1050,-1596,426,47,1087,-644,-1154,-478,-236,640,1392,615,-340,1104,-402,1174,902,1051,398,-173,1530,340,369,-1455,932,1245,-295,-1517,1316,407,-1373,779,1371,957,130,603,1073,1423,869,-185,866,-421,628,130,-1251,-835,-281,-501,-62,979,1085,617,-957,169,-856,-39,-1910,248,558,-256,1217,434,-1006,771,1488,320,185,994,-1171,36,229,-673,1644,892,1097,-3,-1718,269,241,167,1207,212,1765,-465,1850,-131,65,815,-332,5,311,380,-408,-20,-1030,889,-1444,826,-285,-1356,-1430,-1491,973,1341,847,297,-1192,-29,-1320,-1060,226,668,235,1244,1159,181,-47,-169,2035,-11,868,-317,-1243,909,1930,66,-1328,-735,-1310,-6,842,601,1006,495,-835,1195,203,-1321,288,504,215,-259,490,-707,-929,113,551,-513,561,1268,-1293,1226,1404,-950,-220,-230,-962,-540,-734,-762,-479,-638,1001,434,-1567,-2234,-779,-2041,144,-1078,-953,132,1158,-973,328,168,-431,-564,-1004,173,407,338,1161,-126,453,103,896,-517,-261,-1200,-1528,-572,-467,-2274,1509,1063,-1725,-1141,306,-339,1241,-1388,834,843,808,-381,1173,620,520,827,1631,-1215,323,1027,-1259,-611,-44,-230,370,1161,-697,415,-1197,-924,-969,34,-766,-835,205,2681,-612,1031,557,511,-320,1827,-869,-958,686,452,-898,-1112,-44,-142,-598,-1560,-330,387,-792,-660,1358,1484,897,1430,-184,-123,-255,2503,471,-995,-536,503,140,-411,2334,-497,688,-1103,-806,878,1054,-586,-1112,1098,753,754,-197,-500,-639,-97,697,-1209,857,829,509,-965,-1023,-317,1269,-2005,-214,-177,222,-347,-528,1230,-510,1355,-1416,-577,-311,570,-1265,299,192,-139,98,-224,1263,1537,477,-626,1296,-918,-128,407,-239,-246,-499,601,-278,-1081,1490,-2433,-725,-549,1678,-390,-971,-1208,51,-370,-471,887,-667,-990,116,976,-1165,-235,323,1436,-60,115,1063,-20,-572,-1097,-1024,-199,582,76,-1431,-451,151,1035,-1761,1198,368,-838,-783,1289,-685,-1089,647,109,108,382,-610,2192,1230,-1725,-1427,-773,-132,753,11,435,953,-78,-773,318,-120,-976,-890,289,-138,-674,-1519,544,24,1401,879,555,-79,1029,-1311,-189,1722,-1842,-262,226,-755,1160,789,1329,926,-51,1794,342,-178,1046,847,-368,712,170,164,-128,-2848,-156,-519,222,-124,411,51,507,1020,-526,-712,179,559,-721,-374,-636,-1176,-769,-992,-188,927,1216,11,-776,-229,-1087,-143,1171,207,1071,770,281,1352,-113,439,556,-526,41,1091,-744,-836,-2135,-139,1462,1186,-472,1357,457,-936,-270,808,1165,-817,2334,-487,655,-671,-1207,-248,-721,-1832,1238,235,-350,635,1762,1461,-131,-1286,-2012,486,-816,-1819,433,16,413,-848,1880,351,75,-1265,539,-1057,-456,-1803,261,242,-1330,-623,-1035,-860,-912,-355,193,361,-1155,-407,-1187,422,-40,-2057,-1530,476,1404,-36,770,307,5,-1156,-1023,1074,892,-416,-658,-877,1097,-931,928,-1834,-1716,-244,152,188,216,824,297,-125,314,-1045,152,149,-1521,764,-751,-529,107,122,-648,-996,1544,814,1213,-539,-2118,429,-834,-278,1447,-209,397,1880,-913,-1261,-438,960,195,-1169,934,-372,-1233,364,332,-214,-707,-1050,1124,-535,1119,1339,-599,528,88,160,1002,-93,1934,1445,462,-575,-1601,332,1099,669,-694,984,371,1056,703,-1385,1538,1408,-375,-999,-22,-1129,707,627,209,1543,506,-481,271,-828,-1918,1044,572,-715,43,-263,-455,1230,-1080,-482,1139,-573,-1108,-9,993,-311,1415,-573,990,1077,-1228,403,820,-1143,1975,762,-85,92,-116,-1005,272,-936,1255,1526,-542,984,807,1627,1246,-647,753,-1205,-1379,-308,909,162,-290,-504,-506,-67,321,-102,1006,1298,482,-397,-381,232,-674,-658,170,-1158,-1036,-90,1279,-165,1373,13,477,1088,1530,1451,-1168,-1145,185,604,181,666,332,72,737,1869,-128,-1009,-457,1027,96,-261,967,-482,-1577,-1703,1516,490,-1345,1597,-902,-360,-853,-1430,711,-772,-1241,-1652,-957,504,-102,217,946,1281,-427,306,526,113,969,-1142,-177,1193,-1525,-1030,206,728,-1441,-48,655,1396,-522,1838,1116,-132,413,-28,-471,-1283,-430,339,-619,-995,-962,-842,1723,1334,860,1709,-1071,576,-799,757,36,-776,8,-1417,-419,-836,890,-688,837,514,824,961,1598,1174,-361,-510,510,-906,-787,-748,582,-1314,1633,-312,46,182,-5,1811,935,942,1206,-358,-203,1155,-322,1173,1615,451,320,305,151,-442,-1381,-628,188,653,527,-190,-1378,145,591,-1189,-618,-689,322,-34,920,-551,14,353,1111,991,-1533,1393,-939,1526,85,1703,-1169,11,908,-200,-1175,810,64,743,10,1080,324,657,-144,591,-533,85,-1016,-1430,1429,1896,326,-2266,-63,-1345,1048,146,584,11,770,-581,-522,-1079,552,255,-781,786,598,-1623,201,-1111,33,-1398,-902,-1403,-1789,-1679,277,-409,-206,-291,-909,747,-993,735,563,37,997,-917,1203,-1502,1764,-61,384,200,-453,-386,-216,-105,-79,766,-776,-698,-1045,-532,520,403,-1889,-630,1167,299,75,-837,-17,-83,-1417,780,211,-763,-66,1712,1661,-940,1084,1215,-1273,220,-280,-719,-665,-299,-590,-803,299,285,-1319,291,2868,597,-584,-45,1562,-753,-89,-897,1257,-489,1666,-361,413,613,1082,-815,718,-321,-1134,-523,1463,131,1450,817,1213,-1187,498,639,120,804,-689,-62,1450,-334,938,314,-541,-207,-1518,1069,707,-427,-560,325,-1019,-1257,-1441,891,758,36,1427,-116,-1806,178,1567,-1274,-1023,-736};
const static uint32_t LSTM_02_weights_cell_dims[4] = {1,1,24,48};
const static ConstTensor_t LSTM_02_weights_cell = {&LSTM_02_weights_cell_x[0],&LSTM_02_weights_cell_dims[0],0};

const static Weight_t LSTM_02_biases_cell_x[24] = {793,2225,-590,1565,-758,1414,1612,1188,903,-647,-182,1054,669,-972,1121,950,-488,-860,1065,691,1338,-959,1245,615};
const static uint32_t LSTM_02_biases_cell_dims[4] = {1,1,1,24};
const static ConstTensor_t LSTM_02_biases_cell = {&LSTM_02_biases_cell_x[0],&LSTM_02_biases_cell_dims[0],0};

const static Weight_t LSTM_02_weights_forget_gate_x[1152] = {469,647,-595,-92,17,-446,75,-1745,371,-1679,-1771,-88,-261,788,-802,-882,-596,-1461,721,384,-698,-1047,132,-793,927,1168,985,477,858,-1319,-472,1794,1242,-980,-306,-223,-552,681,-572,1734,2029,-744,-792,-415,-81,-8,64,1401,-544,-104,-795,-1372,1005,-1377,1263,669,369,-180,-343,55,740,-313,-902,34,817,1310,-21,1292,-45,-1078,-538,-1252,2220,855,734,1337,-915,-685,1028,-586,-281,-1865,309,1779,43,-6,573,1002,-381,124,729,166,-937,958,1571,-454,999,1249,96,1021,56,-1050,1481,98,634,1027,-821,-946,118,1245,1000,-1418,964,-69,-482,1194,1212,-1161,-1207,-22,-479,-1094,-818,514,598,331,-1321,-1658,-1736,-407,439,-1013,-903,2259,277,1137,1388,-76,381,492,-601,171,-665,387,1198,-1383,839,1098,-33,-963,-134,670,1665,1295,-801,659,-14,1450,-170,863,397,1078,480,582,-491,530,-874,-1149,62,236,646,-649,496,56,1443,-831,663,1385,-508,-835,-1355,-49,71,832,38,-1149,1960,48,1247,2227,-1279,-266,788,584,836,-1332,426,-981,-53,-1088,85,-166,461,92,-1072,-1561,-975,630,635,894,-99,343,98,512,281,-1313,287,-367,1156,889,565,1882,306,952,-1884,-767,-1541,-287,-213,-1480,594,1046,1122,1480,-892,-3,951,510,-946,-1063,1067,-471,650,373,247,541,-534,-48,-800,1229,614,214,-388,-39,-779,-220,-1080,941,-792,1085,71,125,-124,-1375,225,-1113,590,-264,-1072,1175,571,254,2004,-1866,-49,-488,-418,-161,-3,-10,929,-225,551,2129,471,-1567,445,-155,757,507,-763,-636,-1376,1417,-1050,-561,1193,-530,417,-1370,-586,-711,625,-134,-1160,675,747,-676,-911,-716,496,838,2193,1764,-818,-273,1125,168,-408,-542,352,-1013,850,-685,-508,214,1238,-304,706,1410,1022,-262,2198,-1021,-206,109,1274,555,402,-1105,148,-933,907,-37,-1049,-81,1207,-1360,123,383,19,-178,-490,-671,-555,374,-763,-814,-114,1062,2044,1025,169,1298,-83,300,-1100,1241,-705,739,-1315,-811,-744,439,-259,-1353,-559,-312,1289,2212,-289,-358,-239,805,326,-472,-209,-653,-237,1193,1279,556,-870,80,-1590,-569,-1609,-582,-185,-441,840,-225,-446,-376,432,-620,894,1246,570,-824,-149,1367,-275,116,-678,-564,1706,-51,-83,297,787,-268,-1341,-643,1772,1731,824,-817,-464,375,-625,206,-222,898,1289,972,1132,503,1149,-787,-1051,-1414,629,975,897,1335,-734,-1158,-822,843,-379,278,-643,-113,-847,-1146,68,874,-237,-512,-1690,-708,-354,-707,347,-1909,-393,-1711,1186,-609,-666,251,-1912,-499,-177,-8,-862,756,-1439,-1136,-1126,-13,431,-891,-209,327,-166,-906,756,-246,-1390,701,-742,-1176,774,794,149,1037,433,896,-194,-13,547,-1276,-608,-415,-1365,-870,1803,-445,-382,415,-176,-2206,-261,1575,536,-1993,-1090,480,-686,-32,1051,1220,176,298,-49,789,118,1324,424,-1356,-220,33,-857,-518,740,-800,-1079,-1217,-198,-628,-467,249,-572,-1024,-830,-1180,1135,544,995,-352,1173,669,87,-968,-415,789,-1316,-1784,-262,-66,-630,312,-69,-1166,-1797,-483,928,-1741,-1411,94,463,597,1134,-11,-556,898,-156,-1207,1335,-1103,194,-974,743,444,1427,1131,-1153,-637,1063,1132,-45,221,-1043,119,443,1176,153,467,295,-131,-562,1918,459,-68,677,-684,382,384,453,-1005,-298,-1857,-1759,1639,-1002,-390,108,-447,324,-1519,621,1488,-280,1269,-1305,-349,-1070,-1361,1288,-1071,815,-70,-637,-657,723,1060,232,934,1265,-943,1055,1425,-307,620,-1587,175,1359,250,-985,-930,-307,1255,1021,1032,-458,-361,1505,-62,1529,-1794,245,-33,655,-1316,364,194,-1710,-254,-379,1582,-1178,-484,-588,-1132,61,-433,-45,-583,-861,869,-261,624,1338,388,-1202,-688,311,-169,-739,-1005,-1051,1243,-439,-25,884,-1214,460,-1298,-371,-522,1717,-231,-1289,-185,-474,1078,-581,1085,-2354,-65,-868,-33,376,-736,282,-1273,-1015,-91,-991,743,1072,-1833,122,1279,997,-1254,485,-1001,-1810,-1780,457,338,-756,-860,-1145,-470,130,253,-1073,1989,320,-1294,271,999,-2723,-263,-235,1505,373,1354,835,-1487,-1004,-25,-604,724,-331,-422,-842,-353,464,-558,43,537,2551,-280,-951,0,-200,307,795,-552,-1191,-48,1,-1054,-644,208,-678,993,881,-1097,-549,879,64,290,713,1062,-89,-62,-616,891,-1664,1614,-158,158,970,-264,315,-433,603,1426,-762,-628,78,-838,237,-1011,-1605,1362,877,186,-1575,-353,1035,-968,-1052,-309,-1639,857,-1206,881,938,-351,1408,-53,825,-1167,348,-1371,761,858,2289,-447,175,1180,-655,1122,-78,487,313,-549,-1616,-518,630,-432,-539,947,-988,-190,517,793,518,238,298,1737,-397,1549,1395,1183,727,2200,-325,214,-1162,-533,-723,-1621,-619,-1131,1262,167,185,-902,606,278,-874,-1599,-1179,1374,-1482,-781,707,-1114,-468,245,-166,161,1204,1004,1193,1599,653,-1076,356,-984,-1193,99,1343,1364,710,-1273,-1005,-896,147,-721,546,232,-98,1547,-340,1142,-501,-130,-1299,-181,775,-1314,-1376,-919,91,294,878,-604,-960,319,248,-733,715,593,731,401,1200,532,-951,1360,-406,85,216,-198,1294,-1058,-759,-121,-1745,-470,-262,-692,338,-876,1509,233,1053,-27,-1390,-1038,437,-682,-587,-1373,-1327,694,673,-109,-1058,-182,1046,-421,832,-635,1178,1629,692,-1886,-1302,1136,-1079,565,-723,937,-1811,-1570,-1234,103,501,504,-1992,-605,9,600,-1657,-1714,957,28,61,-1050,-250,-1187,-585,-1926,1575,-1217,1500,95,667,252,-204,-364,-637,246,1407,-788,1026,-1289,-818,1199,-733,-138,-1654,1157,1136,-102,945,1546,-648,889,45,-1073,510,939,778,315,-1395,860,-22,20,602,726,-329,405,-500,-102,2672,1036,-757,670,1368,-278,547,486,1741,-167,67,-1146,146,-140,563,387,119,-621,1242,-1755,1182,-1491,-1039,-813,-500,130,-722,-883,-966,225,503,193,669,-468,-1836,-531,616,2281,-397,-323,-1443,2137,-1455,403,514,-623,-454,2360,-408,-387,-57,893,-110,3,1752,-564,226,-432,-644,599,711,289,1443,684,782,1709,-723,239,1559,923,-375,1281,-29,188,-56,1146,382,1416,-359,-1186,-342,29,31,151,-1086,1851,1206,171,1011,1484,161,129,-46,-235,2289,39,674,43,-1826,680,182,860,-248,1073,-583,-444,518,-1294};
const static uint32_t LSTM_02_weights_forget_gate_dims[4] = {1,1,24,48};
const static ConstTensor_t LSTM_02_weights_forget_gate = {&LSTM_02_weights_forget_gate_x[0],&LSTM_02_weights_forget_gate_dims[0],0};

const static Weight_t LSTM_02_biases_forget_gate_x[24] = {2804,2430,1994,2107,2032,2238,2116,2296,2301,2323,2072,2205,2142,2568,2091,2548,2167,2458,2114,2019,2421,1960,2607,2064};
const static uint32_t LSTM_02_biases_forget_gate_dims[4] = {1,1,1,24};
const static ConstTensor_t LSTM_02_biases_forget_gate = {&LSTM_02_biases_forget_gate_x[0],&LSTM_02_biases_forget_gate_dims[0],-1};

const static Weight_t LSTM_02_weights_output_gate_x[1152] = {-432,1279,-1056,1130,-1182,-983,101,-973,922,1127,1,-523,-1717,-1384,-28,47,-168,-340,120,-164,-944,466,1065,-618,-1466,929,16,235,-551,3,-862,200,945,-2257,759,916,-1356,-408,1026,671,881,163,1120,-352,-935,-649,-666,1069,544,-618,201,1646,1138,-198,1814,-287,-739,1413,254,-827,-661,-767,167,-876,-772,1204,369,374,126,-747,-276,1271,185,1599,-24,1036,241,-554,-1102,8,1835,1294,-2083,835,301,1918,-278,989,1797,-523,-109,123,277,142,-773,975,1391,623,803,1134,270,574,688,1264,800,587,173,985,-1064,866,-574,-1249,-1849,-1288,-1433,193,632,-295,216,1016,-545,586,-333,950,-266,-307,-137,-94,-1094,-145,-2151,-717,697,1640,405,991,-1514,1931,416,559,-745,1643,-175,400,1063,-50,368,-954,1086,-1502,-182,1482,-1049,-930,10,-325,945,699,323,-1385,615,1351,561,-400,-736,-1477,-1251,-654,-87,485,-536,-571,-453,967,107,-1391,-116,-52,-1135,-345,-1734,-1343,-1531,-970,-290,-529,-264,-943,691,2251,-1001,406,-486,-832,-457,-15,225,1097,-942,-601,-935,-1037,-1282,-237,-1371,-1667,1025,1204,283,1245,1519,1219,1597,117,-1157,-1062,-923,-968,97,-1,551,242,1068,184,2025,1375,-564,-723,-1390,731,628,1196,-172,-463,664,863,-4,-574,-84,-1108,697,1624,-198,1136,669,831,-652,1168,1545,145,312,625,-1028,1206,-999,303,1045,439,-1812,590,-1583,-87,-1603,-851,-1317,1210,314,-920,-468,752,524,-664,-977,1014,1466,-576,-277,358,-1095,-734,1608,1380,-1337,-683,-1566,657,1196,-1095,-762,870,-328,815,-1280,-757,-731,211,-1256,-1390,-1757,677,-1303,-1813,-948,1104,-88,-1096,661,628,1104,-505,-543,-863,47,1142,-82,619,1709,383,-1284,1679,189,679,-206,825,-1800,136,996,-745,-357,-414,283,1739,69,196,2504,1123,55,1725,331,406,-344,-832,-1099,-955,-266,-671,-819,-1481,155,-330,633,452,-886,-874,-400,1264,1498,-212,287,1046,123,-798,-555,502,-1271,-200,831,301,94,-888,1059,1103,829,1690,-1324,-1053,489,-1097,170,1199,798,223,31,1745,704,1450,-313,-574,792,-1172,394,-1020,246,-1600,247,-1205,-369,26,1266,1508,1187,-658,356,1000,296,1369,1031,82,2633,-1049,64,-194,210,1838,-259,1017,0,-560,-577,1781,-255,181,1186,716,2487,901,201,1221,249,282,280,-484,-1913,-546,564,170,899,780,-567,-863,-246,-497,846,390,613,-44,-933,304,1165,-474,-931,-1573,-1774,-242,-890,-1417,-412,-1619,1075,-1365,4,-2021,-891,-1945,-1256,-286,634,605,-159,-1333,-91,598,-427,-998,-1844,-610,-1176,1185,622,-427,-1191,102,-174,-1062,-1149,878,876,-1698,-815,214,-1182,848,-952,313,-1124,-546,833,-181,-8,5,-996,946,571,1043,196,-624,-1745,456,-1234,730,-2263,201,1483,820,1571,1127,591,-1032,-478,1116,-391,-17,215,1173,536,-382,1314,-751,-54,-843,-682,1240,-472,508,-1147,566,10,-795,1183,-578,734,280,853,-1041,600,-535,-997,-245,-2278,-469,-631,28,-977,-931,-2324,786,-455,-777,785,-1208,-1054,-1034,-1183,119,-1123,505,121,-316,14,256,-672,-2063,1364,-446,953,-439,387,614,-25,313,377,-470,664,-169,-1291,-1744,-1252,-220,-1269,-814,-592,1194,381,-26,1345,57,-282,-24,-1218,-1441,-318,49,-1787,-85,1702,185,602,-479,-1419,352,584,-330,99,-1506,-1431,720,1237,-450,-277,1692,-1453,-1526,-1016,294,-900,148,505,208,-1150,1316,-1148,-2665,299,-858,-1637,876,740,-612,-1028,369,-842,127,1319,180,-1849,77,1812,-887,1463,1215,508,1163,-1705,1598,-223,-1435,270,-413,248,11,-1116,7,1124,1783,-1718,717,357,715,1790,-1864,311,2033,819,-516,-546,-834,-87,-907,236,1574,1483,-386,-175,150,-326,-274,-1238,-1531,291,-692,396,915,-724,723,-915,393,1377,-719,-1166,-351,924,619,-382,-1510,1341,-854,335,-1712,726,321,249,-654,42,-342,465,-670,-1481,113,1014,1019,424,1129,-918,306,-632,115,-664,-687,1487,-61,357,-160,-1290,-515,-1102,888,-786,-1549,-81,-818,-861,-1899,-1670,-309,174,-201,-183,-942,-954,-1025,-1762,911,348,-190,-1172,-2328,-998,419,-240,-1717,1580,573,-822,1207,-391,-919,-1358,-298,-624,892,-782,547,-927,957,831,344,698,-354,-859,-1265,-960,954,402,436,613,-590,-280,741,-1154,1882,-1029,530,828,1256,-1298,94,-1138,1133,-750,100,-835,633,207,916,72,719,2298,-486,-1519,-1996,-1,-590,-19,-770,-681,-631,1770,-859,221,-230,872,408,-566,-502,1119,989,1443,-270,-1025,-571,-562,-1931,-225,-905,529,-515,-598,-208,431,-541,92,797,1097,1014,-655,-760,-303,-2216,-593,331,-895,38,-171,409,808,-1257,627,173,2397,1343,312,-482,580,-1046,239,41,1378,1269,-134,-725,1330,1434,1065,725,218,222,693,474,-1195,-549,504,988,-1217,-790,731,929,928,1289,-1489,-366,-997,-764,-1267,-165,1360,-945,-9,1022,-297,-208,972,-1439,2279,-638,674,298,-147,138,532,594,178,1803,-501,1451,-703,637,419,217,1064,-308,-584,-16,-1545,-945,1099,-120,173,-120,104,-423,-861,862,-350,205,-1323,563,-310,-216,-299,-1076,549,218,-1390,787,-1030,324,1107,-942,-128,437,75,852,562,-204,2737,-568,1411,703,53,125,447,-88,-838,-3,748,294,39,-1496,-764,-1637,-661,-1195,-926,-165,-222,691,-351,246,-381,-445,396,1048,572,879,-616,-1702,558,1764,-223,1167,-849,395,-524,1298,-898,281,390,-950,-219,-1207,-206,302,545,-1503,-945,-956,-238,1026,-165,1478,634,-719,-960,-290,-249,-1630,118,-464,919,-636,586,-1529,-217,-350,-56,-413,1286,864,-681,1140,1226,58,2077,726,-764,-115,-2439,-852,966,496,52,692,-803,667,-324,-767,-653,1224,-247,-800,1567,-915,-697,-1293,1428,881,-666,278,2088,-1014,-811,917,-863,-284,-416,1028,-821,595,-484,1536,-1188,-748,-435,-986,355,831,-2362,-653,-1677,-131,-1161,-959,-78,-2785,426,598,-116,-1275,-215,124,-609,1604,-22,-692,-1183,-1686,-1081,796,196,94,-568,-885,-309,57,-1650,-860,-643,362,-817,300,-468,-887,-474,532,716,852,-587,-619,-777,448,633,-538,953,387,-826,102,929,-1361,-572,-308,918,-78,-600,2441,-403,-205,-418,-1485,-672,-113,1064,-350,-306,1165,496,-2474,-321,486,58,-967,1830,-398};
const static uint32_t LSTM_02_weights_output_gate_dims[4] = {1,1,24,48};
const static ConstTensor_t LSTM_02_weights_output_gate = {&LSTM_02_weights_output_gate_x[0],&LSTM_02_weights_output_gate_dims[0],0};

const static Weight_t LSTM_02_biases_output_gate_x[24] = {629,1015,266,99,1702,50,1190,1432,1548,1116,1154,510,764,3582,192,-311,2016,1203,-355,530,1301,947,3,466};
const static uint32_t LSTM_02_biases_output_gate_dims[4] = {1,1,1,24};
const static ConstTensor_t LSTM_02_biases_output_gate = {&LSTM_02_biases_output_gate_x[0],&LSTM_02_biases_output_gate_dims[0],1};

const static LstmLayer_t lstm_02 = {&LSTM_02_weights_input_gate,&LSTM_02_biases_input_gate,&LSTM_02_weights_cell,&LSTM_02_biases_cell,&LSTM_02_weights_forget_gate,&LSTM_02_biases_forget_gate,&LSTM_02_weights_output_gate,&LSTM_02_biases_output_gate,LSTM_02_output_dims,LSTM_02_input_dims,TOFIX(0.200000),tinytensor_tanh};


const static Weight_t TimeDistributed_01_full_x[72] = {987,-1021,636,773,-1432,827,-1291,567,946,1565,-388,71,-420,-629,1303,-165,-221,-1775,-165,977,-1430,593,-1588,506,597,-1406,1139,-235,-156,1567,-130,591,-550,394,105,-1641,469,-1272,-544,-1092,-908,2306,543,-511,-630,984,-762,690,-441,-658,1947,-1331,-490,1814,357,-866,-911,199,-242,474,1287,-1283,214,-707,2049,-129,1172,-733,-670,-599,-907,-160};
const static uint32_t TimeDistributed_01_full_dims[4] = {1,1,24,3};
const static ConstTensor_t TimeDistributed_01_full = {&TimeDistributed_01_full_x[0],&TimeDistributed_01_full_dims[0],-1};

const static Weight_t TimeDistributed_01_bias_x[3] = {2395,-1368,-2668};
const static uint32_t TimeDistributed_01_bias_dims[4] = {3,1,1,1};
const static ConstTensor_t TimeDistributed_01_bias = {&TimeDistributed_01_bias_x[0],&TimeDistributed_01_bias_dims[0],0};

const static uint32_t TimeDistributed_01_input_dims[4] = {1,1,1,24};
const static uint32_t TimeDistributed_01_output_dims[4] = {1,1,1,3};
const static FullyConnectedLayer_t timedistributed_01 = {&TimeDistributed_01_full,&TimeDistributed_01_bias,TimeDistributed_01_output_dims,TimeDistributed_01_input_dims,TOFIX(0.2),tinytensor_linear,1};






static ConstLayer_t _layers[3];
static ConstSequentialNetwork_t net = {&_layers[0],3};
static ConstSequentialNetwork_t initialize_network(void) {

  _layers[0] = tinytensor_create_lstm_layer(&lstm_01);
  _layers[1] = tinytensor_create_lstm_layer(&lstm_02);
  _layers[2] = tinytensor_create_fullyconnected_layer(&timedistributed_01);
  return net;

}
